~o
<STREAMINFO> 1 39
<VECSIZE> 39<NULLD><MFCC_E_D_A><DIAGC>
~h "eight"
<BEGINHMM>
<NUMSTATES> 5
<STATE> 2
<MEAN> 39
 -8.067477e+00 -3.684525e+00 1.222846e+01 -1.313950e+01 -1.642035e+01 -5.621996e+00 -5.500629e+00 -6.095977e+00 -4.223722e+00 -1.182373e+00 -3.913949e+00 -4.021295e+00 6.009442e-01 1.329428e-01 2.546241e-01 3.072818e-01 -1.161760e-02 -2.456204e-01 -1.280571e-01 -2.924074e-01 -3.265584e-01 -7.757573e-02 -3.818103e-02 -3.157302e-02 4.716188e-04 6.347369e-03 -3.761554e-02 2.052245e-02 -1.376937e-01 1.210709e-01 1.531016e-01 1.814336e-02 3.731744e-02 2.684906e-02 3.788890e-02 -8.998348e-03 3.840434e-02 2.834458e-02 -5.051618e-03
<VARIANCE> 39
 2.691506e+01 6.794340e+01 9.412510e+01 1.146236e+02 8.667411e+01 5.742994e+01 8.388721e+01 8.377895e+01 5.733878e+01 5.619555e+01 8.218150e+01 4.132838e+01 8.502727e-02 1.058859e+00 2.066468e+00 3.138560e+00 3.800203e+00 4.413045e+00 2.156939e+00 2.717740e+00 2.707565e+00 2.263985e+00 2.349733e+00 2.373324e+00 1.852490e+00 4.636019e-03 1.822726e-01 3.147950e-01 4.195759e-01 5.383856e-01 5.936050e-01 3.793194e-01 4.446459e-01 4.621689e-01 3.939416e-01 4.110348e-01 3.782654e-01 3.133599e-01 4.345146e-04
<GCONST> 1.057646e+02
<STATE> 3
<MEAN> 39
 -1.630747e+01 3.571984e-01 4.314027e-01 -3.433571e+00 -3.045079e+00 -5.453194e+00 -4.753057e-02 -3.752451e+00 -5.129980e-01 -2.060672e+00 2.114142e-01 -9.109194e-01 2.647001e-01 -7.508909e-01 -1.088854e-01 -7.216120e-01 1.597174e-01 5.662017e-01 -5.663389e-02 6.424597e-01 5.587217e-01 1.785063e-01 1.449100e-02 2.442816e-01 1.324970e-01 1.027013e-03 7.807412e-02 -1.805472e-02 1.486894e-01 -7.316319e-02 -1.274897e-01 -5.332835e-03 -6.980658e-02 -3.373079e-02 -4.081314e-02 -1.398416e-02 -4.606694e-02 -1.917963e-02 1.665768e-03
<VARIANCE> 39
 7.016813e+01 3.850746e+01 6.229747e+01 4.568792e+01 5.288245e+01 4.297541e+01 4.923103e+01 4.382663e+01 3.363602e+01 3.021302e+01 3.124487e+01 2.364276e+01 6.384885e-02 3.671710e+00 2.788628e+00 3.828223e+00 3.035514e+00 3.311003e+00 2.745008e+00 3.067061e+00 2.916714e+00 2.651296e+00 2.523941e+00 2.349963e+00 1.930308e+00 4.929062e-03 5.775619e-01 4.858799e-01 5.509089e-01 5.243140e-01 5.179626e-01 5.017257e-01 5.287342e-01 5.193551e-01 4.920785e-01 4.665624e-01 4.356167e-01 3.695205e-01 7.063147e-04
<GCONST> 1.052872e+02
<STATE> 4
<MEAN> 39
 -1.612239e+01 -1.912048e+00 -2.173256e+00 -2.151786e+00 -8.933507e-01 -6.234066e+00 1.836329e+00 -8.712044e-01 -4.556656e-01 -3.478744e+00 2.652099e-01 -7.369682e-01 1.825886e-01 6.233008e-01 -2.127942e-01 -3.832677e-03 1.546490e-01 1.534794e-01 2.069611e-01 -1.890395e-01 -1.980283e-02 -3.706650e-02 -7.125933e-02 -1.094600e-01 -7.209088e-02 -2.199874e-02 -3.266675e-02 5.000940e-02 -5.030073e-03 -6.525842e-03 -9.937313e-03 2.501487e-02 -1.891108e-02 -2.893614e-02 2.944414e-03 1.753682e-02 5.062425e-03 -9.476524e-03 1.743607e-03
<VARIANCE> 39
 4.496173e+01 2.502953e+01 3.515265e+01 3.381211e+01 3.793689e+01 4.174622e+01 3.920097e+01 3.990467e+01 3.207762e+01 3.215013e+01 3.038144e+01 2.238493e+01 5.211736e-02 8.946699e-01 8.071182e-01 9.570158e-01 1.205577e+00 1.516201e+00 1.808503e+00 1.784694e+00 1.972489e+00 1.876056e+00 1.856363e+00 1.650444e+00 1.476841e+00 8.184870e-04 1.064548e-01 1.198095e-01 1.594572e-01 2.134015e-01 2.756318e-01 3.226081e-01 3.321071e-01 3.676336e-01 3.683505e-01 3.534116e-01 3.231515e-01 2.897373e-01 9.382516e-05
<GCONST> 8.218149e+01
<TRANSP> 5
 0.000000e+00 1.000000e+00 0.000000e+00 0.000000e+00 0.000000e+00
 0.000000e+00 9.647132e-01 3.528684e-02 0.000000e+00 0.000000e+00
 0.000000e+00 0.000000e+00 9.398367e-01 6.016327e-02 0.000000e+00
 0.000000e+00 0.000000e+00 0.000000e+00 9.278631e-01 7.213696e-02
 0.000000e+00 0.000000e+00 0.000000e+00 0.000000e+00 0.000000e+00
<ENDHMM>
