~o
<STREAMINFO> 1 39
<VECSIZE> 39<NULLD><MFCC_E_D_A><DIAGC>
~h "eight"
<BEGINHMM>
<NUMSTATES> 5
<STATE> 2
<MEAN> 39
 -3.397187e+00 -4.027782e+00 1.081031e+00 -5.127164e+00 -1.177660e+01 -7.565286e+00 4.071688e+00 4.808898e+00 2.524353e-01 -1.107088e+00 4.442068e+00 -5.303173e+00 4.494476e-01 3.066198e-01 7.618398e-02 7.881364e-01 -4.827791e-01 -2.079836e+00 -1.313563e+00 -6.626187e-01 7.346628e-01 -6.413371e-01 -1.097990e-01 1.855764e+00 -1.085530e+00 5.533578e-02 -9.300255e-03 1.020819e-02 1.987653e-01 -1.176034e-02 5.407846e-02 3.631996e-02 -4.742921e-02 -1.659351e-01 -6.631305e-02 -8.038897e-03 1.116676e-01 6.296749e-02 1.891724e-04
<VARIANCE> 39
 8.501295e+00 5.631951e+00 2.246218e+01 2.187936e+01 1.174166e+02 5.478444e+01 1.932624e+01 3.701128e+01 1.891355e+01 1.416637e+01 6.572032e+01 4.832164e+01 7.893427e-02 6.946395e-01 7.776318e-01 2.549537e+00 1.830072e+00 4.117071e+00 2.725320e+00 1.895427e+00 3.225382e+00 1.515363e+00 1.265152e+00 1.703666e+00 3.305445e+00 2.471695e-03 1.296936e-01 1.713098e-01 3.635088e-01 3.617876e-01 7.697863e-01 5.513804e-01 3.934217e-01 5.439734e-01 2.604310e-01 2.512398e-01 3.311450e-01 7.237120e-01 4.741914e-04
<GCONST> 8.968549e+01
<STATE> 3
<MEAN> 39
 -2.419177e+00 -2.334934e-01 1.427267e+01 -4.255280e+00 -1.780667e+01 -1.032145e+01 -3.699529e+00 -3.751561e+00 -6.796189e+00 -5.922594e+00 1.266832e+01 -5.914019e+00 5.945139e-01 -6.851374e-02 8.599539e-03 -1.177965e-01 3.258107e-01 9.588210e-01 4.131927e-01 -3.730103e-02 -6.721133e-01 -1.015774e-02 -1.021929e-01 -8.924971e-01 5.901831e-01 -2.586640e-02 -1.282675e-02 -5.767373e-02 -1.790027e-01 -1.860472e-04 7.774836e-02 1.382028e-02 5.435997e-02 7.713308e-02 6.343647e-02 5.248486e-02 -1.221616e-01 1.338206e-02 -2.444295e-03
<VARIANCE> 39
 1.371442e+00 6.116720e+00 1.054186e+01 1.434582e+01 5.591555e+01 2.550211e+01 1.032862e+01 2.404002e+01 1.283810e+01 1.981542e+01 4.827985e+01 2.877217e+01 3.394058e-02 1.742475e-01 5.901741e-01 1.516653e+00 7.342384e-01 1.412639e+00 9.813465e-01 1.057732e+00 1.456747e+00 1.291711e+00 1.931952e+00 1.790577e+00 1.707914e+00 3.480910e-04 2.562365e-02 6.040335e-02 1.044710e-01 1.379347e-01 1.830729e-01 2.051659e-01 2.126783e-01 2.121762e-01 2.245363e-01 3.323754e-01 3.333010e-01 3.565681e-01 3.796592e-05
<GCONST> 6.165864e+01
<STATE> 4
<MEAN> 39
 -9.269347e+00 -1.223239e+00 -3.654010e+00 -5.570781e+00 -2.817731e+00 -9.996911e+00 5.120508e+00 -6.038377e-01 9.803905e-01 1.500010e+00 8.083666e-01 4.223004e+00 2.323533e-01 -8.614425e-02 -3.280117e-02 -2.434698e-01 -3.522961e-02 1.949033e-01 1.529605e-01 2.500306e-01 2.038526e-01 3.081881e-01 1.426688e-01 -6.509735e-02 6.556348e-02 -4.843758e-03 1.673916e-02 1.341731e-02 7.743609e-02 1.528450e-02 -1.411833e-02 3.451869e-02 -6.292840e-03 -8.773593e-03 -2.948688e-02 -3.491013e-02 2.402918e-02 -3.392322e-02 1.054710e-03
<VARIANCE> 39
 2.857963e+01 1.585258e+01 2.753182e+01 1.486095e+01 1.757079e+01 4.120691e+01 1.939866e+01 2.658607e+01 2.542568e+01 1.876719e+01 2.021007e+01 1.830486e+01 9.497879e-03 1.991774e+00 1.605005e+00 2.343018e+00 1.202559e+00 1.408423e+00 2.917766e+00 1.670878e+00 1.857488e+00 1.638085e+00 1.908948e+00 1.623807e+00 1.984031e+00 7.220227e-04 2.359518e-01 2.851291e-01 3.346332e-01 2.199233e-01 2.112690e-01 4.074595e-01 2.789719e-01 3.310654e-01 3.158182e-01 3.777674e-01 2.805772e-01 3.855978e-01 1.017820e-04
<GCONST> 8.019745e+01
<TRANSP> 5
 0.000000e+00 1.000000e+00 0.000000e+00 0.000000e+00 0.000000e+00
 0.000000e+00 9.172860e-01 8.271404e-02 0.000000e+00 0.000000e+00
 0.000000e+00 0.000000e+00 9.516773e-01 4.832268e-02 0.000000e+00
 0.000000e+00 0.000000e+00 0.000000e+00 9.650893e-01 3.491067e-02
 0.000000e+00 0.000000e+00 0.000000e+00 0.000000e+00 0.000000e+00
<ENDHMM>
