~o
<STREAMINFO> 1 39
<VECSIZE> 39<NULLD><MFCC_E_D_A><DIAGC>
~h "eight"
<BEGINHMM>
<NUMSTATES> 5
<STATE> 2
<MEAN> 39
 -8.419194e+00 -7.994457e+00 2.844411e+00 -9.780397e+00 -8.026477e+00 -5.480120e+00 -2.650588e+00 -1.783214e+00 -1.868431e+00 -6.348879e+00 -2.039897e+00 -1.794861e+00 2.869847e-01 3.749913e-01 -4.711816e-01 1.186231e+00 -9.816310e-01 -1.433132e+00 -2.649800e-01 -2.115058e-01 7.587613e-01 1.484983e-01 2.318322e-01 -1.777565e-01 -2.590163e-01 5.737843e-02 -4.975460e-02 1.172081e-01 -3.278499e-02 1.030305e-01 4.533420e-02 4.502920e-02 -1.367383e-01 -3.932976e-02 -3.505865e-02 6.036405e-03 7.341009e-02 3.662528e-02 -4.009569e-03
<VARIANCE> 39
 1.958125e+01 4.939764e+01 6.431516e+01 8.928377e+01 9.398254e+01 4.914217e+01 3.920527e+01 8.256488e+01 3.115808e+01 4.771038e+01 3.796733e+01 3.530305e+01 1.427226e-01 1.476561e+00 3.736791e+00 4.229321e+00 4.651784e+00 5.550067e+00 2.780102e+00 3.235035e+00 4.571095e+00 2.451988e+00 3.017717e+00 3.141855e+00 2.052737e+00 6.327206e-03 2.803631e-01 6.111406e-01 7.447522e-01 7.117977e-01 9.639019e-01 4.958104e-01 5.562957e-01 7.557752e-01 4.676984e-01 5.083311e-01 5.163171e-01 3.887290e-01 9.701857e-04
<GCONST> 1.112214e+02
<STATE> 3
<MEAN> 39
 -6.441402e+00 -6.999003e+00 1.629684e+01 -1.124088e+01 -1.763160e+01 -7.080283e+00 -6.538758e+00 -1.103634e+00 -3.941991e+00 -2.817236e+00 1.144028e+00 -2.827683e+00 6.408142e-01 -1.413868e-01 3.948352e-01 -2.588308e-01 5.813956e-01 4.259078e-01 1.755682e-01 1.858283e-03 -7.148781e-01 -7.089517e-02 -6.593937e-02 1.530741e-01 2.076707e-01 -2.397298e-02 -1.943524e-02 -2.582197e-02 -1.515244e-01 5.871570e-02 1.263364e-01 2.006549e-02 7.943550e-02 -1.998338e-03 3.369740e-02 -3.794843e-02 -5.572508e-02 -9.409739e-03 -3.705844e-03
<VARIANCE> 39
 9.876875e+00 4.536554e+01 3.276624e+01 1.450485e+02 5.590026e+01 5.791134e+01 4.312871e+01 1.085635e+02 3.422576e+01 3.409501e+01 7.682467e+01 3.372779e+01 3.699396e-02 2.782018e-01 7.390194e-01 2.251983e+00 1.573483e+00 1.739388e+00 1.303192e+00 1.468435e+00 1.736946e+00 2.098172e+00 1.731971e+00 1.611756e+00 1.376603e+00 6.384341e-04 4.243232e-02 9.041572e-02 1.679239e-01 2.454414e-01 2.266653e-01 2.171819e-01 2.521627e-01 3.436849e-01 3.602769e-01 2.992856e-01 2.897300e-01 2.599784e-01 6.125613e-05
<GCONST> 8.185355e+01
<STATE> 4
<MEAN> 39
 -1.551404e+01 -2.475611e+00 -2.796758e+00 -3.812128e+00 -1.138863e+00 -6.636407e+00 -9.380215e-01 -4.786158e+00 -3.072615e+00 -5.292572e+00 -1.017809e+00 -1.181354e+00 1.743928e-01 -1.061415e-01 -7.836174e-03 -3.518537e-01 4.764035e-02 3.709787e-01 -2.163907e-04 1.063118e-01 1.655290e-01 -2.882418e-02 -9.547165e-02 -8.503589e-02 -3.388729e-02 -8.390571e-03 2.265467e-02 -3.108774e-04 7.961580e-02 -4.040103e-02 -7.191849e-02 -5.689817e-03 -3.269633e-02 -1.408357e-02 -1.612096e-02 2.011472e-02 9.654521e-03 -1.383695e-02 1.616588e-03
<VARIANCE> 39
 4.892820e+01 1.872074e+01 2.429561e+01 2.561397e+01 2.747607e+01 2.894075e+01 2.921367e+01 2.940658e+01 2.458336e+01 2.382523e+01 2.199604e+01 1.637588e+01 4.702078e-02 2.928120e+00 1.520495e+00 2.404501e+00 1.692624e+00 2.066903e+00 2.603477e+00 2.291423e+00 2.194350e+00 2.219899e+00 2.610826e+00 1.859202e+00 1.617867e+00 2.779548e-03 3.546693e-01 2.769460e-01 3.723809e-01 3.173405e-01 3.448712e-01 5.020545e-01 3.825597e-01 4.101952e-01 4.313641e-01 5.214997e-01 3.451236e-01 3.113533e-01 4.136760e-04
<GCONST> 9.116057e+01
<TRANSP> 5
 0.000000e+00 1.000000e+00 0.000000e+00 0.000000e+00 0.000000e+00
 0.000000e+00 9.182754e-01 8.172462e-02 0.000000e+00 0.000000e+00
 0.000000e+00 0.000000e+00 9.493322e-01 5.066779e-02 0.000000e+00
 0.000000e+00 0.000000e+00 0.000000e+00 9.652070e-01 3.479301e-02
 0.000000e+00 0.000000e+00 0.000000e+00 0.000000e+00 0.000000e+00
<ENDHMM>
