~o
<STREAMINFO> 1 39
<VECSIZE> 39<NULLD><MFCC_E_D_A><DIAGC>
~h "eight"
<BEGINHMM>
<NUMSTATES> 5
<STATE> 2
<MEAN> 39
 -5.568581e+00 -7.555374e+00 9.548794e+00 -4.005253e+00 -2.260012e+00 -8.694699e+00 -3.719093e+00 1.368336e+01 -5.239696e+00 -1.331275e+00 -7.945804e+00 -2.006462e+00 6.289980e-01 1.805891e-01 -2.530860e-01 7.392560e-01 -1.873720e-01 -1.277735e+00 -6.523171e-01 4.400363e-03 1.125585e+00 -3.353243e-01 6.038733e-01 7.247922e-01 2.149456e-01 3.156387e-02 -1.565040e-02 1.066971e-01 6.729036e-02 2.217689e-02 -3.373205e-02 8.739412e-02 -9.819697e-02 -2.400395e-01 -7.047944e-02 -2.537079e-03 1.562259e-01 4.115438e-02 -1.786571e-03
<VARIANCE> 39
 9.238046e+00 1.498459e+01 1.336775e+01 9.154067e+00 5.085386e+01 2.026188e+01 1.994679e+01 1.623515e+02 2.540227e+01 4.100855e+01 2.797671e+01 2.178600e+01 4.228893e-02 1.184482e+00 1.604815e+00 6.831326e-01 9.764916e-01 1.128004e+00 7.956428e-01 2.044517e+00 1.264858e+01 2.592228e+00 1.359699e+00 1.871287e+00 2.487848e+00 1.545144e-03 2.471822e-01 3.079980e-01 1.479132e-01 1.775325e-01 1.347505e-01 1.838543e-01 5.377290e-01 1.488563e+00 5.326252e-01 1.954581e-01 3.033985e-01 4.835555e-01 2.183654e-04
<GCONST> 8.359380e+01
<STATE> 3
<MEAN> 39
 -6.913574e+00 -9.164769e-01 1.612433e+01 -4.201358e+00 -8.480947e+00 -7.926672e+00 -1.050961e+01 3.149694e+00 -9.729631e+00 1.640332e+00 -1.061110e+00 2.861481e+00 6.461568e-01 -2.558263e-01 7.832387e-01 -6.970913e-01 1.730972e-01 1.552142e+00 7.819796e-01 -6.512941e-01 -1.678643e+00 -4.158663e-02 -8.335319e-01 -6.851659e-01 -2.905017e-01 -3.376065e-02 7.248689e-02 -2.465255e-01 -4.166681e-01 5.989363e-02 1.557804e-01 -9.965718e-02 2.785316e-01 1.206951e-01 3.838953e-01 -9.939553e-02 -1.919722e-01 -1.822392e-01 -3.169399e-03
<VARIANCE> 39
 1.969457e+00 1.053073e+01 1.578957e+01 1.421920e+01 3.838667e+01 1.952933e+01 1.702013e+01 6.000166e+01 9.996217e+00 1.842545e+01 2.193425e+01 1.568931e+01 1.344317e-02 2.562080e-01 1.184818e+00 2.425296e+00 6.850145e-01 1.309610e+00 1.218416e+00 2.386124e+00 2.696186e+00 2.321930e+00 8.351872e-01 1.041946e+00 8.372638e-01 3.050464e-04 3.824891e-02 1.252449e-01 1.596808e-01 1.219098e-01 3.761794e-01 1.873313e-01 1.921943e-01 3.269495e-01 2.490574e-01 2.118759e-01 1.951248e-01 1.119235e-01 4.462939e-05
<GCONST> 6.301132e+01
<STATE> 4
<MEAN> 39
 -1.076246e+01 -1.768546e+00 6.474125e+00 -2.468997e+00 2.987441e+00 -4.654772e+00 -5.418336e+00 -3.325941e+00 -1.212725e+00 -5.519224e+00 -3.759769e+00 -1.321312e+00 4.064085e-01 -9.054496e-03 -6.973401e-02 -1.658607e-01 4.582666e-02 1.167713e-01 1.159251e-01 2.424628e-01 -8.999110e-02 2.282098e-01 -1.227667e-01 -5.658561e-02 -1.582635e-02 -4.577755e-03 2.640470e-03 2.936304e-02 6.512106e-02 -4.363770e-02 -2.797485e-02 4.111026e-03 -1.216981e-02 7.967823e-02 -2.493751e-02 5.893701e-02 7.810927e-03 1.007099e-02 1.347739e-03
<VARIANCE> 39
 3.281258e+01 6.654145e+00 9.067484e+00 1.541209e+01 9.337207e+00 1.481077e+01 1.729697e+01 3.073873e+01 1.408685e+01 1.272514e+01 1.752571e+01 8.654408e+00 6.551463e-03 3.141641e+00 9.688019e-01 1.084516e+00 1.155890e+00 1.046326e+00 1.725138e+00 1.906319e+00 3.138880e+00 1.876076e+00 1.704461e+00 2.019588e+00 1.049534e+00 9.447911e-04 4.816456e-01 1.937615e-01 1.720506e-01 2.003973e-01 1.908585e-01 2.892887e-01 3.623009e-01 5.519993e-01 3.463345e-01 3.516927e-01 3.138631e-01 2.020522e-01 1.575090e-04
<GCONST> 7.319430e+01
<TRANSP> 5
 0.000000e+00 1.000000e+00 0.000000e+00 0.000000e+00 0.000000e+00
 0.000000e+00 9.107215e-01 8.927847e-02 0.000000e+00 0.000000e+00
 0.000000e+00 0.000000e+00 8.582779e-01 1.417221e-01 0.000000e+00
 0.000000e+00 0.000000e+00 0.000000e+00 9.550420e-01 4.495800e-02
 0.000000e+00 0.000000e+00 0.000000e+00 0.000000e+00 0.000000e+00
<ENDHMM>
