~o
<STREAMINFO> 1 39
<VECSIZE> 39<NULLD><MFCC_E_D_A><DIAGC>
~h "five"
<BEGINHMM>
<NUMSTATES> 5
<STATE> 2
<MEAN> 39
 -8.437886e+00 -4.601644e+00 -3.960186e+00 -5.552055e+00 -2.055511e+00 -2.380801e+00 6.210584e+00 -2.860405e-01 -5.737694e-01 3.125525e+00 3.114009e+00 -3.593745e+00 3.017750e-01 6.037163e-01 -1.095099e-01 -2.427397e-01 -1.411945e+00 -8.762006e-01 7.531940e-01 -3.301362e-01 -5.549395e-02 -3.112119e-01 -6.059463e-02 8.177304e-01 -9.222677e-01 4.177200e-02 3.572110e-02 -6.875662e-02 1.212271e-02 -9.316516e-02 3.382567e-02 1.932223e-01 -4.992041e-02 1.634911e-02 7.457136e-02 -6.691678e-02 -3.911269e-02 -3.392518e-02 6.026070e-04
<VARIANCE> 39
 5.509449e+01 6.679006e+00 9.252199e+00 9.739429e+01 4.988509e+01 3.953032e+01 2.271130e+01 1.549098e+01 2.139773e+01 1.288913e+01 3.713263e+01 3.406614e+01 7.571642e-02 4.915576e+00 5.084752e-01 6.070371e-01 6.165982e+00 3.456231e+00 5.713523e+00 1.834400e+00 2.276528e+00 2.803195e+00 1.340974e+00 2.664395e+00 2.897674e+00 4.258257e-03 7.595576e-01 7.822841e-02 1.065063e-01 8.167896e-01 7.045340e-01 7.431882e-01 3.589850e-01 4.873030e-01 6.621935e-01 2.539035e-01 5.566379e-01 5.275347e-01 7.409932e-04
<GCONST> 9.470663e+01
<STATE> 3
<MEAN> 39
 2.686332e+00 -8.224705e+00 -6.765490e+00 -2.211213e+01 -8.450428e+00 7.424866e+00 -4.012966e+00 1.774426e+00 1.580551e+00 4.280322e+00 6.804134e+00 -1.750203e+01 8.063934e-01 -1.429485e-01 9.673181e-02 3.107862e-01 8.375072e-01 1.562896e-01 -1.276296e+00 -2.978904e-01 1.789504e-01 2.665962e-01 3.286581e-01 -3.445994e-01 2.789002e-01 -1.163496e-02 7.286407e-03 6.575153e-02 4.833979e-02 1.237926e-01 -2.122304e-02 -1.939224e-01 4.751360e-02 -9.690411e-02 -1.046856e-01 -6.140494e-03 -1.812474e-03 1.403204e-01 -1.877997e-03
<VARIANCE> 39
 2.293524e+00 9.806934e+00 1.887020e+01 5.863357e+01 2.120799e+01 1.389337e+02 1.451875e+01 1.680468e+01 2.169139e+01 3.194792e+01 2.440516e+01 3.851225e+01 8.105140e-03 1.417514e-01 4.901402e-01 9.795413e-01 1.133470e+00 1.209084e+00 3.266229e+00 9.788997e-01 1.220014e+00 1.545536e+00 1.440723e+00 1.357141e+00 2.453084e+00 1.499558e-04 3.056844e-02 5.346352e-02 7.911330e-02 1.700482e-01 1.688077e-01 3.573433e-01 2.099172e-01 1.914280e-01 2.459543e-01 2.190107e-01 2.374476e-01 2.840927e-01 3.509815e-05
<GCONST> 6.342096e+01
<STATE> 4
<MEAN> 39
 -3.256667e+00 -3.173171e+00 5.110541e-01 -2.999894e+00 -3.788181e+00 -1.071602e+01 -1.195162e+00 -3.802245e+00 1.534036e+00 5.427368e+00 2.369542e+00 -1.423290e+00 3.184411e-01 -2.428218e-01 1.144642e-03 -3.595269e-02 2.563513e-01 4.248345e-01 4.328494e-01 2.961292e-01 -1.298198e-01 6.048675e-02 -1.301560e-01 -2.773591e-01 4.494103e-01 -1.890458e-02 2.903147e-03 -1.103833e-02 -3.219249e-02 -4.482358e-02 -5.252679e-03 7.150171e-02 1.458928e-02 7.612340e-02 3.992343e-02 2.282969e-02 -6.854663e-03 -6.373791e-02 9.167020e-04
<VARIANCE> 39
 1.670905e+01 8.989027e+00 1.334329e+01 1.322610e+01 2.611887e+01 3.186544e+01 1.688172e+01 1.486271e+01 2.077817e+01 1.842212e+01 2.419888e+01 2.154038e+01 3.118276e-02 5.857486e-01 7.060191e-01 1.023141e+00 9.977022e-01 9.997650e-01 1.445307e+00 1.255473e+00 1.754405e+00 2.686609e+00 1.925323e+00 1.354456e+00 1.977182e+00 2.721371e-04 6.981939e-02 1.154473e-01 1.570909e-01 1.694554e-01 2.108191e-01 3.089618e-01 2.214052e-01 3.240788e-01 5.567009e-01 3.518309e-01 2.582241e-01 3.820685e-01 3.122533e-05
<GCONST> 6.942860e+01
<TRANSP> 5
 0.000000e+00 1.000000e+00 0.000000e+00 0.000000e+00 0.000000e+00
 0.000000e+00 9.469867e-01 5.301329e-02 0.000000e+00 0.000000e+00
 0.000000e+00 0.000000e+00 9.549508e-01 4.504916e-02 0.000000e+00
 0.000000e+00 0.000000e+00 0.000000e+00 9.636496e-01 3.635037e-02
 0.000000e+00 0.000000e+00 0.000000e+00 0.000000e+00 0.000000e+00
<ENDHMM>
