~o
<STREAMINFO> 1 39
<VECSIZE> 39<NULLD><MFCC_E_D_A><DIAGC>
~h "five"
<BEGINHMM>
<NUMSTATES> 5
<STATE> 2
<MEAN> 39
 -1.325002e+01 -6.099530e+00 -5.447421e+00 -3.330125e+00 -3.388612e+00 -7.980626e-01 -4.199735e+00 -3.343014e+00 -1.563272e+00 -4.415376e+00 -2.202545e+00 -2.883227e+00 2.733062e-01 6.444007e-01 -5.855029e-01 -4.193551e-01 -7.201469e-01 -1.163005e-01 8.723605e-01 -2.252193e-01 -3.559011e-02 1.987890e-01 7.126319e-02 -1.244290e-01 -4.836487e-01 4.717238e-02 -3.853044e-03 -4.390242e-02 1.649688e-03 -2.481544e-02 6.947243e-02 3.701029e-02 -6.348941e-03 -1.165430e-02 1.094663e-02 -6.164473e-02 4.031156e-02 -7.126897e-03 -7.927874e-04
<VARIANCE> 39
 8.745387e+01 3.257110e+01 3.145933e+01 6.926718e+01 2.946549e+01 4.979292e+01 3.300044e+01 2.021823e+01 2.567970e+01 3.569478e+01 4.288528e+01 4.065171e+01 1.210927e-01 6.916086e+00 1.947628e+00 2.126128e+00 5.945884e+00 2.177145e+00 4.078834e+00 2.625455e+00 1.965865e+00 2.275641e+00 3.081863e+00 3.670091e+00 2.773498e+00 4.512672e-03 1.097468e+00 2.893790e-01 3.558918e-01 9.075925e-01 3.974901e-01 6.606483e-01 5.020655e-01 3.854464e-01 4.474457e-01 6.149890e-01 7.431655e-01 4.876286e-01 7.702613e-04
<GCONST> 1.063846e+02
<STATE> 3
<MEAN> 39
 -1.184883e+00 -1.633793e+01 -5.743702e+00 -9.865679e+00 -6.237171e+00 4.900136e+00 -4.291420e+00 -2.080359e+00 1.480137e+00 -6.915688e+00 -4.560852e+00 -8.480939e+00 7.828285e-01 -8.441334e-02 2.825299e-01 7.340432e-01 4.408293e-01 -4.948813e-01 -7.564341e-01 2.744734e-01 1.725741e-01 -8.947855e-02 7.443480e-02 5.619516e-02 3.141166e-01 -1.177133e-02 1.400757e-03 7.944795e-02 4.084535e-03 5.808523e-02 -2.195411e-02 -7.394715e-02 1.399139e-02 -1.928179e-02 -4.444217e-02 3.578139e-02 -5.574175e-03 1.571788e-02 -1.643408e-03
<VARIANCE> 39
 1.097282e+01 2.329938e+01 8.182607e+01 9.804303e+01 1.034685e+02 9.590127e+01 6.932230e+01 5.390285e+01 5.384418e+01 6.631672e+01 4.574697e+01 5.735938e+01 1.595850e-02 2.628089e-01 8.730553e-01 9.658639e-01 1.541689e+00 1.976750e+00 2.014340e+00 2.095428e+00 2.456754e+00 1.979943e+00 1.848306e+00 1.903248e+00 1.586624e+00 2.000692e-04 4.782330e-02 8.681382e-02 1.227621e-01 1.918273e-01 2.383588e-01 3.013403e-01 3.021681e-01 3.528481e-01 2.813457e-01 2.993150e-01 3.066393e-01 2.489359e-01 2.757676e-05
<GCONST> 8.173643e+01
<STATE> 4
<MEAN> 39
 -1.134389e+01 -5.245337e+00 -3.548771e-01 -1.254929e+00 -5.157311e+00 -4.205582e+00 -2.399291e+00 -3.312287e+00 -2.649161e+00 -5.659545e+00 -1.705668e+00 -1.213746e+00 1.847133e-01 -3.388092e-01 1.433957e-01 -3.847267e-01 7.563643e-02 5.519633e-01 1.333701e-01 -6.373858e-02 -1.483601e-01 -7.950851e-02 -1.263930e-01 3.105668e-02 3.442540e-02 -1.998064e-02 1.202212e-02 -4.166538e-02 -1.601837e-03 -3.996963e-02 -1.999514e-02 1.833181e-02 -9.388487e-03 2.321953e-02 1.761695e-02 1.368267e-03 -3.751262e-03 3.487995e-03 9.668855e-04
<VARIANCE> 39
 4.323464e+01 1.648827e+01 2.226336e+01 3.542174e+01 5.419844e+01 2.447461e+01 2.174332e+01 2.201722e+01 2.584142e+01 2.577789e+01 1.867228e+01 2.478137e+01 4.402058e-02 1.528582e+00 7.211521e-01 1.244518e+00 1.681115e+00 2.210704e+00 2.067897e+00 2.001674e+00 2.034633e+00 1.992165e+00 2.023785e+00 1.958973e+00 1.640708e+00 7.137699e-04 1.748874e-01 1.167451e-01 2.361383e-01 2.595048e-01 3.808281e-01 4.362090e-01 3.997775e-01 3.851956e-01 4.050989e-01 4.164754e-01 3.887778e-01 3.216531e-01 8.770477e-05
<GCONST> 8.332057e+01
<TRANSP> 5
 0.000000e+00 1.000000e+00 0.000000e+00 0.000000e+00 0.000000e+00
 0.000000e+00 9.458819e-01 5.411813e-02 0.000000e+00 0.000000e+00
 0.000000e+00 0.000000e+00 9.596739e-01 4.032610e-02 0.000000e+00
 0.000000e+00 0.000000e+00 0.000000e+00 9.629761e-01 3.702390e-02
 0.000000e+00 0.000000e+00 0.000000e+00 0.000000e+00 0.000000e+00
<ENDHMM>
