~o
<STREAMINFO> 1 39
<VECSIZE> 39<NULLD><MFCC_E_D_A><DIAGC>
~h "five"
<BEGINHMM>
<NUMSTATES> 5
<STATE> 2
<MEAN> 39
 -9.734708e+00 -3.910362e+00 2.135000e+00 -2.159956e+00 3.364513e+00 -5.230461e-01 -8.591648e-01 -1.822604e+00 -1.211100e+00 -3.585419e+00 -1.556675e+00 -4.784503e+00 5.331431e-01 5.887254e-01 -5.725498e-01 -3.586709e-01 -8.657153e-01 1.620348e-01 5.008056e-01 -1.381583e-01 2.586491e-01 1.198120e-01 2.667430e-01 4.080358e-01 -6.377760e-01 1.963091e-02 4.730280e-02 -4.993780e-02 3.961419e-02 -1.383925e-03 3.519360e-02 4.190994e-02 -5.539468e-02 -5.832198e-02 -3.962237e-03 -3.537672e-02 3.425851e-03 -4.039770e-02 9.537851e-04
<VARIANCE> 39
 5.017879e+01 1.561111e+01 1.428509e+01 4.804419e+01 1.537765e+01 2.446859e+01 2.077250e+01 2.013327e+01 1.798331e+01 1.373833e+01 1.702771e+01 2.865864e+01 3.922310e-02 4.589274e+00 9.962738e-01 7.577264e-01 2.044419e+00 1.508037e+00 1.121134e+00 2.753563e+00 1.567228e+00 1.820590e+00 1.634121e+00 1.153348e+00 1.917106e+00 2.342016e-03 7.505323e-01 1.123245e-01 1.456417e-01 3.710632e-01 2.643058e-01 1.596410e-01 4.829506e-01 3.032792e-01 4.288902e-01 3.596945e-01 1.965435e-01 3.833765e-01 3.273341e-04
<GCONST> 8.211496e+01
<STATE> 3
<MEAN> 39
 -3.021754e+00 -7.052500e+00 4.177687e+00 -6.655077e+00 1.139734e+00 -3.210216e+00 -3.276175e+00 3.502885e+00 4.157093e-01 -1.012298e+00 -1.973378e-01 -8.330035e+00 6.792372e-01 -3.025024e-01 6.068470e-01 6.304769e-01 6.354685e-01 -5.921884e-01 -9.436241e-01 -9.680947e-02 -1.603434e-01 -1.922222e-01 1.519641e-01 -1.317577e-01 6.283853e-01 -1.008500e-02 -3.561855e-02 5.708957e-02 -6.010327e-02 3.761644e-02 9.471782e-02 -1.411137e-02 2.997070e-02 -3.621540e-02 -1.380789e-02 -8.194377e-02 -8.163844e-02 1.085197e-02 -9.039377e-04
<VARIANCE> 39
 1.010076e+01 3.197233e+01 4.215392e+01 2.292666e+01 5.943329e+01 9.394000e+01 1.990744e+01 4.637565e+01 1.161932e+01 3.800110e+01 2.927076e+01 3.978817e+01 6.942611e-03 2.709410e-01 9.942292e-01 1.212962e+00 6.988888e-01 2.407300e+00 2.597705e+00 8.230177e-01 5.158670e+00 1.137378e+00 2.062003e+00 3.405675e+00 1.062582e+00 1.446145e-04 4.050630e-02 1.914172e-01 1.942929e-01 1.424455e-01 3.667144e-01 3.833919e-01 1.529596e-01 7.061328e-01 2.486825e-01 4.806007e-01 6.622077e-01 1.839384e-01 3.356750e-05
<GCONST> 7.589760e+01
<STATE> 4
<MEAN> 39
 -1.267826e+01 -6.128469e-01 4.697123e+00 -2.249948e-01 2.740489e+00 -5.790800e+00 -1.909502e+00 -5.035898e+00 -4.839799e-01 -5.324693e+00 -4.434237e+00 -1.642290e+00 3.913758e-01 -1.175554e-01 -1.989089e-01 -3.880804e-01 1.062824e-02 4.418233e-01 3.641519e-01 2.807019e-02 -1.794361e-01 1.578761e-01 -4.073123e-01 -3.016888e-01 -1.428331e-01 -1.125337e-02 5.856751e-02 -4.447678e-02 5.451706e-02 -4.475926e-02 -8.597244e-02 -4.517756e-02 6.865123e-03 1.996507e-02 -5.110707e-03 1.130063e-01 6.381024e-02 2.569291e-02 1.223213e-03
<VARIANCE> 39
 1.283274e+01 9.075941e+00 9.742418e+00 8.242637e+00 1.971118e+01 2.013178e+01 2.137442e+01 2.308127e+01 1.378111e+01 1.331978e+01 1.453547e+01 7.412770e+00 6.197889e-03 1.345019e+00 6.576316e-01 1.275994e+00 8.499784e-01 1.224265e+00 2.046411e+00 1.394310e+00 1.359314e+00 1.163357e+00 1.925966e+00 1.331293e+00 7.653335e-01 6.812801e-04 1.757267e-01 1.264354e-01 2.283439e-01 1.832139e-01 1.501659e-01 3.502201e-01 2.569895e-01 2.745359e-01 1.956418e-01 2.397092e-01 2.397481e-01 1.528656e-01 1.110217e-04
<GCONST> 6.481494e+01
<TRANSP> 5
 0.000000e+00 1.000000e+00 0.000000e+00 0.000000e+00 0.000000e+00
 0.000000e+00 9.447842e-01 5.521582e-02 0.000000e+00 0.000000e+00
 0.000000e+00 0.000000e+00 9.526833e-01 4.731669e-02 0.000000e+00
 0.000000e+00 0.000000e+00 0.000000e+00 9.518179e-01 4.818212e-02
 0.000000e+00 0.000000e+00 0.000000e+00 0.000000e+00 0.000000e+00
<ENDHMM>
