~o
<STREAMINFO> 1 39
<VECSIZE> 39<NULLD><MFCC_E_D_A><DIAGC>
~h "five"
<BEGINHMM>
<NUMSTATES> 5
<STATE> 2
<MEAN> 39
 -1.499718e+01 -5.674677e+00 -3.970752e+00 -3.942822e+00 -1.573281e+00 -1.367052e+00 -1.695592e+00 -2.438560e+00 -2.068097e-01 -1.982140e+00 -2.063194e+00 -3.359985e+00 3.234447e-01 7.173554e-01 -4.810140e-01 -4.749627e-01 -7.582485e-01 -5.072929e-02 3.350976e-01 -1.804865e-01 -2.550569e-01 -1.131436e-01 -1.342113e-02 -2.730679e-01 -4.662771e-01 4.211442e-02 2.345047e-02 -3.377767e-02 -2.740061e-03 1.877023e-02 5.944317e-02 3.379577e-02 6.877389e-03 -8.266513e-03 -5.364528e-03 -3.025328e-02 4.724806e-04 6.395499e-03 -6.382519e-04
<VARIANCE> 39
 1.034769e+02 4.424536e+01 5.323542e+01 7.721184e+01 4.221981e+01 4.184116e+01 3.878708e+01 3.921325e+01 3.623306e+01 3.417787e+01 4.619584e+01 3.626529e+01 1.032033e-01 6.729184e+00 2.340067e+00 2.298438e+00 4.612138e+00 2.495773e+00 3.011038e+00 2.697696e+00 2.777912e+00 2.602972e+00 2.580509e+00 2.909313e+00 2.596591e+00 3.362868e-03 1.040964e+00 3.628891e-01 4.015439e-01 8.204669e-01 4.507594e-01 5.221630e-01 5.061865e-01 5.120727e-01 4.884543e-01 4.814237e-01 5.283305e-01 4.829228e-01 5.681507e-04
<GCONST> 1.077189e+02
<STATE> 3
<MEAN> 39
 -1.884110e+00 -1.325261e+01 -5.237477e+00 -1.093184e+01 -5.007096e+00 -2.110567e+00 -2.310595e+00 -3.180727e+00 -2.914156e+00 -5.344736e+00 -7.383319e+00 -8.240606e+00 7.828203e-01 -9.715310e-02 2.653119e-01 6.502695e-01 3.327969e-01 -5.186377e-01 -6.204230e-01 1.016029e-01 2.237555e-01 -7.641661e-02 1.698908e-02 6.713472e-02 2.355835e-01 -8.369181e-03 1.177678e-02 6.817785e-02 1.458561e-02 3.336197e-02 -2.036827e-02 -4.399827e-02 -1.777266e-02 -8.627581e-03 -4.703602e-03 1.280106e-02 1.548196e-02 1.425501e-02 -1.255891e-03
<VARIANCE> 39
 2.301376e+01 5.935959e+01 8.817885e+01 6.389601e+01 1.185494e+02 1.023298e+02 7.549049e+01 9.224193e+01 8.011557e+01 7.413931e+01 7.413660e+01 5.369786e+01 1.173907e-02 2.326644e-01 7.380753e-01 9.238611e-01 1.176656e+00 1.776710e+00 1.509415e+00 1.777543e+00 1.966899e+00 1.618438e+00 1.845007e+00 1.518985e+00 1.397043e+00 1.224396e-04 3.533995e-02 8.560845e-02 1.155905e-01 1.586175e-01 2.168230e-01 2.171240e-01 2.554737e-01 2.780259e-01 2.589474e-01 2.774653e-01 2.356936e-01 2.223758e-01 2.001722e-05
<GCONST> 7.981656e+01
<STATE> 4
<MEAN> 39
 -1.168159e+01 -3.914655e+00 5.684001e-01 -2.105456e+00 -4.723465e+00 -6.585853e+00 -7.913124e-01 -7.004770e-01 -7.758183e-01 -3.500308e+00 -2.324080e+00 -2.098121e+00 2.618281e-01 -3.611024e-01 1.047825e-01 -2.838752e-01 2.257606e-01 5.501907e-01 3.118499e-01 3.807776e-02 -6.888233e-03 1.597953e-01 -3.847976e-02 1.245637e-01 1.234452e-01 -2.295845e-02 -3.797903e-04 -2.759915e-02 -1.383360e-02 -4.336790e-02 -9.428637e-03 3.181646e-02 1.704622e-02 9.766380e-03 1.825155e-03 9.490640e-03 -9.197503e-03 -1.769207e-02 5.172938e-04
<VARIANCE> 39
 5.700842e+01 3.049809e+01 4.812163e+01 3.653501e+01 6.523291e+01 4.659654e+01 3.821578e+01 4.375258e+01 4.493935e+01 3.591573e+01 3.485455e+01 2.510816e+01 5.493696e-02 2.047500e+00 1.418263e+00 1.511201e+00 1.845124e+00 2.581914e+00 2.404908e+00 2.334224e+00 2.455142e+00 2.434152e+00 2.338988e+00 2.089568e+00 1.781413e+00 9.856388e-04 2.489011e-01 2.107294e-01 2.390039e-01 2.914492e-01 4.175893e-01 4.418626e-01 4.320846e-01 4.473218e-01 4.423862e-01 4.358720e-01 3.784314e-01 3.378405e-01 1.336511e-04
<GCONST> 9.353671e+01
<TRANSP> 5
 0.000000e+00 1.000000e+00 0.000000e+00 0.000000e+00 0.000000e+00
 0.000000e+00 9.490096e-01 5.099038e-02 0.000000e+00 0.000000e+00
 0.000000e+00 0.000000e+00 9.614713e-01 3.852865e-02 0.000000e+00
 0.000000e+00 0.000000e+00 0.000000e+00 9.613481e-01 3.865195e-02
 0.000000e+00 0.000000e+00 0.000000e+00 0.000000e+00 0.000000e+00
<ENDHMM>
