~o
<STREAMINFO> 1 39
<VECSIZE> 39<NULLD><MFCC_E_D_A><DIAGC>
~h "four"
<BEGINHMM>
<NUMSTATES> 5
<STATE> 2
<MEAN> 39
 -1.512776e+01 -3.659734e+00 -3.912340e+00 -4.025383e+00 -3.593335e+00 -1.688608e+00 -2.423370e+00 -2.268056e+00 -1.174050e+00 -1.976326e+00 -1.281639e+00 -1.992492e+00 3.112343e-01 8.299004e-01 2.299154e-01 -1.825308e-01 -1.123241e+00 -6.508293e-01 1.852258e-01 -1.701529e-01 -1.217167e-01 -3.108557e-01 -8.317059e-02 -1.460771e-01 -7.804240e-02 3.720623e-02 5.041220e-02 1.174828e-02 1.498427e-02 -5.752229e-02 -1.161803e-02 1.464970e-02 1.066193e-02 2.695517e-02 1.547779e-02 -6.647574e-03 -2.040639e-02 -7.861968e-03 -3.048241e-04
<VARIANCE> 39
 1.119679e+02 3.883956e+01 4.381896e+01 1.087743e+02 6.395477e+01 3.520010e+01 3.714854e+01 3.633205e+01 4.259866e+01 3.121961e+01 3.104226e+01 2.027880e+01 8.575615e-02 6.673732e+00 2.273645e+00 1.865402e+00 6.509900e+00 3.576709e+00 2.544369e+00 2.495788e+00 2.638649e+00 3.014254e+00 2.413945e+00 2.147770e+00 1.668174e+00 2.618562e-03 8.910082e-01 4.030728e-01 3.260293e-01 9.384360e-01 6.262606e-01 4.541785e-01 4.609875e-01 4.977991e-01 5.626398e-01 4.613873e-01 3.962938e-01 3.216191e-01 4.465695e-04
<GCONST> 1.051977e+02
<STATE> 3
<MEAN> 39
 4.064800e+00 1.268983e+00 -6.309454e+00 -2.452160e+01 -1.364305e+01 1.578590e+00 -3.308816e+00 -2.796547e+00 -4.883948e+00 -4.728173e+00 -4.486677e+00 -4.164653e+00 7.858147e-01 6.641862e-03 -7.537109e-02 -8.586975e-02 2.999093e-01 1.738267e-01 -2.255095e-02 1.128550e-01 5.141901e-02 7.340143e-02 5.598851e-02 7.634488e-02 -9.350419e-02 -6.121357e-03 -3.488743e-02 -3.370099e-02 -2.754907e-02 1.506426e-01 7.626973e-02 -3.788225e-02 -1.288619e-03 -4.096508e-02 -2.727491e-02 1.883624e-02 3.438945e-02 -9.852225e-03 -1.488779e-03
<VARIANCE> 39
 1.966595e+01 4.113194e+01 6.186558e+01 7.431952e+01 7.121577e+01 6.264840e+01 6.602725e+01 6.195324e+01 8.055227e+01 5.164683e+01 5.535735e+01 4.235701e+01 1.047673e-02 1.706355e-01 5.607885e-01 5.668134e-01 1.016777e+00 9.783514e-01 1.226258e+00 1.178418e+00 1.259393e+00 1.336502e+00 1.368106e+00 1.169455e+00 1.127615e+00 1.084095e-04 3.148033e-02 7.098223e-02 8.844847e-02 1.533545e-01 1.535329e-01 1.971533e-01 1.922671e-01 2.039759e-01 2.093170e-01 2.139227e-01 1.927396e-01 1.834831e-01 1.853922e-05
<GCONST> 7.000628e+01
<STATE> 4
<MEAN> 39
 -2.570001e+00 -5.068509e+00 -6.742600e+00 -5.063289e+00 -3.603734e+00 -5.558328e+00 -2.090410e+00 2.660036e-01 -2.699628e+00 -3.688122e+00 -2.707718e+00 -4.079747e+00 3.895830e-01 -5.857301e-01 -1.286170e-01 2.015504e-01 7.474846e-01 4.330938e-01 -2.015595e-01 8.561248e-02 9.010048e-02 1.633191e-01 -2.754040e-02 5.629661e-02 1.373472e-01 -2.726315e-02 -6.079052e-03 2.769072e-02 1.843665e-02 -6.639512e-02 -3.649810e-02 2.378301e-02 -6.649041e-04 1.417328e-03 1.277331e-02 -2.745602e-03 -4.517725e-03 1.853277e-02 -3.214024e-05
<VARIANCE> 39
 5.368132e+01 5.596160e+01 5.728813e+01 9.074198e+01 7.165626e+01 9.935640e+01 6.103037e+01 6.535328e+01 7.535555e+01 6.070945e+01 5.017376e+01 4.109864e+01 9.004027e-02 7.565389e-01 1.333003e+00 1.513057e+00 2.625058e+00 2.491493e+00 2.956623e+00 2.651694e+00 2.847392e+00 2.606055e+00 2.848107e+00 2.331398e+00 2.011297e+00 7.869130e-04 9.891853e-02 1.730473e-01 2.093622e-01 3.122192e-01 3.419195e-01 3.912061e-01 4.183753e-01 4.576948e-01 4.390449e-01 4.587028e-01 3.931452e-01 3.462531e-01 9.078001e-05
<GCONST> 9.749989e+01
<TRANSP> 5
 0.000000e+00 1.000000e+00 0.000000e+00 0.000000e+00 0.000000e+00
 0.000000e+00 9.534917e-01 4.650830e-02 0.000000e+00 0.000000e+00
 0.000000e+00 0.000000e+00 9.466530e-01 5.334701e-02 0.000000e+00
 0.000000e+00 0.000000e+00 0.000000e+00 9.575112e-01 4.248880e-02
 0.000000e+00 0.000000e+00 0.000000e+00 0.000000e+00 0.000000e+00
<ENDHMM>
