~o
<STREAMINFO> 1 39
<VECSIZE> 39<NULLD><MFCC_E_D_A><DIAGC>
~h "four"
<BEGINHMM>
<NUMSTATES> 5
<STATE> 2
<MEAN> 39
 -9.624816e+00 -1.765910e+00 4.904345e+00 -3.325081e+00 1.395853e+00 -1.561310e+00 -4.363596e+00 -4.850964e+00 -6.944561e-01 -4.953059e+00 -4.958762e+00 -2.174268e+00 3.876525e-01 5.586219e-01 1.284890e-01 1.007160e-01 -8.980038e-01 -9.572774e-01 7.043692e-01 6.205920e-01 9.497181e-02 -7.872350e-02 -1.938756e-01 1.549723e-01 -2.283958e-01 2.975674e-02 1.743495e-01 2.041118e-02 1.780471e-02 -1.469728e-01 -1.725350e-01 1.513180e-01 1.126153e-01 -5.455304e-02 1.169641e-01 -2.981502e-02 -4.231811e-02 6.341548e-02 3.112784e-03
<VARIANCE> 39
 2.061629e+01 5.761884e+00 5.648368e+00 2.192384e+01 2.561811e+01 1.702581e+01 1.104088e+01 1.284936e+01 2.049492e+01 1.482675e+01 1.339054e+01 1.172704e+01 2.153602e-02 4.753847e+00 7.133671e-01 9.714946e-01 4.476804e+00 1.336663e+00 2.644115e+00 2.591063e+00 1.907200e+00 2.283406e+00 1.677758e+00 8.110145e-01 1.520655e+00 2.089967e-03 5.413194e-01 1.226394e-01 2.351227e-01 6.356359e-01 8.682797e-02 5.079650e-01 6.070496e-01 4.264421e-01 2.860444e-01 2.936817e-01 1.929071e-01 3.434524e-01 2.628319e-04
<GCONST> 7.765431e+01
<STATE> 3
<MEAN> 39
 4.129130e+00 3.668100e+00 2.628389e+00 -1.677341e+01 -1.340079e+01 2.638935e+00 2.717021e+00 -4.765244e+00 9.336004e+00 -5.311752e+00 -4.754751e+00 1.797717e+00 7.699528e-01 -6.644746e-02 1.174005e-01 -2.458526e-01 3.684057e-01 5.658896e-01 7.628674e-02 -6.444655e-02 2.334724e-02 5.701648e-02 -1.469662e-01 -1.169237e-01 3.061050e-01 -5.601475e-03 -2.296539e-01 -6.669512e-02 -7.623446e-04 3.323762e-01 4.146659e-01 -1.525281e-02 -1.316128e-01 2.050786e-02 -1.224502e-01 -5.819938e-03 -6.975154e-02 -9.896816e-02 -4.216725e-03
<VARIANCE> 39
 7.021218e-01 3.389412e+00 3.984072e+00 6.917416e+00 1.550223e+01 1.543746e+01 2.850867e+00 7.570580e+00 1.330223e+01 4.843867e+00 1.141908e+01 3.970584e+00 1.783434e-03 4.194559e-01 3.349333e-01 2.144671e-01 1.695046e+00 3.919573e+00 2.225969e+00 3.516474e-01 1.341016e+00 2.061067e+00 9.917023e-01 1.120495e+00 4.745437e-01 7.600847e-05 1.930252e-01 3.273673e-02 6.861767e-02 4.028786e-01 6.011707e-01 4.660508e-01 1.827374e-01 3.316340e-01 2.316556e-01 2.591384e-01 1.951370e-01 1.203135e-01 8.895442e-05
<GCONST> 4.647916e+01
<STATE> 4
<MEAN> 39
 -4.790845e+00 -1.602183e+00 2.300761e+00 -2.258956e+00 4.997875e+00 9.399351e-01 -4.920523e+00 -5.186561e+00 3.927889e+00 -7.399414e+00 -7.955333e+00 -1.625177e-01 4.214236e-01 -6.025918e-01 -2.825103e-01 2.100718e-01 6.122149e-01 2.608994e-01 -9.319038e-01 -5.828008e-01 -2.015209e-01 -2.363218e-01 9.186883e-02 -4.745443e-01 -3.560251e-01 -2.668713e-02 1.284876e-01 5.673585e-02 -2.007376e-02 -2.435057e-01 -3.772745e-01 -8.503228e-02 2.527892e-02 2.348891e-02 7.360251e-02 1.764638e-02 1.169742e-01 9.101041e-02 2.342970e-03
<VARIANCE> 39
 6.353014e+00 3.307685e+00 2.471175e+00 1.022902e+01 1.457541e+01 5.217418e+01 1.526920e+01 1.068105e+01 1.651753e+01 1.441479e+01 1.380001e+01 1.149540e+01 1.838757e-02 3.623066e-01 4.808758e-01 2.704183e-01 1.595731e+00 4.808867e+00 2.591827e+00 1.215475e+00 1.663584e+00 2.549907e+00 2.227895e+00 8.872201e-01 1.032648e+00 1.097103e-03 2.746578e-02 6.504117e-02 6.038117e-02 1.990238e-01 7.648053e-01 5.599514e-01 2.242044e-01 3.808284e-01 5.239639e-01 5.692911e-01 1.070938e-01 2.024130e-01 1.650294e-04
<GCONST> 6.388915e+01
<TRANSP> 5
 0.000000e+00 1.000000e+00 0.000000e+00 0.000000e+00 0.000000e+00
 0.000000e+00 9.444444e-01 5.555555e-02 0.000000e+00 0.000000e+00
 0.000000e+00 0.000000e+00 9.500000e-01 5.000000e-02 0.000000e+00
 0.000000e+00 0.000000e+00 0.000000e+00 9.285714e-01 7.142857e-02
 0.000000e+00 0.000000e+00 0.000000e+00 0.000000e+00 0.000000e+00
<ENDHMM>
