~o
<STREAMINFO> 1 39
<VECSIZE> 39<NULLD><MFCC_E_D_A><DIAGC>
~h "four"
<BEGINHMM>
<NUMSTATES> 5
<STATE> 2
<MEAN> 39
 -8.530003e+00 -2.799759e+00 -3.995795e+00 -2.196368e+00 -1.297802e+00 -3.279773e+00 5.018542e+00 -3.141291e-01 -4.299256e-01 3.387317e+00 -3.755199e-01 -6.717510e-01 2.147732e-01 6.802231e-01 6.639095e-01 -1.497124e-01 -1.050030e+00 -1.268339e+00 3.455106e-02 -6.005367e-01 1.476784e-01 -3.840841e-01 -4.073650e-01 1.438543e-01 -4.643409e-01 3.715031e-02 1.168031e-01 9.832830e-02 7.521410e-02 -2.296788e-01 -1.545317e-01 1.193008e-01 -1.055731e-01 7.872465e-02 2.436877e-02 -1.252488e-01 3.359789e-02 -8.089618e-02 4.390425e-03
<VARIANCE> 39
 3.358105e+01 1.650669e+01 9.994139e+00 4.152959e+01 5.606021e+01 1.234338e+01 2.513240e+01 1.504129e+01 1.597233e+01 2.625164e+01 2.171543e+01 1.413148e+01 4.171021e-02 3.849903e+00 2.376679e+00 1.005140e+00 5.453735e+00 5.311289e+00 1.388263e+00 2.945918e+00 2.367178e+00 1.632775e+00 3.321481e+00 2.485123e+00 1.783241e+00 4.011418e-03 5.023974e-01 2.935239e-01 1.593228e-01 5.315607e-01 5.617429e-01 2.853779e-01 4.321729e-01 4.638289e-01 3.365779e-01 5.017400e-01 5.115841e-01 2.836559e-01 4.610254e-04
<GCONST> 9.139026e+01
<STATE> 3
<MEAN> 39
 3.951347e+00 1.022698e+01 -3.122997e+00 -2.805226e+01 -2.319123e+01 -3.026749e-01 -8.038136e+00 9.100289e+00 -2.525132e+00 -1.837097e+00 2.402767e+00 -8.310707e+00 8.646699e-01 -1.360015e-01 -4.150818e-01 -2.455985e-01 -1.420426e-01 3.047441e-01 1.960876e-01 2.096980e-01 6.269763e-02 -5.117734e-01 8.104189e-01 5.425841e-01 1.319347e-01 -2.610836e-03 -7.442644e-02 -1.727315e-01 -8.326419e-02 2.819360e-01 2.430710e-01 -1.347515e-01 1.023964e-01 -1.474611e-01 -3.710858e-02 1.500224e-01 8.500103e-02 1.014867e-01 -5.335345e-03
<VARIANCE> 39
 3.558432e+00 1.708298e+01 1.017295e+01 1.776679e+01 1.618846e+01 2.391256e+01 2.504854e+01 1.229750e+01 3.865426e+01 3.435745e+01 2.007572e+01 1.966525e+01 1.764236e-03 2.273173e-01 1.192920e+00 5.214283e-01 1.499401e+00 9.979891e-01 1.740598e+00 1.674119e+00 1.652174e+00 2.220663e+00 2.097139e+00 1.819914e+00 1.209164e+00 2.500145e-04 1.296625e-01 1.104725e-01 6.192488e-02 2.420244e-01 2.319785e-01 3.277003e-01 2.200022e-01 1.638978e-01 2.509005e-01 3.720267e-01 2.373363e-01 2.311462e-01 1.321596e-04
<GCONST> 6.500025e+01
<STATE> 4
<MEAN> 39
 1.795287e+00 -3.096771e+00 -7.312256e+00 -6.210412e+00 -3.018220e+00 -6.202587e+00 -2.984334e+00 -1.663035e+00 1.143799e+00 6.454932e+00 7.413177e+00 7.364798e-01 4.303496e-01 -2.763764e-01 -2.146408e-01 3.006317e-01 7.532192e-01 6.700820e-01 -1.596364e-01 1.560249e-01 -2.433194e-01 6.224791e-01 -2.851150e-01 -4.590881e-01 2.883250e-01 -2.339291e-02 -3.161036e-03 4.795141e-02 3.085871e-02 -8.085231e-02 -5.705775e-02 7.386038e-02 1.907496e-02 6.484231e-02 2.090499e-02 -7.169144e-02 -1.068063e-01 -8.565643e-03 8.393406e-04
<VARIANCE> 39
 1.405555e+01 6.462728e+00 3.479425e+01 4.990582e+01 3.177888e+01 2.049242e+01 2.990684e+01 1.865974e+01 6.159380e+01 2.237936e+01 4.530460e+01 2.327919e+01 5.179702e-02 2.696926e-01 6.146359e-01 1.286066e+00 2.315557e+00 1.407222e+00 2.124649e+00 2.253786e+00 1.685779e+00 2.803216e+00 2.642178e+00 2.127626e+00 1.789623e+00 2.740287e-04 3.006933e-02 1.164414e-01 1.564269e-01 1.989591e-01 2.211769e-01 2.812732e-01 3.730069e-01 3.542062e-01 4.418236e-01 6.189871e-01 3.595169e-01 3.598279e-01 4.017654e-05
<GCONST> 7.715010e+01
<TRANSP> 5
 0.000000e+00 1.000000e+00 0.000000e+00 0.000000e+00 0.000000e+00
 0.000000e+00 9.481480e-01 5.185206e-02 0.000000e+00 0.000000e+00
 0.000000e+00 0.000000e+00 9.516737e-01 4.832632e-02 0.000000e+00
 0.000000e+00 0.000000e+00 0.000000e+00 9.639454e-01 3.605457e-02
 0.000000e+00 0.000000e+00 0.000000e+00 0.000000e+00 0.000000e+00
<ENDHMM>
