~o
<STREAMINFO> 1 39
<VECSIZE> 39<NULLD><MFCC_E_D_A><DIAGC>
~h "four"
<BEGINHMM>
<NUMSTATES> 5
<STATE> 2
<MEAN> 39
 -1.403701e+01 -4.666213e+00 -6.046997e+00 -2.588400e+00 -6.388357e+00 -3.956075e+00 -4.558204e+00 -4.556503e+00 -3.124476e+00 -4.320244e+00 -2.560744e+00 -1.941474e+00 2.779985e-01 6.888927e-01 1.712030e-01 -1.868811e-01 -7.317970e-01 -6.710491e-01 3.356066e-01 2.039336e-01 -1.133540e-01 -7.138431e-02 1.329378e-01 -6.111727e-02 -7.818127e-02 3.516405e-02 3.764429e-02 -3.518336e-03 2.378514e-02 -6.741237e-02 -3.539706e-02 1.372560e-02 2.034673e-02 1.035420e-02 4.640748e-02 -2.980096e-02 -9.956775e-03 -1.610563e-02 -2.245030e-04
<VARIANCE> 39
 8.902525e+01 2.866227e+01 2.672988e+01 6.874467e+01 4.745216e+01 3.870995e+01 3.023121e+01 3.430156e+01 3.721648e+01 3.366355e+01 3.074502e+01 2.021738e+01 9.302023e-02 6.554885e+00 1.626422e+00 1.300761e+00 5.328907e+00 4.178128e+00 2.296624e+00 2.136786e+00 2.278321e+00 2.654077e+00 2.694315e+00 2.546139e+00 1.951533e+00 2.672595e-03 8.558627e-01 3.079156e-01 2.209205e-01 7.023370e-01 6.693176e-01 3.973706e-01 3.958287e-01 4.619313e-01 4.616041e-01 4.770600e-01 4.364719e-01 4.003633e-01 4.271178e-04
<GCONST> 1.012444e+02
<STATE> 3
<MEAN> 39
 4.488253e+00 -4.180029e+00 -9.230010e+00 -1.703602e+01 -1.537564e+01 2.239697e+00 7.098917e-01 -3.221459e+00 -2.546820e+00 -2.086856e+00 -3.350002e+00 -5.304383e+00 7.825713e-01 -8.853822e-02 -2.188715e-01 2.496271e-02 5.170987e-01 3.815213e-01 -3.225996e-01 -3.191318e-02 1.897401e-01 1.880640e-01 1.635841e-02 8.309117e-02 -1.095137e-02 -8.711777e-03 -5.203331e-02 3.882205e-03 1.264993e-02 1.047061e-01 9.446230e-02 -3.035438e-02 -2.586268e-02 -2.342716e-02 -2.868357e-02 1.326462e-02 1.075053e-03 5.122984e-03 -2.068209e-03
<VARIANCE> 39
 5.190103e+00 5.821501e+01 2.322323e+01 1.230013e+02 1.042207e+02 8.316806e+01 4.284126e+01 6.586383e+01 9.510780e+01 7.151489e+01 9.244302e+01 5.483596e+01 9.733752e-03 2.126340e-01 8.330362e-01 5.867900e-01 1.837163e+00 1.372950e+00 2.303858e+00 1.520955e+00 1.996678e+00 1.421839e+00 2.058228e+00 1.699627e+00 1.375938e+00 2.112805e-04 4.754944e-02 8.603351e-02 8.480940e-02 2.214762e-01 2.036347e-01 3.056886e-01 2.256947e-01 2.997736e-01 2.444164e-01 3.008765e-01 2.436008e-01 2.142605e-01 3.782907e-05
<GCONST> 7.846041e+01
<STATE> 4
<MEAN> 39
 -5.931490e+00 -6.455135e+00 -4.741661e+00 -2.019045e+00 -1.067866e+00 -4.126788e+00 -2.983211e+00 -2.628493e+00 -6.653457e-01 -4.451946e+00 -1.223579e+00 -3.323559e+00 2.353877e-01 -6.213852e-01 1.016652e-01 2.093013e-01 1.363568e-01 3.443876e-01 -2.352789e-02 -1.446967e-01 -1.209551e-01 -1.687685e-01 -2.023529e-01 -1.106153e-02 1.097575e-01 -2.833515e-02 3.368652e-02 -6.138355e-03 -4.099587e-02 -6.475735e-02 -7.643275e-02 1.257634e-02 1.756704e-02 7.031510e-04 -1.036287e-02 -1.145659e-02 3.401401e-03 2.141723e-02 1.382574e-03
<VARIANCE> 39
 2.236299e+01 2.228249e+01 2.141067e+01 4.427690e+01 2.367674e+01 2.786911e+01 2.908230e+01 2.979135e+01 5.225191e+01 4.598877e+01 2.555727e+01 2.151922e+01 5.805977e-02 7.191353e-01 9.564133e-01 1.230581e+00 2.546934e+00 2.160972e+00 1.797917e+00 1.921698e+00 2.088250e+00 2.269670e+00 2.074340e+00 1.713642e+00 1.497411e+00 7.488190e-04 1.028240e-01 1.452795e-01 2.034561e-01 3.232438e-01 3.048819e-01 3.163953e-01 3.512993e-01 3.399449e-01 3.742850e-01 3.639128e-01 3.116798e-01 2.767372e-01 9.113862e-05
<GCONST> 8.292032e+01
<TRANSP> 5
 0.000000e+00 1.000000e+00 0.000000e+00 0.000000e+00 0.000000e+00
 0.000000e+00 9.565271e-01 4.347298e-02 0.000000e+00 0.000000e+00
 0.000000e+00 0.000000e+00 9.618051e-01 3.819495e-02 0.000000e+00
 0.000000e+00 0.000000e+00 0.000000e+00 9.480363e-01 5.196375e-02
 0.000000e+00 0.000000e+00 0.000000e+00 0.000000e+00 0.000000e+00
<ENDHMM>
