~o
<STREAMINFO> 1 39
<VECSIZE> 39<NULLD><MFCC_E_D_A><DIAGC>
~h "junk"
<BEGINHMM>
<NUMSTATES> 5
<STATE> 2
<MEAN> 39
 -1.125720e+01 -2.732734e+00 1.837397e+00 -1.633374e+00 8.516689e-02 -1.211146e-01 4.187188e+00 -3.716802e+00 1.944131e+00 5.869794e-01 -7.403861e-01 -1.794087e-02 1.746156e-01 -2.639836e-02 -1.974704e-02 -1.242897e-02 1.674502e-02 1.661301e-02 1.135198e-01 1.102912e-01 5.641946e-02 1.272882e-02 -6.854408e-02 -1.190040e-02 -2.077645e-02 -7.414381e-04 8.854855e-04 5.308597e-03 -7.299772e-03 -9.657598e-03 4.608029e-06 -6.836983e-03 4.772630e-03 2.532649e-02 1.538824e-02 1.239298e-02 1.121183e-02 -1.147287e-02 3.585615e-04
<VARIANCE> 39
 3.245821e+01 5.134372e+00 6.519445e+00 6.519463e+00 1.337867e+01 1.201274e+01 1.663867e+01 1.224769e+01 1.424627e+01 1.493828e+01 1.802163e+01 1.460012e+01 3.652384e-03 1.438178e-01 2.237927e-01 4.205771e-01 5.748385e-01 1.014614e+00 1.145108e+00 1.170019e+00 1.237917e+00 1.466961e+00 1.418820e+00 1.533826e+00 1.115245e+00 1.123197e-04 1.639167e-02 4.220311e-02 7.875536e-02 1.184040e-01 2.182117e-01 2.292116e-01 2.244549e-01 2.609234e-01 3.213370e-01 2.887562e-01 3.209139e-01 2.222319e-01 1.548845e-05
<GCONST> 5.022239e+01
<STATE> 3
<MEAN> 39
 -3.438731e+00 -4.250065e+00 1.211413e+00 -1.358552e+00 2.499863e+00 -2.087162e-01 5.435747e+00 -1.358467e+00 2.292419e+00 1.288814e+00 -1.634411e+00 2.494857e+00 2.619985e-01 -1.685568e-02 -3.836971e-02 1.372629e-02 5.174690e-02 4.309075e-02 8.977532e-02 1.164815e-01 4.335225e-02 2.345207e-02 -4.389324e-02 -1.010367e-01 -4.239924e-02 -3.951027e-04 6.196782e-03 5.318204e-03 3.304402e-03 1.968767e-03 6.743143e-03 -1.132542e-02 -2.882085e-02 -2.214178e-02 -2.123342e-02 -5.362123e-04 -7.561275e-03 -3.007401e-03 1.973172e-04
<VARIANCE> 39
 1.000945e+01 5.571539e+00 7.268097e+00 7.581808e+00 1.198077e+01 1.263859e+01 1.639830e+01 1.428796e+01 1.368793e+01 1.620543e+01 1.612351e+01 1.076304e+01 3.740432e-02 3.819114e-01 5.115331e-01 5.339934e-01 7.022657e-01 1.039313e+00 9.892585e-01 1.313718e+00 1.327230e+00 1.214970e+00 1.437396e+00 1.185027e+00 1.019904e+00 4.898248e-04 6.410397e-02 9.110959e-02 1.056362e-01 1.455835e-01 2.141905e-01 1.938796e-01 2.645041e-01 2.793012e-01 2.291100e-01 2.844908e-01 2.427253e-01 2.002076e-01 6.698354e-05
<GCONST> 5.808178e+01
<STATE> 4
<MEAN> 39
 -4.922509e+00 -5.400517e+00 3.860159e-01 -2.528521e+00 3.381795e+00 2.669367e-01 5.442255e+00 -1.502342e+00 2.593592e+00 5.426932e-01 -3.888003e+00 2.702229e+00 1.119419e-01 -2.032123e-02 1.475351e-02 -1.969603e-02 7.535952e-03 -3.152469e-03 7.069269e-03 2.565810e-02 1.202920e-02 1.387925e-03 -7.649298e-03 -5.732619e-03 -1.803237e-02 5.346377e-05 -5.335487e-03 1.801714e-02 -6.233104e-03 4.160406e-03 -1.083339e-02 -2.144864e-02 -5.891783e-03 -3.309016e-03 -6.898421e-03 2.853408e-03 1.060906e-02 -3.609848e-03 3.557137e-04
<VARIANCE> 39
 1.050731e+00 2.225791e+00 3.697983e+00 5.653887e+00 7.947528e+00 1.072415e+01 1.121203e+01 1.387407e+01 1.429086e+01 1.407435e+01 1.446021e+01 1.136829e+01 9.650209e-04 1.140184e-01 2.516701e-01 3.661550e-01 6.296732e-01 7.796106e-01 1.086077e+00 1.091936e+00 1.338773e+00 1.281562e+00 1.500860e+00 1.333099e+00 1.118343e+00 9.257694e-05 2.315110e-02 5.234392e-02 7.319880e-02 1.297956e-01 1.575201e-01 2.154891e-01 2.192438e-01 2.710304e-01 2.635456e-01 3.073536e-01 2.707435e-01 2.266569e-01 2.018607e-05
<GCONST> 4.179033e+01
<TRANSP> 5
 0.000000e+00 1.000000e+00 0.000000e+00 0.000000e+00 0.000000e+00
 0.000000e+00 8.570326e-01 1.429674e-01 0.000000e+00 0.000000e+00
 0.000000e+00 0.000000e+00 8.586049e-01 1.413951e-01 0.000000e+00
 0.000000e+00 0.000000e+00 0.000000e+00 9.835402e-01 1.645983e-02
 0.000000e+00 0.000000e+00 0.000000e+00 0.000000e+00 0.000000e+00
<ENDHMM>
