~o
<STREAMINFO> 1 39
<VECSIZE> 39<NULLD><MFCC_E_D_A><DIAGC>
~h "nine"
<BEGINHMM>
<NUMSTATES> 5
<STATE> 2
<MEAN> 39
 -4.010235e+00 1.452438e+00 8.358371e+00 8.242068e-01 4.359466e+00 -5.034141e+00 -5.334863e+00 -5.021116e+00 -2.711771e+00 -3.109044e+00 -8.820531e+00 -1.489719e+00 5.285857e-01 4.422978e-01 4.843846e-02 5.018318e-01 -6.523859e-02 -2.020697e-01 -7.742566e-01 -4.238071e-01 1.166876e+00 -1.008745e-01 6.335983e-01 3.753620e-01 -4.748999e-01 3.010484e-02 4.970284e-03 -2.801204e-01 -1.194727e-01 -9.928342e-02 -1.412782e-02 1.570380e-01 -4.245425e-02 3.540482e-01 9.603187e-02 4.928791e-02 2.860311e-02 -1.648117e-01 2.264107e-03
<VARIANCE> 39
 1.239135e+01 1.605518e+01 1.493569e+01 1.067474e+01 8.718474e+00 2.467248e+01 8.983368e+00 3.047980e+01 1.047057e+01 2.120910e+01 1.767325e+01 1.178254e+01 3.392474e-02 1.033007e+00 2.576031e+00 8.008865e-01 1.268090e+00 9.826893e-01 1.098734e+00 1.027789e+00 5.955508e+00 1.764536e+00 1.654283e+00 2.464253e+00 1.508250e+00 1.637021e-03 2.010250e-01 3.771544e-01 2.262538e-01 2.612636e-01 1.839327e-01 6.024955e-01 1.161556e-01 5.740247e-01 3.464575e-01 2.317280e-01 5.269458e-01 1.595125e-01 2.949076e-04
<GCONST> 7.579250e+01
<STATE> 3
<MEAN> 39
 -1.416951e+00 -1.135478e+01 4.393050e+00 -4.459337e+00 -1.054137e+00 -8.347286e-01 -6.155512e+00 6.606070e+00 1.050267e+00 1.912334e-01 -2.281993e+00 -8.580588e+00 7.226447e-01 -3.951041e-02 1.291592e-01 5.411630e-02 3.929861e-02 -6.889857e-02 8.866404e-02 1.810597e-01 -4.758328e-01 -1.049353e-01 -1.830341e-02 1.125166e-01 1.051468e-01 -2.471634e-03 1.730376e-02 1.855384e-01 5.399488e-02 1.004907e-01 1.122942e-01 -2.581974e-02 2.212399e-02 -2.606629e-01 -4.577031e-02 -6.098245e-02 -1.264375e-01 7.143902e-02 -6.033090e-04
<VARIANCE> 39
 4.347942e+00 3.013269e+01 3.008093e+01 1.365370e+01 2.461649e+01 9.454955e+01 4.893361e+01 5.144733e+01 2.010034e+01 2.142071e+01 3.912285e+01 1.728778e+01 3.176800e-03 3.171570e-01 2.926691e+00 1.745659e+00 1.176831e+00 2.335305e+00 6.219951e+00 2.378382e+00 4.907891e+00 1.321825e+00 1.775054e+00 2.882042e+00 1.849590e+00 1.138575e-04 4.685036e-02 1.829973e-01 1.408294e-01 1.809466e-01 3.223770e-01 5.621997e-01 4.018421e-01 9.052521e-01 2.000093e-01 4.570476e-01 5.716546e-01 4.053488e-01 1.111199e-05
<GCONST> 7.779822e+01
<STATE> 4
<MEAN> 39
 -5.378724e+00 -1.080932e+00 7.513121e+00 7.732853e-02 4.476531e+00 -4.044797e+00 -5.024212e+00 -5.719516e+00 -1.816418e+00 -5.345146e+00 -9.436856e+00 -2.676087e+00 4.683775e-01 -2.110656e-01 -1.214232e-01 -3.290727e-01 3.649101e-02 3.754651e-01 2.728596e-01 -8.800153e-02 -3.234033e-01 1.946667e-01 -4.422707e-01 -5.162137e-01 1.256494e-01 -1.453687e-02 -3.828405e-02 -6.386760e-02 2.430060e-02 -7.235625e-02 -1.023424e-01 -5.816294e-02 7.974579e-03 1.372305e-01 5.945530e-03 6.576424e-02 2.062092e-01 2.980484e-02 -5.017832e-04
<VARIANCE> 39
 4.569910e+00 1.100479e+01 1.117202e+01 1.521735e+01 9.197883e+00 1.047243e+01 1.414811e+01 2.820136e+01 1.746073e+01 1.649078e+01 1.520225e+01 8.812660e+00 1.699878e-02 3.194597e-01 1.112357e+00 5.038396e-01 1.838686e+00 1.687982e+00 2.089718e+00 1.158665e+00 3.909371e+00 2.084509e+00 1.869606e+00 2.992385e+00 5.738777e-01 7.971135e-04 6.602193e-02 1.966040e-01 8.266865e-02 3.609906e-01 2.530908e-01 4.217478e-01 2.072299e-01 8.186808e-01 4.227627e-01 3.083879e-01 4.046162e-01 1.143556e-01 1.403099e-04
<GCONST> 6.835018e+01
<TRANSP> 5
 0.000000e+00 1.000000e+00 0.000000e+00 0.000000e+00 0.000000e+00
 0.000000e+00 9.258099e-01 7.419007e-02 0.000000e+00 0.000000e+00
 0.000000e+00 0.000000e+00 9.629995e-01 3.700052e-02 0.000000e+00
 0.000000e+00 0.000000e+00 0.000000e+00 9.499871e-01 5.001298e-02
 0.000000e+00 0.000000e+00 0.000000e+00 0.000000e+00 0.000000e+00
<ENDHMM>
