~o
<STREAMINFO> 1 39
<VECSIZE> 39<NULLD><MFCC_E_D_A><DIAGC>
~h "nine"
<BEGINHMM>
<NUMSTATES> 5
<STATE> 2
<MEAN> 39
 -3.197284e+00 -4.110201e+00 3.086119e+00 -3.051934e+00 -4.683331e+00 -5.000164e+00 -7.361931e+00 -5.681111e+00 -3.323836e+00 -5.254462e+00 -3.939433e+00 -5.418089e+00 4.339750e-01 5.101491e-01 -9.239794e-01 -1.429296e-01 -4.910009e-01 -1.249210e-01 3.957923e-01 -5.571535e-01 5.697941e-01 2.446502e-01 2.225161e-01 -4.348160e-01 -4.248895e-01 4.334103e-02 -7.351547e-02 -1.163178e-01 -1.418089e-01 -7.190999e-02 1.112905e-01 1.321651e-01 -2.268031e-02 2.366395e-02 2.680229e-02 -2.440332e-02 2.048278e-02 -1.059549e-02 -2.313411e-03
<VARIANCE> 39
 2.970315e+01 7.777859e+01 3.786468e+01 5.023277e+01 6.477260e+01 5.298123e+01 4.505041e+01 5.572068e+01 5.536340e+01 9.209731e+01 3.367690e+01 4.239314e+01 1.303182e-01 1.864097e+00 6.074721e+00 4.713079e+00 3.631669e+00 4.098566e+00 4.125037e+00 3.550211e+00 5.673146e+00 4.109881e+00 4.878529e+00 2.116475e+00 3.271558e+00 3.071709e-03 2.730250e-01 8.626828e-01 6.180683e-01 5.612478e-01 5.492403e-01 6.762210e-01 6.681311e-01 1.018508e+00 7.965944e-01 8.740928e-01 4.378707e-01 5.602188e-01 4.319985e-04
<GCONST> 1.135555e+02
<STATE> 3
<MEAN> 39
 -9.271274e-01 -1.859598e+01 -2.352216e+00 -9.441579e+00 -2.170073e-01 3.876424e+00 -1.028648e+01 1.449867e+00 -1.856131e+00 -4.784252e+00 -5.779169e+00 -9.017312e+00 7.695819e-01 -6.975403e-02 2.907515e-01 5.123965e-01 1.903471e-01 -4.347247e-01 -1.499975e-01 5.438815e-01 -2.290024e-01 -1.207687e-01 7.169767e-02 2.342048e-01 8.403754e-02 -8.628751e-03 3.245768e-03 1.028279e-01 7.699681e-02 2.175486e-02 -8.241772e-02 -9.312849e-02 6.175045e-02 -6.979591e-02 -3.347492e-03 3.678368e-02 -8.620583e-03 2.581047e-02 -1.390611e-03
<VARIANCE> 39
 1.095206e+01 2.262205e+01 5.993504e+01 9.757552e+01 1.230795e+02 7.549371e+01 6.649356e+01 4.299047e+01 8.383071e+01 4.820042e+01 3.382412e+01 4.997340e+01 1.165588e-02 2.622387e-01 7.903681e-01 1.266690e+00 1.535094e+00 2.762718e+00 2.281718e+00 2.296669e+00 2.199958e+00 1.985681e+00 1.319643e+00 1.799410e+00 1.659389e+00 1.775613e-04 3.867419e-02 1.101098e-01 1.389197e-01 2.134626e-01 2.540573e-01 2.576491e-01 3.107794e-01 3.302448e-01 3.280694e-01 2.148003e-01 3.181348e-01 2.394183e-01 1.599095e-05
<GCONST> 7.996585e+01
<STATE> 4
<MEAN> 39
 -6.176589e+00 -3.761652e+00 3.868246e+00 -2.833697e+00 -5.655372e+00 -2.335766e+00 -9.102775e-01 -5.783650e+00 -2.076850e+00 -4.582951e+00 -3.501360e+00 -4.900603e+00 3.371620e-01 -2.892721e-01 2.888320e-01 -3.986939e-01 1.581665e-01 4.382405e-01 -1.042132e-01 -1.433014e-01 -1.430223e-01 -2.477424e-02 -1.694514e-01 8.272585e-02 1.967657e-01 -1.886023e-02 3.122027e-03 -5.378050e-02 -2.115737e-02 6.103844e-03 1.624277e-02 1.335793e-02 -2.234057e-02 5.395758e-02 -1.463324e-02 -1.418946e-02 1.259855e-02 -4.883713e-03 2.939349e-04
<VARIANCE> 39
 1.921411e+01 2.693657e+01 3.313182e+01 6.020150e+01 7.111342e+01 3.340974e+01 3.115444e+01 2.568633e+01 2.690581e+01 4.472109e+01 2.347122e+01 1.900648e+01 6.100318e-02 4.826541e-01 1.374867e+00 1.690131e+00 2.270906e+00 1.978429e+00 2.046586e+00 1.545343e+00 1.960915e+00 1.719449e+00 1.756853e+00 1.567006e+00 1.389981e+00 6.501784e-04 8.020525e-02 1.491153e-01 2.811012e-01 3.279634e-01 3.378889e-01 3.514714e-01 3.065524e-01 3.323685e-01 3.046814e-01 3.285418e-01 2.792635e-01 2.673848e-01 8.230251e-05
<GCONST> 8.284084e+01
<TRANSP> 5
 0.000000e+00 1.000000e+00 0.000000e+00 0.000000e+00 0.000000e+00
 0.000000e+00 9.416871e-01 5.831291e-02 0.000000e+00 0.000000e+00
 0.000000e+00 0.000000e+00 9.585732e-01 4.142684e-02 0.000000e+00
 0.000000e+00 0.000000e+00 0.000000e+00 9.642828e-01 3.571719e-02
 0.000000e+00 0.000000e+00 0.000000e+00 0.000000e+00 0.000000e+00
<ENDHMM>
