~o
<STREAMINFO> 1 39
<VECSIZE> 39<NULLD><MFCC_E_D_A><DIAGC>
~h "nine"
<BEGINHMM>
<NUMSTATES> 5
<STATE> 2
<MEAN> 39
 -3.141795e+00 -1.757560e+00 3.590327e+00 -3.030743e+00 -6.934164e+00 -6.644821e+00 -5.331704e+00 -6.184601e+00 -4.676431e+00 -5.948313e+00 -6.335113e+00 -4.758321e+00 5.411950e-01 4.845461e-01 -8.992709e-01 -4.492505e-01 -6.069325e-01 9.240543e-02 1.187866e-01 -5.612083e-01 4.782426e-01 6.244265e-02 -3.778655e-01 -3.924897e-01 -2.386187e-01 4.507544e-02 -8.753732e-02 -1.115280e-01 -1.615338e-01 -6.905110e-03 1.779519e-01 1.353659e-01 1.555853e-02 2.474532e-02 8.780881e-02 -1.126189e-03 6.370832e-02 1.378471e-02 -4.254345e-03
<VARIANCE> 39
 5.178343e+01 7.901965e+01 6.517987e+01 6.109418e+01 8.379619e+01 6.076646e+01 6.423122e+01 9.693921e+01 6.158868e+01 5.965202e+01 5.963055e+01 4.198960e+01 1.015033e-01 2.750448e+00 5.778012e+00 5.123655e+00 3.360012e+00 5.807899e+00 4.598135e+00 4.066399e+00 7.916563e+00 4.275101e+00 3.349130e+00 2.953551e+00 2.698299e+00 3.359458e-03 4.345998e-01 8.722363e-01 6.857519e-01 5.646054e-01 7.841848e-01 7.168157e-01 7.783859e-01 1.402869e+00 7.285950e-01 5.970670e-01 5.097598e-01 4.754680e-01 5.283393e-04
<GCONST> 1.185095e+02
<STATE> 3
<MEAN> 39
 -1.967507e+00 -1.267555e+01 -2.231307e+00 -9.581228e+00 -3.388751e+00 -1.482680e+00 -8.013776e+00 -1.532670e+00 -3.450140e+00 -9.632436e+00 -6.612928e+00 -7.336802e+00 7.647756e-01 -4.569329e-02 3.175333e-01 5.311422e-01 -3.981109e-02 -4.375337e-01 -2.662582e-02 2.695199e-01 -2.095152e-01 -1.885818e-01 1.873669e-01 1.152720e-01 -7.928104e-03 -6.051548e-03 -1.753570e-03 8.181497e-02 7.724039e-02 2.761058e-02 -6.075068e-02 -6.816863e-02 1.746419e-02 2.522456e-04 -4.251878e-02 2.446657e-02 -2.928791e-03 1.223531e-02 -8.499043e-04
<VARIANCE> 39
 2.321037e+01 6.337608e+01 8.004395e+01 6.492233e+01 1.216278e+02 7.404550e+01 8.092236e+01 8.294510e+01 8.880350e+01 8.200308e+01 7.388209e+01 5.436452e+01 9.167363e-03 2.458945e-01 7.583063e-01 1.295403e+00 1.326755e+00 2.139470e+00 1.722865e+00 2.168638e+00 2.050747e+00 1.894821e+00 1.950930e+00 1.701857e+00 1.594227e+00 8.310272e-05 3.575733e-02 8.961027e-02 1.313319e-01 1.738135e-01 2.374146e-01 2.491529e-01 3.001822e-01 3.127775e-01 2.919819e-01 2.912541e-01 2.676122e-01 2.544230e-01 9.042228e-06
<GCONST> 8.103069e+01
<STATE> 4
<MEAN> 39
 -5.652126e+00 -8.507327e-01 4.818423e+00 -1.770405e+00 -5.124339e+00 -5.352878e+00 -2.063486e+00 -4.641816e+00 -4.811650e+00 -5.224378e+00 -4.113298e+00 -4.268499e+00 3.793235e-01 -3.150790e-01 1.412819e-01 -3.225584e-01 4.090793e-01 4.751691e-01 -3.571958e-02 9.189410e-02 3.809185e-02 1.904417e-01 9.171687e-03 1.655876e-01 1.877699e-01 -2.441183e-02 -1.726330e-02 -5.350558e-02 -3.955460e-02 -1.946466e-02 9.329276e-03 2.748787e-02 2.785197e-03 3.033983e-02 3.260254e-02 -5.203484e-04 1.648351e-03 9.277509e-03 -2.105508e-04
<VARIANCE> 39
 3.320958e+01 3.776109e+01 4.783505e+01 6.442217e+01 6.496874e+01 4.937638e+01 4.645858e+01 6.430961e+01 5.261999e+01 4.871220e+01 4.602442e+01 3.417206e+01 7.161525e-02 7.851660e-01 1.584382e+00 1.530838e+00 2.462657e+00 2.148597e+00 2.640221e+00 2.300172e+00 3.375807e+00 2.410363e+00 2.473199e+00 2.182463e+00 1.842101e+00 8.365879e-04 9.970148e-02 1.878294e-01 2.487698e-01 3.795231e-01 3.533567e-01 4.380376e-01 4.091335e-01 5.467076e-01 4.286432e-01 4.249547e-01 3.844882e-01 3.377169e-01 1.025708e-04
<GCONST> 9.428413e+01
<TRANSP> 5
 0.000000e+00 1.000000e+00 0.000000e+00 0.000000e+00 0.000000e+00
 0.000000e+00 9.318986e-01 6.810144e-02 0.000000e+00 0.000000e+00
 0.000000e+00 0.000000e+00 9.593019e-01 4.069808e-02 0.000000e+00
 0.000000e+00 0.000000e+00 0.000000e+00 9.579332e-01 4.206681e-02
 0.000000e+00 0.000000e+00 0.000000e+00 0.000000e+00 0.000000e+00
<ENDHMM>
