~o
<STREAMINFO> 1 39
<VECSIZE> 39<NULLD><MFCC_E_D_A><DIAGC>
~h "nine"
<BEGINHMM>
<NUMSTATES> 5
<STATE> 2
<MEAN> 39
 6.443123e-01 -2.045297e-01 3.666207e-01 -4.377405e+00 -3.662710e+00 -1.226447e+00 -2.447884e+00 -3.390361e+00 -2.191955e+00 2.926913e+00 -1.993671e+00 -8.202168e+00 5.228357e-01 6.466014e-01 -3.488554e-01 -7.182300e-01 -6.410028e-01 -8.446266e-01 1.656558e-01 -6.322497e-01 1.873275e-01 2.137299e-01 3.058777e-01 6.824064e-01 -1.508964e+00 4.838571e-02 9.071733e-03 -2.195317e-01 -1.235798e-01 -1.195102e-01 1.424045e-02 3.306340e-01 9.315890e-02 8.346925e-03 7.436557e-02 -1.380295e-01 1.551368e-01 7.916028e-03 -1.722992e-03
<VARIANCE> 39
 1.448606e+01 2.240235e+01 2.466179e+01 1.207955e+01 3.120486e+01 2.323662e+01 3.964505e+01 2.566073e+01 2.374859e+01 2.855838e+01 1.477190e+01 5.546271e+01 5.501291e-02 1.285014e+00 3.680423e+00 3.011492e+00 9.914069e-01 1.890895e+00 6.521035e+00 3.931036e+00 3.775752e+00 3.497895e+00 2.830311e+00 1.443111e+00 2.529912e+00 1.593483e-03 2.449181e-01 3.805270e-01 4.428581e-01 1.328257e-01 4.300170e-01 1.328313e+00 5.886806e-01 7.909645e-01 6.195045e-01 5.292310e-01 2.394889e-01 5.869166e-01 2.933146e-04
<GCONST> 9.425598e+01
<STATE> 3
<MEAN> 39
 4.851705e+00 -9.275262e+00 -9.092048e+00 -1.795127e+01 -7.579700e+00 1.130292e+01 -3.546778e+00 4.445533e-01 1.894761e+00 -2.138342e+00 7.092353e+00 -1.733036e+01 7.914914e-01 -1.169912e-01 4.139948e-02 1.555809e-01 1.255542e-03 1.126705e-01 -2.973854e-01 -5.572685e-02 2.754515e-01 -2.589991e-02 -5.896466e-02 -1.320065e-01 1.638263e-01 -8.226504e-03 -7.149468e-02 1.235633e-01 1.302104e-01 1.171979e-01 -4.309956e-02 -3.341819e-01 3.791305e-02 6.929530e-02 -5.413380e-02 6.768154e-02 -8.022498e-02 1.510791e-01 -1.920589e-03
<VARIANCE> 39
 5.113229e+00 1.197878e+01 3.717930e+00 2.068338e+01 9.463607e+00 3.780106e+01 8.260026e+00 1.025060e+01 1.385017e+01 3.154449e+01 1.800665e+01 1.309132e+01 4.674916e-03 2.847173e-01 3.772495e-01 5.020556e-01 2.009908e+00 8.484789e-01 4.423688e+00 6.946976e-01 1.040467e+00 8.520233e-01 2.564416e+00 1.576801e+00 1.655686e+00 1.929214e-04 3.168179e-02 7.869286e-02 1.203226e-01 1.117854e-01 1.703155e-01 1.978826e-01 1.442907e-01 1.598216e-01 2.006433e-01 3.822812e-01 2.488479e-01 3.212923e-01 1.080846e-05
<GCONST> 5.460195e+01
<STATE> 4
<MEAN> 39
 -1.293914e+00 -3.594792e+00 3.395945e+00 -5.081121e+00 -5.848273e+00 -6.146620e+00 2.369136e+00 2.412189e+00 -1.289449e+00 2.877908e+00 3.778320e+00 -1.341730e+00 3.933235e-01 -2.130156e-01 9.408296e-02 2.651478e-01 2.782474e-01 3.729413e-01 5.890860e-02 3.261964e-01 -3.141341e-01 -6.776675e-02 -1.950261e-02 -1.748669e-01 6.548679e-01 -1.829752e-02 1.846379e-02 -2.530241e-02 -5.515016e-02 -2.887786e-02 3.117864e-02 1.099576e-01 -7.442338e-03 -5.707844e-02 2.168706e-02 1.695170e-02 -1.083075e-02 -9.976441e-02 4.500168e-04
<VARIANCE> 39
 3.989180e+00 7.026559e+00 2.066094e+01 1.291907e+01 4.618452e+01 1.671746e+01 1.344916e+01 3.686549e+01 2.299850e+01 1.310994e+01 3.402836e+01 3.741673e+01 3.412187e-02 1.759988e-01 5.807626e-01 1.405880e+00 9.481095e-01 1.927849e+00 1.537882e+00 1.554660e+00 1.926110e+00 2.323905e+00 1.521312e+00 1.999428e+00 1.614801e+00 2.393823e-04 2.926181e-02 8.350020e-02 1.467690e-01 1.942499e-01 2.941573e-01 2.115057e-01 3.302712e-01 3.222309e-01 4.187299e-01 2.974311e-01 3.267625e-01 2.731229e-01 2.810000e-05
<GCONST> 6.765215e+01
<TRANSP> 5
 0.000000e+00 1.000000e+00 0.000000e+00 0.000000e+00 0.000000e+00
 0.000000e+00 9.243177e-01 7.568234e-02 0.000000e+00 0.000000e+00
 0.000000e+00 0.000000e+00 9.504603e-01 4.953969e-02 0.000000e+00
 0.000000e+00 0.000000e+00 0.000000e+00 9.639559e-01 3.604404e-02
 0.000000e+00 0.000000e+00 0.000000e+00 0.000000e+00 0.000000e+00
<ENDHMM>
