~o
<STREAMINFO> 1 39
<VECSIZE> 39<NULLD><MFCC_E_D_A><DIAGC>
~h "one"
<BEGINHMM>
<NUMSTATES> 5
<STATE> 2
<MEAN> 39
 4.173473e+00 4.532781e+00 8.136702e-01 -9.054849e+00 -1.176263e+01 -3.770203e+00 -1.105619e+00 -1.504825e+00 -7.286012e-01 -3.364625e+00 -2.961536e+00 -4.335371e+00 5.415946e-01 7.909328e-01 1.091830e+00 -1.424056e-01 -1.476226e+00 -2.136035e+00 -1.920077e-01 -1.038603e+00 7.575599e-01 1.582566e-01 -5.296026e-01 6.964971e-01 -7.598448e-01 5.589917e-02 -6.837015e-02 -7.333487e-02 -1.023246e-01 -2.333298e-01 -1.854603e-02 1.697497e-01 9.593893e-02 1.425670e-01 1.012177e-01 4.783996e-02 1.039352e-01 -1.626723e-03 9.259969e-04
<VARIANCE> 39
 2.892200e+01 3.723840e+01 3.492517e+00 4.447496e+01 1.137267e+02 1.976357e+01 4.242574e+01 2.403596e+01 3.255280e+01 1.797785e+01 2.057750e+01 2.962070e+01 6.549050e-02 2.186910e+00 1.518884e+00 6.875653e-01 1.672424e+00 2.332976e+00 2.125252e+00 2.389312e+00 2.122005e+00 2.554520e+00 1.525656e+00 1.640043e+00 2.193108e+00 1.393451e-03 3.364751e-01 3.471171e-01 1.342508e-01 1.806384e-01 5.988584e-01 3.375800e-01 5.451056e-01 2.723724e-01 3.321200e-01 2.487756e-01 2.141520e-01 4.320945e-01 3.357263e-04
<GCONST> 8.679184e+01
<STATE> 3
<MEAN> 39
 4.186178e+00 -8.272454e-01 -7.305110e+00 -2.495260e+01 -1.248231e+01 8.974570e+00 -4.619814e+00 5.844424e+00 -3.494527e-01 3.524705e-01 7.248506e+00 -1.084421e+01 8.365766e-01 -1.589876e-01 -5.973291e-01 -1.751333e-01 3.313727e-01 1.085621e+00 -1.491614e-03 1.162390e-02 -1.125410e-01 -5.341033e-02 6.473101e-01 -6.928279e-02 -1.539968e-01 -1.049196e-02 1.154657e-02 5.356957e-02 9.544088e-02 1.742557e-01 4.101172e-02 -1.746776e-01 -2.383182e-02 -5.694537e-02 -1.365257e-02 1.449170e-02 -8.834872e-02 3.277193e-02 -2.257750e-03
<VARIANCE> 39
 2.905590e+00 2.999617e+01 1.079845e+01 3.231286e+01 8.596573e+01 4.297010e+01 1.639375e+01 2.150624e+01 3.330674e+01 3.909179e+01 1.511811e+01 2.447268e+01 1.052179e-02 1.527506e-01 7.970579e-01 9.699695e-01 1.872760e+00 1.297797e+00 3.734200e+00 1.443477e+00 1.603407e+00 1.766214e+00 1.215533e+00 1.184501e+00 1.487363e+00 3.219286e-04 2.622384e-02 9.010366e-02 8.810430e-02 1.646090e-01 2.070680e-01 1.873327e-01 2.193116e-01 2.850784e-01 2.598793e-01 2.223863e-01 1.912240e-01 2.333611e-01 2.111326e-05
<GCONST> 6.577888e+01
<STATE> 4
<MEAN> 39
 -5.870590e-01 -5.290192e-01 -2.219486e-02 -6.065131e+00 1.265025e+00 -4.537370e+00 -1.160686e+00 1.555083e+00 2.692399e+00 5.018401e+00 4.682719e-01 -1.839024e+00 4.050620e-01 -2.507491e-01 -4.167882e-02 2.379437e-01 4.760163e-01 1.664129e-01 1.411320e-02 4.987328e-01 -2.682739e-01 3.883230e-03 -2.521489e-01 -2.489473e-01 6.837049e-01 -1.961485e-02 5.006164e-03 -3.139039e-02 -3.345042e-02 -4.723125e-02 -3.130635e-02 1.001617e-01 1.855842e-02 -3.855284e-02 -1.326400e-02 -1.056029e-03 3.259536e-02 -3.342326e-02 5.423346e-04
<VARIANCE> 39
 5.221526e+00 1.076695e+01 1.231403e+01 2.441931e+01 1.499051e+01 1.637147e+01 2.763384e+01 2.043698e+01 1.537270e+01 2.463929e+01 1.888754e+01 4.959604e+01 2.679303e-02 1.079136e-01 7.273700e-01 6.468195e-01 1.145481e+00 1.086590e+00 1.915239e+00 1.135313e+00 1.599433e+00 1.391872e+00 2.276453e+00 1.194401e+00 1.484996e+00 2.075262e-04 1.906836e-02 7.911983e-02 1.046652e-01 1.757426e-01 2.215411e-01 2.990728e-01 2.225497e-01 2.923479e-01 2.988794e-01 4.481373e-01 2.355679e-01 2.584298e-01 3.718472e-05
<GCONST> 6.319482e+01
<TRANSP> 5
 0.000000e+00 1.000000e+00 0.000000e+00 0.000000e+00 0.000000e+00
 0.000000e+00 9.254308e-01 7.456925e-02 0.000000e+00 0.000000e+00
 0.000000e+00 0.000000e+00 9.553681e-01 4.463188e-02 0.000000e+00
 0.000000e+00 0.000000e+00 0.000000e+00 9.579049e-01 4.209509e-02
 0.000000e+00 0.000000e+00 0.000000e+00 0.000000e+00 0.000000e+00
<ENDHMM>
