~o
<STREAMINFO> 1 39
<VECSIZE> 39<NULLD><MFCC_E_D_A><DIAGC>
~h "one"
<BEGINHMM>
<NUMSTATES> 5
<STATE> 2
<MEAN> 39
 -7.904410e-01 4.422007e+00 -5.906755e-01 -9.801226e+00 -8.830674e+00 -4.770149e+00 -3.665581e+00 -4.035424e+00 -4.188287e+00 -5.651028e+00 -3.844336e+00 -4.916656e+00 4.628917e-01 1.063545e+00 1.016169e-01 -4.133130e-01 -1.776930e+00 -8.522096e-01 4.952945e-01 -1.356626e-01 1.910273e-01 -2.117452e-01 -1.660349e-01 -9.754945e-02 -2.629170e-01 5.503807e-02 -1.754642e-01 -2.691914e-01 -1.249553e-01 -9.393295e-03 2.497777e-01 2.619561e-01 4.946120e-02 4.216808e-02 2.988947e-02 6.516933e-03 6.394359e-02 4.517704e-02 -3.895896e-03
<VARIANCE> 39
 7.455327e+01 4.580158e+01 4.634263e+01 1.232013e+02 8.329845e+01 5.207635e+01 5.172384e+01 4.454418e+01 4.421263e+01 3.910357e+01 4.207323e+01 3.097652e+01 1.034565e-01 3.208179e+00 3.710285e+00 2.547138e+00 4.788465e+00 4.884678e+00 5.195972e+00 3.257608e+00 3.417815e+00 3.112477e+00 3.043205e+00 2.569249e+00 2.213094e+00 3.371789e-03 5.044983e-01 4.873015e-01 3.584416e-01 7.584388e-01 8.321151e-01 6.922197e-01 5.781608e-01 5.971156e-01 5.344592e-01 5.204825e-01 4.475131e-01 3.832681e-01 5.571338e-04
<GCONST> 1.109997e+02
<STATE> 3
<MEAN> 39
 1.109461e+00 -8.380035e+00 -6.865199e+00 -1.599942e+01 -3.653786e+00 2.777553e+00 -8.270063e+00 -2.754448e+00 -5.103428e+00 -7.535327e+00 -5.119977e+00 -7.399444e+00 7.928227e-01 -2.521342e-01 -3.537241e-01 3.274867e-01 1.003711e+00 4.345868e-01 -3.973320e-01 -2.058631e-01 -1.958407e-01 6.661845e-02 -2.682568e-02 -1.733165e-01 -6.839762e-03 -6.930681e-03 1.698963e-02 1.742309e-01 1.286277e-01 1.370097e-01 -9.501103e-02 -1.845993e-01 2.531019e-02 -7.241635e-02 -1.423254e-02 2.672615e-02 -6.565927e-03 1.527567e-02 -2.200847e-03
<VARIANCE> 39
 2.596744e+01 7.186971e+01 6.275837e+01 1.087759e+02 1.112142e+02 1.078138e+02 8.252326e+01 8.747187e+01 8.538261e+01 7.977426e+01 8.850460e+01 5.682988e+01 9.809976e-03 4.043110e-01 2.231045e+00 1.849444e+00 2.167591e+00 3.797486e+00 3.707471e+00 2.813637e+00 3.443786e+00 2.729985e+00 2.723002e+00 2.414414e+00 2.255692e+00 2.836488e-04 5.201267e-02 1.521379e-01 1.801602e-01 3.175349e-01 3.958728e-01 4.337033e-01 4.307606e-01 5.684546e-01 4.534636e-01 4.409297e-01 3.918526e-01 3.709414e-01 2.328886e-05
<GCONST> 9.569795e+01
<STATE> 4
<MEAN> 39
 -4.965191e+00 -5.681778e-01 2.805985e+00 1.284359e-01 -2.337750e+00 -6.320877e+00 -3.574285e+00 -5.514999e+00 -3.520661e+00 -6.057017e+00 -4.892281e+00 -3.895394e+00 3.825290e-01 -4.134012e-01 1.374170e-01 -3.268775e-02 1.588145e-01 1.770810e-01 9.307017e-02 2.591914e-01 9.712317e-02 7.561415e-02 8.809468e-02 2.022583e-01 1.692455e-01 -2.363504e-02 -1.219859e-02 -6.654006e-02 -6.986672e-02 -6.521237e-02 1.314072e-02 5.749738e-02 -1.734684e-02 6.282198e-02 3.261558e-02 -7.996886e-04 1.062873e-02 -6.723318e-03 1.659442e-04
<VARIANCE> 39
 3.786922e+01 3.219531e+01 4.608082e+01 3.997785e+01 5.317738e+01 5.409956e+01 4.512864e+01 5.503231e+01 5.326865e+01 5.465176e+01 4.420880e+01 3.376347e+01 7.313811e-02 5.828780e-01 1.411083e+00 1.579397e+00 1.710911e+00 1.810159e+00 2.072157e+00 2.020736e+00 2.862013e+00 2.131972e+00 2.104971e+00 1.889155e+00 1.667314e+00 8.336119e-04 8.010826e-02 1.783908e-01 2.358793e-01 2.815066e-01 3.034438e-01 3.564709e-01 3.525659e-01 4.646630e-01 3.812901e-01 3.763980e-01 3.404086e-01 3.076091e-01 1.008312e-04
<GCONST> 8.979452e+01
<TRANSP> 5
 0.000000e+00 1.000000e+00 0.000000e+00 0.000000e+00 0.000000e+00
 0.000000e+00 9.160365e-01 8.396354e-02 0.000000e+00 0.000000e+00
 0.000000e+00 0.000000e+00 9.499308e-01 5.006916e-02 0.000000e+00
 0.000000e+00 0.000000e+00 0.000000e+00 9.585368e-01 4.146323e-02
 0.000000e+00 0.000000e+00 0.000000e+00 0.000000e+00 0.000000e+00
<ENDHMM>
