~o
<STREAMINFO> 1 39
<VECSIZE> 39<NULLD><MFCC_E_D_A><DIAGC>
~h "one"
<BEGINHMM>
<NUMSTATES> 5
<STATE> 2
<MEAN> 39
 -2.328443e+00 4.751890e-01 -2.669301e+00 -1.029933e+01 -8.373812e+00 -3.028528e+00 -2.876409e+00 -4.429088e+00 -2.622294e+00 -7.285376e+00 -2.203480e+00 -1.903348e+00 3.636042e-01 9.271581e-01 5.781576e-03 -4.389996e-01 -1.511003e+00 -9.487791e-01 1.026010e+00 8.428095e-02 3.255470e-01 1.596481e-01 1.885063e-02 -1.217482e-02 -2.464465e-02 5.199058e-02 -1.078992e-01 -2.300163e-01 -9.308054e-02 -4.040132e-02 1.671278e-01 2.490983e-01 -9.801443e-02 5.315576e-02 -2.079756e-02 2.088856e-02 7.319485e-02 -6.289028e-02 -1.657449e-03
<VARIANCE> 39
 6.294296e+01 3.272144e+01 2.866447e+01 9.019016e+01 8.529562e+01 6.110048e+01 3.330565e+01 3.319973e+01 4.044640e+01 3.295657e+01 3.331105e+01 2.738017e+01 1.295436e-01 2.623615e+00 3.397386e+00 1.799090e+00 3.328968e+00 5.232902e+00 5.184426e+00 2.930465e+00 3.121926e+00 2.579299e+00 2.195987e+00 3.037645e+00 2.149549e+00 2.842098e-03 4.013757e-01 4.142710e-01 2.682865e-01 5.053142e-01 8.377728e-01 5.848107e-01 5.782359e-01 5.858372e-01 4.840933e-01 4.056885e-01 4.515534e-01 4.722265e-01 4.063593e-04
<GCONST> 1.053685e+02
<STATE> 3
<MEAN> 39
 8.611479e-01 -1.037942e+01 -4.892900e+00 -1.352084e+01 -4.930821e+00 6.451262e+00 -1.015950e+01 -8.235502e-02 -1.452956e+00 -7.053816e+00 -4.415006e+00 -6.819654e+00 7.688365e-01 -2.331690e-01 -1.057502e-01 4.873540e-01 1.014322e+00 5.648593e-01 -5.105507e-01 -1.192368e-01 -1.603471e-01 -3.811788e-02 -4.622148e-02 -1.561093e-01 -2.198328e-01 -1.024733e-02 6.366141e-03 1.265854e-01 3.644653e-02 7.192893e-02 -3.928712e-02 -1.303442e-01 9.933512e-02 -5.996710e-02 8.505192e-04 -1.406662e-02 -4.438012e-02 6.322973e-02 -2.205540e-03
<VARIANCE> 39
 1.072766e+01 5.020880e+01 6.032683e+01 1.455615e+02 8.335220e+01 1.418863e+02 5.767340e+01 5.142447e+01 9.974715e+01 9.568842e+01 6.891145e+01 7.465565e+01 1.572362e-02 3.639975e-01 2.786673e+00 1.151426e+00 1.662308e+00 2.621135e+00 3.500905e+00 3.012087e+00 2.835483e+00 2.208048e+00 2.295329e+00 2.158556e+00 2.501102e+00 3.110516e-04 3.921735e-02 2.056487e-01 1.594193e-01 2.677424e-01 3.004076e-01 5.375879e-01 3.544083e-01 4.116997e-01 3.319635e-01 3.975134e-01 3.704746e-01 3.499191e-01 3.118785e-05
<GCONST> 9.206901e+01
<STATE> 4
<MEAN> 39
 -6.495078e+00 -3.259975e+00 5.580591e-01 -1.542099e-01 1.037441e+00 -1.405268e+00 -2.945592e+00 -4.958608e+00 -2.501284e+00 -6.587391e+00 -2.812190e+00 -4.485268e+00 2.678792e-01 -4.139960e-01 4.301484e-02 -2.962378e-01 -1.065892e-01 3.359319e-02 -7.711916e-02 1.194220e-01 1.490679e-03 -7.341547e-02 2.586320e-02 1.168754e-01 2.444896e-01 -2.319411e-02 1.590999e-02 -3.277865e-02 -1.224759e-02 -5.431591e-02 -4.360406e-02 -2.693899e-03 -4.138794e-02 2.984285e-02 -1.137955e-04 6.925975e-03 -1.419954e-03 -1.278749e-02 8.760298e-04
<VARIANCE> 39
 1.818456e+01 1.479340e+01 2.354515e+01 4.709521e+01 1.768895e+01 3.510444e+01 1.921230e+01 2.221032e+01 2.952421e+01 3.871677e+01 1.842919e+01 2.266520e+01 7.406779e-02 4.310811e-01 7.410629e-01 1.167264e+00 1.352608e+00 1.301790e+00 1.484321e+00 1.577684e+00 1.465480e+00 1.503157e+00 1.986623e+00 1.381682e+00 1.297867e+00 6.738611e-04 6.865015e-02 1.134730e-01 1.701805e-01 2.274743e-01 2.420499e-01 2.640652e-01 2.911324e-01 2.886652e-01 3.097364e-01 3.862686e-01 2.782557e-01 2.554798e-01 8.571368e-05
<GCONST> 7.496710e+01
<TRANSP> 5
 0.000000e+00 1.000000e+00 0.000000e+00 0.000000e+00 0.000000e+00
 0.000000e+00 9.333873e-01 6.661274e-02 0.000000e+00 0.000000e+00
 0.000000e+00 0.000000e+00 9.596481e-01 4.035190e-02 0.000000e+00
 0.000000e+00 0.000000e+00 0.000000e+00 9.575351e-01 4.246493e-02
 0.000000e+00 0.000000e+00 0.000000e+00 0.000000e+00 0.000000e+00
<ENDHMM>
