~o
<STREAMINFO> 1 39
<VECSIZE> 39<NULLD><MFCC_E_D_A><DIAGC>
~h "one"
<BEGINHMM>
<NUMSTATES> 5
<STATE> 2
<MEAN> 39
 -4.169767e+00 1.787126e+00 4.901353e+00 -3.275983e+00 8.094667e-01 -4.813998e+00 -3.847501e+00 -4.998125e+00 1.351000e+00 -4.368574e+00 -5.673151e+00 -1.289214e+00 5.066246e-01 6.637676e-01 3.498848e-01 8.446724e-03 -1.115858e+00 -1.234444e+00 1.073101e-01 3.663636e-01 4.065996e-01 5.542305e-01 -9.573347e-03 2.524616e-01 -2.817000e-02 2.891853e-02 3.914422e-02 -1.217585e-01 -6.407220e-02 -1.388340e-01 -6.239277e-02 2.988081e-01 1.366451e-01 -2.332021e-02 3.848729e-02 -1.009425e-01 3.822653e-02 4.802174e-02 9.528827e-04
<VARIANCE> 39
 2.217396e+01 1.716820e+01 6.528359e+00 3.283215e+01 5.373605e+01 1.671921e+01 1.925445e+01 1.303574e+01 2.820726e+01 1.358442e+01 1.140121e+01 1.008749e+01 3.202439e-02 1.065648e+00 1.248599e+00 1.038861e+00 3.086651e+00 3.408667e+00 3.986194e+00 3.424611e+00 1.266997e+00 2.615753e+00 1.903762e+00 1.186030e+00 1.345124e+00 1.115870e-03 1.818008e-01 2.351455e-01 1.745128e-01 4.163328e-01 5.562829e-01 7.277489e-01 5.512124e-01 2.563104e-01 5.572307e-01 3.534635e-01 2.394348e-01 2.654507e-01 1.836716e-04
<GCONST> 8.174843e+01
<STATE> 3
<MEAN> 39
 1.973493e+00 -3.601177e+00 6.095754e-01 -1.509615e+01 -8.479155e+00 9.373664e+00 -5.023975e-01 -2.499549e+00 2.932662e+00 -2.426771e+00 1.402359e+00 -2.867523e+00 7.807150e-01 -3.832113e-01 -6.742234e-01 -3.681836e-02 1.230018e+00 1.230201e+00 -6.417983e-02 -7.256591e-01 -3.412872e-01 -1.133483e+00 1.120325e+00 1.019761e+00 -9.070905e-01 -7.105876e-03 -6.834504e-02 3.674833e-01 2.813892e-01 4.139531e-01 1.849169e-01 -7.848873e-01 -1.945008e-01 -1.017624e-01 -1.350110e-01 1.604962e-01 -1.089664e-01 -8.935353e-02 -2.651614e-03
<VARIANCE> 39
 4.140026e+00 1.548759e+01 1.530033e+01 2.677988e+01 3.944605e+01 3.211633e+01 4.389328e+01 2.455660e+01 2.800487e+01 4.154153e+01 3.461585e+01 3.802762e+01 7.839650e-03 3.434896e-01 1.671728e+00 1.598678e+00 2.005978e+00 1.296947e+00 1.066092e+01 3.119442e+00 2.058164e+00 1.514495e+00 2.366101e+00 1.314341e+00 2.552618e+00 1.489024e-04 7.461791e-02 1.083729e-01 1.406785e-01 2.317872e-01 4.115817e-01 3.877210e-01 7.543878e-01 4.345809e-01 3.447660e-01 5.354012e-01 2.554954e-01 5.125826e-01 2.404507e-05
<GCONST> 7.859559e+01
<STATE> 4
<MEAN> 39
 -4.677502e+00 -3.525291e-01 6.894952e+00 -7.354524e-01 3.379804e+00 -5.035207e+00 -4.465934e+00 -4.970412e+00 -2.939379e+00 -3.793358e-01 -2.885874e+00 -5.328035e+00 5.370966e-01 -4.082612e-01 -1.209191e-02 1.642184e-02 2.510076e-01 3.019903e-01 -6.145607e-02 1.970735e-01 -1.375230e-01 1.144652e-01 -5.080209e-01 -5.727352e-01 3.990588e-01 -1.797625e-02 2.843912e-02 -7.210765e-02 -7.715737e-02 -1.029817e-01 -4.485828e-02 1.814915e-01 -1.827658e-02 4.290457e-02 6.944168e-02 -3.684090e-02 2.360317e-02 1.383738e-02 1.068152e-03
<VARIANCE> 39
 9.629318e+00 1.605795e+01 1.088300e+01 1.749403e+01 1.131476e+01 1.620448e+01 1.681350e+01 1.486499e+01 2.699967e+01 2.363408e+01 3.490310e+01 2.067265e+01 2.888310e-02 3.521495e-01 1.739385e+00 1.152521e+00 2.117077e+00 1.442338e+00 2.700828e+00 1.497589e+00 1.458240e+00 2.491745e+00 1.141344e+00 2.060084e+00 9.953957e-01 7.029074e-04 7.620691e-02 2.085021e-01 1.313545e-01 4.009929e-01 2.476868e-01 5.589465e-01 2.900575e-01 2.822581e-01 4.611953e-01 2.580583e-01 3.333521e-01 1.663036e-01 9.235933e-05
<GCONST> 7.336453e+01
<TRANSP> 5
 0.000000e+00 1.000000e+00 0.000000e+00 0.000000e+00 0.000000e+00
 0.000000e+00 9.354841e-01 6.451587e-02 0.000000e+00 0.000000e+00
 0.000000e+00 0.000000e+00 9.016931e-01 9.830689e-02 0.000000e+00
 0.000000e+00 0.000000e+00 0.000000e+00 9.516002e-01 4.839986e-02
 0.000000e+00 0.000000e+00 0.000000e+00 0.000000e+00 0.000000e+00
<ENDHMM>
