~o
<STREAMINFO> 1 39
<VECSIZE> 39<NULLD><MFCC_E_D_A><DIAGC>
~h "seven"
<BEGINHMM>
<NUMSTATES> 5
<STATE> 2
<MEAN> 39
 -1.985188e+01 3.592878e+00 -9.715970e+00 1.064380e+00 -3.206959e+00 -6.164086e+00 -4.671447e-01 -4.523471e+00 -1.315515e+00 -4.695570e+00 -1.559617e+00 -9.465006e-01 3.372417e-01 1.378030e-01 -5.295264e-02 7.497872e-02 -6.698585e-04 -5.632954e-01 -2.809711e-01 -2.154832e-01 2.170629e-01 2.739173e-01 1.471473e-03 -1.235621e-01 -1.096938e-01 3.136666e-02 2.191001e-01 -2.170424e-01 8.857272e-02 -9.454340e-02 -8.364818e-02 1.443064e-02 -8.124930e-02 1.090519e-01 1.056277e-02 -6.392758e-02 -4.025319e-02 -5.360398e-02 1.996492e-03
<VARIANCE> 39
 6.530875e+01 4.507603e+01 4.319859e+01 3.574637e+01 4.139849e+01 4.489832e+01 5.360308e+01 3.053078e+01 3.513333e+01 3.184708e+01 2.770730e+01 1.704959e+01 7.580496e-02 6.097864e+00 3.695200e+00 3.254635e+00 2.561267e+00 3.194344e+00 2.450052e+00 2.499365e+00 2.171154e+00 2.851508e+00 2.453047e+00 2.574644e+00 2.063467e+00 2.058560e-03 5.647004e-01 3.645265e-01 4.055953e-01 3.848585e-01 5.269723e-01 4.735345e-01 3.603570e-01 4.101386e-01 5.029393e-01 4.064061e-01 4.943889e-01 3.852008e-01 2.926967e-04
<GCONST> 1.008267e+02
<STATE> 3
<MEAN> 39
 -2.462318e+00 -1.123975e+01 5.366384e-01 -5.303432e+00 -1.062712e+01 -7.866042e+00 -6.842126e+00 5.085564e+00 1.393505e+00 -6.524308e+00 -5.546911e+00 -4.723709e+00 6.889918e-01 2.368189e-01 6.664945e-02 2.219932e-01 5.577491e-02 1.684303e-01 1.382755e-01 8.588655e-02 -5.995429e-02 -9.661175e-02 4.963952e-02 -3.789518e-04 -8.878314e-02 -5.614389e-03 -1.289678e-01 1.591821e-01 -3.285814e-02 8.248126e-02 1.013006e-01 2.208926e-02 5.584254e-02 -1.217890e-01 -4.261898e-02 3.015043e-02 3.518621e-02 3.324554e-02 -3.249396e-03
<VARIANCE> 39
 1.431569e+01 3.993349e+01 2.516167e+01 5.002959e+01 4.770310e+01 6.956802e+01 5.706752e+01 4.179801e+01 8.805444e+01 8.903366e+01 4.677425e+01 4.345559e+01 2.936420e-02 1.410960e+00 3.080800e+00 1.166405e+00 1.895172e+00 2.537017e+00 2.469563e+00 2.354898e+00 3.449145e+00 2.432096e+00 2.444368e+00 2.021266e+00 1.743781e+00 1.922277e-03 3.159040e-01 3.175288e-01 2.208938e-01 2.890776e-01 4.836654e-01 4.679947e-01 4.267560e-01 4.926363e-01 4.433720e-01 4.843380e-01 3.635377e-01 3.118600e-01 2.716604e-04
<GCONST> 9.706241e+01
<STATE> 4
<MEAN> 39
 -5.802678e+00 -1.920660e+00 1.731420e+00 1.287692e+00 -8.704826e-01 -3.075926e+00 -3.139380e+00 -4.141709e+00 -2.508529e+00 -6.619653e+00 -3.145908e+00 -4.829998e+00 3.079923e-01 -4.175208e-01 -7.392131e-02 -3.390798e-01 -8.012825e-02 3.088635e-01 1.645938e-01 3.928620e-02 -1.416082e-01 -1.885020e-01 -9.584090e-02 1.119595e-01 2.297122e-01 -2.246534e-02 5.555423e-03 -5.509985e-02 -1.879951e-02 -5.867565e-02 -6.430634e-02 -4.861960e-02 -2.893834e-02 6.475481e-02 3.117783e-02 8.180890e-04 -7.140158e-03 1.863296e-03 6.039425e-04
<VARIANCE> 39
 1.914199e+01 1.408883e+01 2.541997e+01 3.526883e+01 2.547350e+01 1.902067e+01 2.120297e+01 1.568391e+01 3.271371e+01 3.335911e+01 1.781515e+01 2.076567e+01 7.093059e-02 4.419538e-01 7.801517e-01 8.884976e-01 1.426586e+00 1.586169e+00 1.499546e+00 1.629802e+00 1.625872e+00 1.975809e+00 1.659296e+00 1.518695e+00 1.403900e+00 6.960808e-04 7.244492e-02 1.285309e-01 1.283071e-01 2.103811e-01 2.404914e-01 2.562332e-01 3.078409e-01 3.303976e-01 3.635518e-01 3.189768e-01 3.090760e-01 2.711155e-01 8.798090e-05
<GCONST> 7.467973e+01
<TRANSP> 5
 0.000000e+00 1.000000e+00 0.000000e+00 0.000000e+00 0.000000e+00
 0.000000e+00 9.551059e-01 4.489408e-02 0.000000e+00 0.000000e+00
 0.000000e+00 0.000000e+00 9.679159e-01 3.208409e-02 0.000000e+00
 0.000000e+00 0.000000e+00 0.000000e+00 9.539181e-01 4.608191e-02
 0.000000e+00 0.000000e+00 0.000000e+00 0.000000e+00 0.000000e+00
<ENDHMM>
