~o
<STREAMINFO> 1 39
<VECSIZE> 39<NULLD><MFCC_E_D_A><DIAGC>
~h "seven"
<BEGINHMM>
<NUMSTATES> 5
<STATE> 2
<MEAN> 39
 -2.682600e+01 5.645394e+00 -1.040259e+01 2.959524e+00 -6.341640e+00 -5.528668e+00 7.257162e-01 -2.747090e-01 -2.487498e+00 -2.773426e+00 -2.841083e+00 -4.263170e-01 4.245004e-01 -2.223924e-01 3.108633e-01 1.246325e-02 -2.300478e-01 -7.741727e-01 -3.003516e-01 -1.651303e-01 2.917434e-01 1.647170e-01 -1.158604e-01 -5.788822e-02 1.081106e-01 3.671521e-02 4.316491e-01 -2.286734e-01 1.005249e-02 -1.532679e-01 -1.215195e-01 -6.664195e-02 -1.227728e-01 9.806500e-03 -3.935569e-03 -2.630287e-01 -1.104277e-01 -4.058724e-02 -6.030960e-04
<VARIANCE> 39
 3.086206e+01 2.877105e+01 2.195996e+01 2.158519e+01 3.193377e+01 2.148761e+01 2.155165e+01 2.019331e+01 2.026207e+01 1.608314e+01 1.852816e+01 1.711400e+01 3.567498e-02 7.899219e+00 3.067397e+00 1.810279e+00 3.371297e+00 4.093681e+00 3.415485e+00 2.051786e+00 2.083982e+00 2.344734e+00 3.148631e+00 2.328839e+00 1.527936e+00 2.348374e-03 7.886756e-01 3.961876e-01 3.144280e-01 4.267420e-01 7.377604e-01 5.604582e-01 3.381751e-01 4.588377e-01 5.177810e-01 4.728081e-01 5.178834e-01 3.134496e-01 3.346752e-04
<GCONST> 9.460221e+01
<STATE> 3
<MEAN> 39
 -2.403858e+00 -7.441647e+00 -3.970212e+00 -5.154403e+00 -1.742962e+01 -9.958399e+00 -4.548540e+00 3.256305e+00 -9.629267e-01 -1.512653e+01 -7.805503e+00 7.238073e-01 6.252801e-01 5.721512e-01 -9.751366e-02 3.149124e-01 4.660877e-02 -1.472494e-01 9.478617e-02 7.616734e-02 -1.024719e-01 5.698670e-02 -2.464842e-01 -4.676814e-02 1.747507e-01 -1.669446e-03 -1.687997e-01 1.587235e-01 2.119822e-02 7.500595e-02 1.022205e-01 6.953026e-02 1.131346e-02 -6.344949e-02 5.610279e-02 1.415939e-01 5.492046e-02 -2.062797e-02 -1.690082e-03
<VARIANCE> 39
 3.270111e+01 2.213675e+01 2.770639e+01 1.573316e+01 4.986254e+01 4.010510e+01 3.100571e+01 2.469841e+01 2.746001e+01 2.560255e+01 1.652549e+01 3.338199e+01 1.976895e-02 4.654666e+00 2.898157e+00 1.829422e+00 1.636022e+00 4.125251e+00 5.233587e+00 2.691245e+00 2.576528e+00 3.417149e+00 3.240563e+00 1.993668e+00 1.679540e+00 1.997721e-03 7.934189e-01 2.812142e-01 3.261689e-01 3.605574e-01 7.730142e-01 1.172273e+00 5.427035e-01 4.571814e-01 6.399785e-01 5.358258e-01 3.673221e-01 3.112094e-01 3.156705e-04
<GCONST> 9.719711e+01
<STATE> 4
<MEAN> 39
 -4.227491e+00 6.388035e-01 -1.980076e-01 7.220628e-01 -7.285761e+00 -6.253659e+00 -3.763036e+00 -4.921060e+00 -1.328343e+00 -1.234855e+01 -5.969858e+00 -2.860239e+00 3.455710e-01 -4.700690e-01 -1.124623e-01 -3.952453e-01 8.511186e-02 7.322553e-01 2.776470e-01 -2.253726e-02 -1.711775e-01 -1.659008e-01 2.833408e-01 1.199426e-01 -2.660143e-01 -2.461049e-02 -8.539632e-03 -8.324440e-02 -2.989738e-02 -2.036458e-04 -4.364222e-02 -2.325310e-02 1.928126e-02 4.301511e-02 -5.710806e-02 -5.975360e-02 1.203843e-02 4.532056e-02 -2.424944e-04
<VARIANCE> 39
 3.353009e+01 2.339506e+01 3.117190e+01 2.616705e+01 6.668810e+01 2.212379e+01 1.830213e+01 1.550714e+01 2.776992e+01 2.705254e+01 1.467478e+01 2.021130e+01 6.882291e-02 6.871032e-01 1.653470e+00 1.078088e+00 1.768875e+00 2.019681e+00 1.190838e+00 1.606198e+00 1.588412e+00 2.492820e+00 2.137647e+00 1.471251e+00 1.874136e+00 9.459412e-04 1.058648e-01 2.245494e-01 1.583818e-01 2.556029e-01 3.123094e-01 2.415426e-01 2.465619e-01 2.980761e-01 4.470434e-01 3.954530e-01 3.087038e-01 3.308907e-01 1.000793e-04
<GCONST> 8.057566e+01
<TRANSP> 5
 0.000000e+00 1.000000e+00 0.000000e+00 0.000000e+00 0.000000e+00
 0.000000e+00 9.469628e-01 5.303723e-02 0.000000e+00 0.000000e+00
 0.000000e+00 0.000000e+00 9.694213e-01 3.057868e-02 0.000000e+00
 0.000000e+00 0.000000e+00 0.000000e+00 9.615589e-01 3.844106e-02
 0.000000e+00 0.000000e+00 0.000000e+00 0.000000e+00 0.000000e+00
<ENDHMM>
