~o
<STREAMINFO> 1 39
<VECSIZE> 39<NULLD><MFCC_E_D_A><DIAGC>
~h "seven"
<BEGINHMM>
<NUMSTATES> 5
<STATE> 2
<MEAN> 39
 -1.682675e+01 6.012180e+00 -9.376347e+00 2.285116e+00 3.411457e-01 -4.174605e+00 8.541065e+00 -1.427795e+00 5.358040e-01 1.607641e+00 7.597913e-01 -3.554344e-02 2.217896e-01 -1.555956e-01 2.025770e-01 -1.803063e-01 -6.615337e-02 -5.507634e-01 -3.775516e-01 -3.532290e-01 -1.402881e-02 -8.214798e-02 4.850199e-02 2.594355e-01 -2.895483e-01 1.382658e-02 1.944068e-01 -1.015616e-01 1.067202e-01 -1.099968e-01 -1.402943e-01 -5.246551e-02 -1.971311e-01 6.350413e-03 3.116924e-02 -2.007958e-02 -1.233683e-02 -1.152570e-01 5.606716e-03
<VARIANCE> 39
 2.200831e+01 2.384329e+01 1.682795e+01 1.138104e+01 1.665719e+01 1.664336e+01 1.425125e+01 1.599613e+01 1.493264e+01 1.363199e+01 1.423923e+01 1.424053e+01 4.245790e-03 2.537014e+00 2.048307e+00 1.433897e+00 1.333846e+00 1.818364e+00 1.606468e+00 2.480924e+00 1.395325e+00 1.088104e+00 1.625330e+00 1.527806e+00 1.528441e+00 1.278544e-03 1.993461e-01 1.804785e-01 1.405403e-01 1.377485e-01 2.576942e-01 2.669157e-01 3.351060e-01 2.859557e-01 1.956718e-01 3.370793e-01 3.061362e-01 3.643688e-01 2.370206e-04
<GCONST> 7.323088e+01
<STATE> 3
<MEAN> 39
 1.464473e+00 -6.281699e+00 1.749049e-01 -9.692429e+00 -1.280701e+01 -8.079591e+00 -9.188337e+00 4.813403e+00 7.124591e+00 1.469550e+00 3.080123e+00 -1.423974e+01 7.315600e-01 4.012199e-01 7.546022e-02 2.723540e-01 -2.677620e-01 2.042180e-02 -2.059358e-01 -5.479719e-01 1.698681e-01 2.933541e-02 2.471012e-01 -5.427784e-02 -2.052839e-01 1.125083e-02 -1.658082e-01 6.933517e-02 -2.424930e-02 3.444882e-02 1.187606e-01 5.082349e-02 1.525767e-01 4.608069e-02 -3.903909e-02 2.743212e-02 9.893172e-03 1.437363e-01 -5.351305e-03
<VARIANCE> 39
 7.856670e+00 2.116084e+01 8.100499e+00 8.489524e+00 1.663454e+01 2.238468e+01 2.211312e+01 3.507654e+01 1.965891e+01 2.302640e+01 1.431635e+01 3.196006e+01 1.869430e-02 1.372614e+00 1.434687e+00 8.874709e-01 1.340632e+00 1.748243e+00 2.405335e+00 2.974801e+00 3.505495e+00 1.874069e+00 1.467827e+00 1.374746e+00 3.214576e+00 3.163047e-03 1.672534e-01 9.435126e-02 1.569961e-01 2.445160e-01 2.893616e-01 5.098658e-01 6.502317e-01 6.238971e-01 2.947619e-01 2.397759e-01 2.727421e-01 3.248627e-01 3.337440e-04
<GCONST> 7.992722e+01
<STATE> 4
<MEAN> 39
 -1.673743e-01 1.445311e+00 5.010291e+00 -8.554710e+00 -3.516828e+00 -1.012678e+01 -8.176458e+00 2.421785e+00 -1.088244e+00 5.284332e+00 2.925435e+00 -2.179537e+00 4.998109e-01 -1.782072e-01 -2.536894e-01 3.065810e-02 3.594459e-01 4.869433e-01 4.118864e-01 7.148885e-01 -3.391500e-01 -1.859506e-01 -3.122891e-01 -1.927754e-01 6.099927e-01 -2.525634e-02 1.016912e-02 -3.021261e-02 -5.949293e-02 3.607176e-02 2.898636e-03 1.623848e-02 5.663620e-03 -6.854213e-02 1.281770e-02 -2.410389e-02 -1.442569e-02 -2.572571e-02 -9.408465e-04
<VARIANCE> 39
 2.179358e+00 8.285148e+00 6.534412e+00 2.139722e+01 2.360455e+01 2.910286e+01 3.882915e+01 3.097399e+01 2.760258e+01 2.037591e+01 1.789074e+01 3.293761e+01 3.150093e-02 2.182025e-01 6.029971e-01 6.003991e-01 8.366418e-01 1.138741e+00 1.370928e+00 1.193796e+00 1.958194e+00 2.898439e+00 1.480556e+00 1.663658e+00 1.511177e+00 1.472606e-04 4.707643e-02 1.052531e-01 8.641072e-02 1.543436e-01 2.289491e-01 2.455119e-01 2.588692e-01 3.113137e-01 5.457339e-01 3.267270e-01 3.068907e-01 2.869040e-01 3.899568e-05
<GCONST> 6.519428e+01
<TRANSP> 5
 0.000000e+00 1.000000e+00 0.000000e+00 0.000000e+00 0.000000e+00
 0.000000e+00 9.590638e-01 4.093615e-02 0.000000e+00 0.000000e+00
 0.000000e+00 0.000000e+00 9.626486e-01 3.735144e-02 0.000000e+00
 0.000000e+00 0.000000e+00 0.000000e+00 9.550108e-01 4.498924e-02
 0.000000e+00 0.000000e+00 0.000000e+00 0.000000e+00 0.000000e+00
<ENDHMM>
