~o
<STREAMINFO> 1 39
<VECSIZE> 39<NULLD><MFCC_E_D_A><DIAGC>
~h "seven"
<BEGINHMM>
<NUMSTATES> 5
<STATE> 2
<MEAN> 39
 -2.449823e+01 4.595169e+00 -6.723832e+00 2.863909e-01 -1.570845e+00 -4.300811e+00 1.462595e+00 -1.472594e+00 6.131465e-01 -2.436795e+00 -2.992597e-03 -9.940148e-01 4.033672e-01 1.159937e-01 3.699543e-02 -5.869438e-02 -1.406218e-01 -4.485149e-01 -3.503212e-01 -2.004839e-01 3.488403e-02 8.435766e-02 -4.286138e-02 -2.098098e-01 -4.079981e-02 2.881222e-02 3.178153e-01 -1.826730e-01 4.998791e-02 -9.732998e-02 -1.073759e-01 -7.277635e-02 -8.490746e-02 3.148736e-02 -2.479705e-03 -3.782933e-02 -1.099989e-01 -4.517918e-02 1.905784e-03
<VARIANCE> 39
 5.827587e+01 5.043543e+01 5.325539e+01 5.120514e+01 5.163598e+01 4.106731e+01 3.486514e+01 3.266426e+01 3.045358e+01 2.633998e+01 2.734912e+01 1.984286e+01 6.358410e-02 6.487181e+00 2.867278e+00 1.954275e+00 2.473185e+00 3.042341e+00 3.146779e+00 2.703933e+00 2.195432e+00 2.216402e+00 2.134032e+00 2.324651e+00 1.657473e+00 1.955265e-03 5.126061e-01 3.622581e-01 3.090577e-01 3.876699e-01 4.872863e-01 5.342039e-01 4.825258e-01 4.460843e-01 4.324073e-01 3.996471e-01 4.348486e-01 3.214604e-01 3.066996e-04
<GCONST> 9.920383e+01
<STATE> 3
<MEAN> 39
 -2.974568e+00 -8.877748e+00 -1.468700e+00 -7.679140e+00 -9.874145e+00 -9.244072e+00 -4.602464e+00 1.834335e-01 -8.591490e-01 -6.172973e+00 -8.538053e+00 -5.711219e+00 6.973000e-01 4.085892e-01 -7.771651e-02 2.787322e-01 -1.068138e-02 3.899112e-02 1.358210e-02 -5.108571e-02 -1.050607e-01 -1.759601e-01 -6.207302e-02 -8.378918e-02 -1.104785e-01 -1.195941e-03 -1.866333e-01 1.365346e-01 1.958269e-04 1.085485e-01 9.512610e-02 6.716125e-02 6.669881e-02 -6.432553e-02 -1.499890e-02 3.330724e-02 8.305158e-02 3.844745e-02 -3.538144e-03
<VARIANCE> 39
 2.915957e+01 5.843117e+01 5.459405e+01 5.661995e+01 6.450057e+01 5.847015e+01 6.585472e+01 6.270356e+01 8.674870e+01 7.288060e+01 6.214523e+01 4.666965e+01 3.166841e-02 2.391474e+00 3.800388e+00 1.632234e+00 3.142338e+00 2.971187e+00 2.875412e+00 3.187167e+00 3.767851e+00 3.022077e+00 2.716341e+00 2.853233e+00 2.027784e+00 2.197920e-03 4.458498e-01 4.173076e-01 2.713745e-01 4.599940e-01 5.435107e-01 5.811151e-01 6.086121e-01 6.179844e-01 5.198253e-01 4.850039e-01 4.658366e-01 3.395165e-01 2.746692e-04
<GCONST> 1.058854e+02
<STATE> 4
<MEAN> 39
 -4.933704e+00 4.477273e-01 3.288695e+00 -2.195347e-02 -3.731423e+00 -7.565263e+00 -3.246944e+00 -5.107501e+00 -2.742160e+00 -5.386083e+00 -4.944797e+00 -4.041296e+00 4.046463e-01 -3.788115e-01 3.203780e-02 -1.211050e-01 1.568085e-01 3.328553e-01 2.681876e-01 1.308726e-01 4.317423e-02 5.711380e-02 4.610589e-02 2.034446e-01 1.306567e-01 -2.249721e-02 -1.324734e-02 -5.208149e-02 -3.335839e-02 -5.165374e-02 -2.576279e-03 9.136219e-03 -6.682436e-03 5.997886e-02 2.308170e-02 3.705346e-03 4.129358e-03 2.580720e-03 -4.386400e-05
<VARIANCE> 39
 3.219656e+01 2.941641e+01 3.921244e+01 3.899680e+01 5.032249e+01 4.773423e+01 4.189357e+01 5.659505e+01 5.620785e+01 5.398304e+01 4.352425e+01 3.384187e+01 8.054450e-02 4.976204e-01 1.150357e+00 1.212982e+00 1.683460e+00 1.620319e+00 1.653872e+00 1.882752e+00 2.602020e+00 2.053422e+00 1.918796e+00 1.766021e+00 1.575150e+00 8.638645e-04 6.711297e-02 1.520986e-01 1.838496e-01 2.793623e-01 2.739434e-01 2.916076e-01 3.333715e-01 4.485112e-01 3.748106e-01 3.486030e-01 3.218704e-01 2.869020e-01 1.024971e-04
<GCONST> 8.669907e+01
<TRANSP> 5
 0.000000e+00 1.000000e+00 0.000000e+00 0.000000e+00 0.000000e+00
 0.000000e+00 9.509283e-01 4.907176e-02 0.000000e+00 0.000000e+00
 0.000000e+00 0.000000e+00 9.632677e-01 3.673229e-02 0.000000e+00
 0.000000e+00 0.000000e+00 0.000000e+00 9.567405e-01 4.325952e-02
 0.000000e+00 0.000000e+00 0.000000e+00 0.000000e+00 0.000000e+00
<ENDHMM>
