~o
<STREAMINFO> 1 39
<VECSIZE> 39<NULLD><MFCC_E_D_A><DIAGC>
~h "six"
<BEGINHMM>
<NUMSTATES> 5
<STATE> 2
<MEAN> 39
 -2.519761e+01 5.285309e+00 -6.887787e+00 9.224519e-01 -1.170258e+00 -3.664798e+00 1.842329e+00 -1.580485e+00 9.880923e-02 -2.359106e+00 2.035441e-01 -8.622037e-01 4.033597e-01 -6.271579e-01 3.003757e-01 -1.480059e-01 3.978736e-02 -1.664444e-01 -5.121756e-02 5.269438e-02 2.540216e-02 7.991124e-03 3.727147e-02 2.640829e-02 4.564327e-02 2.541404e-02 2.367639e-01 -1.095249e-01 1.104381e-01 -5.600227e-02 -1.006490e-01 -9.362279e-02 -7.127077e-02 -2.364204e-02 -2.331975e-02 -2.210303e-02 -3.442940e-02 -9.958140e-03 -1.480077e-03
<VARIANCE> 39
 5.632901e+01 4.782349e+01 4.873691e+01 4.767129e+01 4.272350e+01 3.547227e+01 3.395133e+01 3.168499e+01 2.764550e+01 2.538768e+01 2.695347e+01 1.849575e+01 6.712951e-02 2.132016e+00 2.024626e+00 1.549071e+00 1.635464e+00 1.748324e+00 2.019740e+00 2.005903e+00 1.909423e+00 1.820995e+00 1.771783e+00 1.657133e+00 1.447948e+00 1.595577e-03 3.691675e-01 2.747605e-01 2.598569e-01 3.082279e-01 4.011780e-01 4.580733e-01 4.457352e-01 3.943318e-01 3.767383e-01 3.571568e-01 3.447488e-01 2.950276e-01 1.959096e-04
<GCONST> 9.122299e+01
<STATE> 3
<MEAN> 39
 -1.162857e+01 -4.618010e+00 1.713519e+00 -4.730805e+00 -1.237438e+01 -1.121123e+01 -1.422714e+00 -1.711840e+00 -1.242055e+00 -1.126267e+00 -8.528325e-01 -2.350169e+00 4.825545e-01 4.362055e-02 -1.113718e-01 -2.230566e-02 1.098485e-01 -4.076862e-03 -1.796893e-01 -2.287906e-02 7.193570e-02 7.020123e-02 -2.205838e-02 -7.398636e-03 1.049262e-02 -1.437833e-03 -1.431027e-01 8.766476e-02 -4.313720e-02 2.281577e-02 8.045468e-02 9.845907e-02 4.841620e-02 1.613858e-02 2.510577e-03 3.975127e-03 1.633544e-02 1.030202e-02 1.677745e-05
<VARIANCE> 39
 7.225660e+01 5.886399e+01 8.817622e+01 8.031937e+01 1.165953e+02 7.178170e+01 5.969708e+01 5.539126e+01 5.808385e+01 4.867117e+01 5.222371e+01 3.115049e+01 8.686347e-02 5.972163e+00 3.942216e+00 4.555300e+00 3.758204e+00 5.769043e+00 4.344682e+00 3.723554e+00 3.332816e+00 3.301025e+00 2.913505e+00 2.763061e+00 2.035912e+00 3.981571e-03 5.975631e-01 5.681390e-01 6.355802e-01 4.968748e-01 7.799028e-01 7.084662e-01 6.454839e-01 6.046743e-01 5.738623e-01 5.132090e-01 4.701949e-01 3.735759e-01 4.582175e-04
<GCONST> 1.147190e+02
<STATE> 4
<MEAN> 39
 -2.230679e+01 2.854408e+00 -5.981793e+00 9.689915e-01 -1.019939e+00 -5.754736e+00 1.528438e+00 -9.589644e-01 9.303470e-01 -3.157352e+00 -2.012111e-01 -9.104186e-01 3.364907e-01 4.249974e-01 -1.054758e-01 1.393081e-01 -1.337554e-01 1.471616e-01 2.260081e-01 -3.088032e-02 -8.799806e-02 -8.904721e-02 -4.849758e-03 -1.637427e-02 -4.508296e-02 -1.509279e-02 6.976911e-02 -6.561501e-02 1.087621e-03 5.328397e-03 -1.566856e-02 -2.351013e-02 -2.364387e-02 -1.695153e-03 7.737946e-03 1.106610e-02 -1.946099e-03 -7.110634e-03 -6.742023e-04
<VARIANCE> 39
 6.066333e+01 4.334043e+01 4.917731e+01 4.703582e+01 5.070792e+01 3.999008e+01 3.739254e+01 3.400119e+01 3.209915e+01 2.882042e+01 2.785809e+01 2.000066e+01 6.275669e-02 1.115857e+00 1.286953e+00 1.053984e+00 1.277763e+00 1.517245e+00 1.902050e+00 1.816579e+00 1.851294e+00 1.867626e+00 1.766898e+00 1.567050e+00 1.439869e+00 8.268239e-04 1.492059e-01 1.701443e-01 1.865117e-01 2.301806e-01 2.720982e-01 3.436972e-01 3.541178e-01 3.646883e-01 3.669058e-01 3.544831e-01 3.134120e-01 2.881381e-01 9.839132e-05
<GCONST> 8.537785e+01
<TRANSP> 5
 0.000000e+00 1.000000e+00 0.000000e+00 0.000000e+00 0.000000e+00
 0.000000e+00 9.448253e-01 5.517475e-02 0.000000e+00 0.000000e+00
 0.000000e+00 0.000000e+00 9.673638e-01 3.263621e-02 0.000000e+00
 0.000000e+00 0.000000e+00 0.000000e+00 9.643093e-01 3.569075e-02
 0.000000e+00 0.000000e+00 0.000000e+00 0.000000e+00 0.000000e+00
<ENDHMM>
