~o
<STREAMINFO> 1 39
<VECSIZE> 39<NULLD><MFCC_E_D_A><DIAGC>
~h "six"
<BEGINHMM>
<NUMSTATES> 5
<STATE> 2
<MEAN> 39
 -2.649640e+01 8.662568e+00 -1.349060e+01 3.190857e+00 -3.238469e+00 -4.998350e+00 1.687493e-01 -1.309162e+00 -5.920315e+00 -2.796490e+00 -3.577652e+00 -4.626278e-01 4.407958e-01 -3.769862e-01 4.959772e-01 2.791314e-01 -1.989868e-01 -7.782673e-01 -4.483073e-01 -1.180761e-01 6.059156e-02 -3.959210e-02 2.701475e-01 1.746375e-01 -1.385227e-01 3.406936e-02 3.993990e-01 -2.077432e-01 2.106739e-01 -2.010839e-01 -3.509295e-01 -1.591882e-01 -1.016595e-01 -4.495198e-03 6.087245e-02 -5.410713e-02 -6.425672e-03 -9.074964e-02 -1.043313e-04
<VARIANCE> 39
 2.794032e+01 3.278270e+01 3.176292e+01 1.865434e+01 1.873586e+01 1.283127e+01 1.765661e+01 1.623659e+01 1.716920e+01 2.207890e+01 2.114855e+01 1.544449e+01 3.036926e-02 6.366464e+00 3.809911e+00 5.029931e+00 2.962281e+00 7.047250e+00 3.043598e+00 2.228587e+00 1.479971e+00 2.239371e+00 2.211055e+00 1.862084e+00 1.723432e+00 1.984038e-03 8.100328e-01 4.683897e-01 5.308632e-01 3.393317e-01 1.017987e+00 4.669697e-01 4.431754e-01 2.731463e-01 4.716108e-01 4.851210e-01 4.927706e-01 3.280209e-01 2.825872e-04
<GCONST> 9.393943e+01
<STATE> 3
<MEAN> 39
 -1.078321e+01 -7.448611e+00 -7.682288e-01 -6.407302e+00 -1.834359e+01 -1.112562e+01 1.369289e+00 -1.991458e+00 -2.008663e+00 -2.166047e+00 -4.229447e+00 -4.097689e+00 4.052621e-01 -2.732824e-01 -9.282079e-02 -2.382514e-01 5.290495e-01 2.477458e-01 1.334041e-01 2.292464e-01 8.522846e-02 2.384800e-02 -1.264201e-01 -5.542335e-02 2.634988e-01 -4.170482e-03 -1.930134e-01 1.684673e-01 -1.140532e-01 5.657620e-02 2.622719e-01 1.518011e-01 6.066573e-02 -2.363201e-02 -5.850024e-02 -8.619172e-04 4.322559e-04 3.833818e-02 -1.181621e-03
<VARIANCE> 39
 3.793034e+01 2.780186e+01 5.328612e+01 1.160155e+02 9.531094e+01 4.702581e+01 3.680203e+01 3.602671e+01 1.771058e+01 2.303752e+01 1.581684e+01 2.521396e+01 1.083151e-01 4.372560e+00 3.791427e+00 2.784484e+00 5.425941e+00 7.242056e+00 3.951213e+00 2.757124e+00 3.728297e+00 2.091459e+00 2.056280e+00 1.557030e+00 2.138386e+00 4.005356e-03 5.469015e-01 3.940821e-01 5.080343e-01 8.699908e-01 1.324218e+00 8.663975e-01 5.190482e-01 7.041934e-01 4.084847e-01 4.130862e-01 2.810996e-01 4.087538e-01 4.144378e-04
<GCONST> 1.061392e+02
<STATE> 4
<MEAN> 39
 -2.198789e+01 5.160747e+00 -1.318694e+01 4.263564e+00 -4.183987e+00 -4.955444e+00 4.054811e-01 -2.752941e+00 -3.588717e+00 -4.629647e+00 -3.725688e+00 -8.911599e-02 2.961488e-01 6.927669e-01 -2.932876e-01 9.301686e-02 -5.025046e-01 3.072336e-01 2.648789e-01 -2.656611e-01 -1.965032e-01 1.236441e-01 -3.214879e-02 2.588671e-02 -2.929890e-01 -2.167665e-02 4.874453e-02 -1.199485e-01 2.598331e-02 5.110932e-02 -7.857013e-02 -4.878560e-02 -3.255226e-02 1.364902e-02 3.700076e-02 1.982408e-02 1.615063e-02 -1.613806e-02 -7.540800e-04
<VARIANCE> 39
 4.729358e+01 4.608651e+01 1.685817e+01 2.635845e+01 1.712394e+01 1.833788e+01 1.592695e+01 1.759024e+01 1.994730e+01 1.866527e+01 1.813030e+01 2.489471e+01 6.550138e-02 7.187080e-01 1.915774e+00 1.250410e+00 1.651342e+00 1.684913e+00 1.800456e+00 1.761188e+00 1.646039e+00 1.999174e+00 1.748658e+00 1.472087e+00 1.668396e+00 1.014987e-03 1.376048e-01 2.215271e-01 1.872016e-01 3.588994e-01 3.796797e-01 3.138696e-01 4.069856e-01 3.536473e-01 4.170275e-01 3.748508e-01 3.119177e-01 3.423439e-01 1.264922e-04
<GCONST> 8.130350e+01
<TRANSP> 5
 0.000000e+00 1.000000e+00 0.000000e+00 0.000000e+00 0.000000e+00
 0.000000e+00 9.494856e-01 5.051440e-02 0.000000e+00 0.000000e+00
 0.000000e+00 0.000000e+00 9.704931e-01 2.950684e-02 0.000000e+00
 0.000000e+00 0.000000e+00 0.000000e+00 9.619963e-01 3.800371e-02
 0.000000e+00 0.000000e+00 0.000000e+00 0.000000e+00 0.000000e+00
<ENDHMM>
