~o
<STREAMINFO> 1 39
<VECSIZE> 39<NULLD><MFCC_E_D_A><DIAGC>
~h "six"
<BEGINHMM>
<NUMSTATES> 5
<STATE> 2
<MEAN> 39
 -2.129590e+01 4.836176e+00 -1.172654e+01 2.503534e+00 -2.183767e+00 -5.279801e+00 -5.004149e-01 -5.642786e+00 -1.676058e+00 -4.971824e+00 -3.476121e-01 -9.494391e-01 3.277923e-01 -1.997944e-01 2.869667e-01 7.184334e-02 1.065801e-01 -3.973138e-01 -2.574992e-01 -9.160535e-02 1.587580e-02 5.471554e-02 1.219844e-01 3.872691e-02 -7.054394e-02 2.609801e-02 2.284960e-01 -1.506555e-01 2.251479e-01 -8.024333e-02 -1.614197e-01 -5.339310e-02 -1.027355e-01 4.748607e-02 -5.709504e-03 -3.015926e-02 -2.095562e-02 -4.815010e-02 1.955746e-03
<VARIANCE> 39
 5.191232e+01 4.558522e+01 4.915881e+01 3.785348e+01 2.559443e+01 3.079587e+01 4.190208e+01 3.210807e+01 2.750998e+01 2.691148e+01 2.401581e+01 1.451359e+01 7.184367e-02 3.832705e+00 2.651377e+00 4.179301e+00 2.250482e+00 3.530373e+00 2.153991e+00 2.623666e+00 1.922543e+00 1.873751e+00 2.077164e+00 1.956844e+00 1.575764e+00 1.506707e-03 3.951219e-01 3.436232e-01 4.084053e-01 3.133202e-01 5.989733e-01 3.859457e-01 4.644402e-01 3.871889e-01 3.596061e-01 4.399331e-01 4.195028e-01 3.042670e-01 2.347719e-04
<GCONST> 9.537862e+01
<STATE> 3
<MEAN> 39
 -9.355969e+00 -8.284358e+00 3.400123e+00 -3.552327e+00 -1.485673e+01 -1.058057e+01 -3.503850e+00 -7.748392e-01 -2.388514e+00 -4.052284e+00 -8.956731e-01 -4.028690e+00 5.129169e-01 -3.208508e-01 -4.942156e-03 -2.691804e-01 2.390236e-01 1.292487e-01 -7.108560e-02 3.096901e-01 6.530454e-02 -2.459507e-03 -6.838877e-02 -1.835398e-02 1.456205e-01 -5.910728e-03 -2.191331e-01 1.921205e-01 -2.033944e-01 3.074230e-02 1.994783e-01 8.423711e-02 1.118599e-01 -4.316675e-02 3.376291e-03 3.476625e-02 -4.095238e-03 4.915928e-02 -1.870445e-03
<VARIANCE> 39
 3.137933e+01 3.806129e+01 7.335113e+01 9.737880e+01 6.197021e+01 5.483983e+01 5.289373e+01 4.941770e+01 3.312536e+01 3.483838e+01 4.138280e+01 2.371788e+01 7.078844e-02 3.554205e+00 4.097721e+00 4.494629e+00 3.521540e+00 4.935217e+00 2.952613e+00 2.614525e+00 3.380103e+00 2.858751e+00 2.784468e+00 2.422429e+00 1.840460e+00 2.806447e-03 3.652975e-01 4.054560e-01 4.616010e-01 5.209364e-01 7.698908e-01 6.011143e-01 4.582961e-01 5.683234e-01 5.235028e-01 5.110898e-01 3.991468e-01 3.249544e-01 2.628738e-04
<GCONST> 1.058644e+02
<STATE> 4
<MEAN> 39
 -1.979198e+01 3.362495e+00 -1.002587e+01 1.257538e+00 -6.328529e-01 -7.564287e+00 3.132418e-01 -5.860476e+00 -1.714261e+00 -5.534396e+00 -9.482110e-01 -9.550241e-01 2.798374e-01 4.749318e-01 -2.215439e-01 2.046608e-01 -2.820089e-01 2.158289e-01 2.843161e-01 -2.182203e-01 -8.746511e-02 -5.188838e-02 -2.984116e-02 2.077005e-02 -9.073900e-02 -1.335233e-02 5.757584e-02 -9.489015e-02 3.518527e-02 3.179540e-03 -5.292428e-02 -2.254812e-02 -3.376213e-02 1.469812e-02 -6.380792e-03 3.844394e-03 1.867035e-02 -1.816347e-03 -8.214398e-04
<VARIANCE> 39
 4.617715e+01 3.474094e+01 3.233354e+01 2.813348e+01 2.507797e+01 3.393623e+01 3.081500e+01 2.611320e+01 2.298110e+01 2.496396e+01 2.437372e+01 1.780822e+01 6.095583e-02 6.608402e-01 1.200281e+00 1.071454e+00 1.202008e+00 1.464841e+00 1.722191e+00 1.843943e+00 1.874369e+00 1.925071e+00 1.834290e+00 1.646759e+00 1.413208e+00 7.776948e-04 1.021766e-01 1.608747e-01 1.548772e-01 2.362577e-01 2.977124e-01 3.193892e-01 3.743489e-01 3.776061e-01 4.046144e-01 3.749437e-01 3.326435e-01 2.834498e-01 8.033320e-05
<GCONST> 8.066709e+01
<TRANSP> 5
 0.000000e+00 1.000000e+00 0.000000e+00 0.000000e+00 0.000000e+00
 0.000000e+00 9.574385e-01 4.256152e-02 0.000000e+00 0.000000e+00
 0.000000e+00 0.000000e+00 9.630403e-01 3.695970e-02 0.000000e+00
 0.000000e+00 0.000000e+00 0.000000e+00 9.664650e-01 3.353502e-02
 0.000000e+00 0.000000e+00 0.000000e+00 0.000000e+00 0.000000e+00
<ENDHMM>
