~o
<STREAMINFO> 1 39
<VECSIZE> 39<NULLD><MFCC_E_D_A><DIAGC>
~h "six"
<BEGINHMM>
<NUMSTATES> 5
<STATE> 2
<MEAN> 39
 -1.709445e+01 7.508626e+00 -9.573216e+00 1.654402e+00 1.224451e+00 -5.433426e+00 8.880879e+00 -2.043052e+00 8.073030e-01 9.685958e-01 8.555860e-01 -8.057441e-01 2.616156e-01 -2.032467e-01 3.044140e-01 -2.075045e-01 1.149325e-02 -5.871139e-01 -4.149123e-01 -3.059161e-01 7.029609e-02 -9.584722e-02 -9.798975e-02 2.717308e-01 -2.136247e-01 1.524225e-02 1.981276e-01 -7.933309e-02 1.562038e-01 -5.162459e-02 -1.217220e-01 -5.124802e-02 -2.653575e-01 6.866745e-03 1.354467e-02 -5.488551e-02 1.915195e-02 -3.521837e-02 5.435937e-03
<VARIANCE> 39
 3.140796e+01 3.237238e+01 1.988088e+01 1.981354e+01 2.209862e+01 1.387365e+01 1.413811e+01 1.543747e+01 1.813012e+01 1.605800e+01 2.785802e+01 1.374866e+01 9.159636e-03 2.673228e+00 2.266528e+00 1.735146e+00 1.828333e+00 1.762855e+00 1.785047e+00 3.211390e+00 1.483616e+00 1.190884e+00 1.744601e+00 2.372690e+00 1.170947e+00 1.178545e-03 1.763783e-01 1.763649e-01 2.454018e-01 2.553784e-01 2.624045e-01 2.957795e-01 6.082709e-01 2.730478e-01 2.236908e-01 3.233411e-01 4.864890e-01 2.159083e-01 2.545534e-04
<GCONST> 7.954353e+01
<STATE> 3
<MEAN> 39
 -2.868845e+00 -3.400263e+00 6.055472e+00 -5.539651e+00 -1.499312e+01 -1.692132e+01 -7.879420e+00 2.401213e+00 -4.311969e+00 -3.463631e-01 8.541386e+00 -8.155720e-01 5.824109e-01 -6.645592e-02 -1.572994e-01 -1.877061e-01 -3.885853e-02 1.295902e-01 -3.744757e-01 2.264506e-01 1.694069e-01 -2.647481e-01 2.569921e-01 -1.291507e-01 9.125417e-02 -2.243019e-03 -2.667336e-01 1.346685e-01 -1.663695e-01 4.026656e-02 1.444002e-01 -1.276661e-03 2.867712e-01 4.512239e-02 1.876380e-02 5.752503e-02 -3.508903e-02 6.904387e-02 -3.903660e-03
<VARIANCE> 39
 5.633439e+00 9.579679e+00 4.691448e+01 8.852512e+00 3.504630e+01 2.093999e+01 3.637749e+01 3.361763e+01 3.632613e+01 2.704248e+01 4.168895e+01 3.205517e+01 5.141405e-02 2.337853e+00 1.077862e+00 5.072803e+00 1.145662e+00 2.720711e+00 2.633982e+00 5.603761e+00 2.917966e+00 2.496206e+00 1.782884e+00 2.576344e+00 2.096775e+00 3.169556e-03 2.126672e-01 1.800498e-01 4.705690e-01 1.872104e-01 3.176917e-01 4.461870e-01 5.818396e-01 4.584292e-01 4.550837e-01 3.516515e-01 3.337688e-01 3.591289e-01 2.901659e-04
<GCONST> 9.032925e+01
<STATE> 4
<MEAN> 39
 -1.755766e+01 6.910606e+00 -6.721625e+00 -3.955173e+00 4.827721e+00 -1.266832e+01 6.286572e+00 8.323860e-01 -1.839970e+00 4.764436e+00 -2.107648e+00 2.614006e+00 2.944123e-01 1.547791e-01 -5.004083e-02 3.351429e-01 8.636827e-02 3.885626e-01 6.809237e-01 4.794572e-02 -2.192739e-01 2.727406e-01 -1.308747e-01 -8.944986e-02 7.465715e-02 -1.036986e-02 1.344439e-01 -1.221331e-01 5.156188e-02 1.260989e-02 -3.639781e-02 1.017554e-01 -5.221180e-02 -3.148937e-03 -3.183720e-02 -4.159611e-02 -1.067578e-03 -1.707832e-02 -7.679623e-04
<VARIANCE> 39
 3.459149e+01 3.268801e+01 1.660289e+01 1.034505e+01 2.226583e+01 5.052658e+01 1.566535e+01 3.059227e+01 2.322571e+01 1.727880e+01 1.970670e+01 1.605358e+01 1.681333e-02 1.688474e+00 1.918401e+00 4.304221e-01 8.264534e-01 1.325114e+00 1.413381e+00 1.585047e+00 1.303762e+00 1.823371e+00 1.567676e+00 1.232914e+00 1.332062e+00 1.979774e-04 1.131856e-01 8.880311e-02 1.128980e-01 1.574761e-01 2.298322e-01 3.316803e-01 3.402171e-01 2.295889e-01 3.648010e-01 3.096832e-01 2.147389e-01 2.234094e-01 2.997391e-05
<GCONST> 6.984550e+01
<TRANSP> 5
 0.000000e+00 1.000000e+00 0.000000e+00 0.000000e+00 0.000000e+00
 0.000000e+00 9.578177e-01 4.218230e-02 0.000000e+00 0.000000e+00
 0.000000e+00 0.000000e+00 9.631683e-01 3.683172e-02 0.000000e+00
 0.000000e+00 0.000000e+00 0.000000e+00 9.660194e-01 3.398065e-02
 0.000000e+00 0.000000e+00 0.000000e+00 0.000000e+00 0.000000e+00
<ENDHMM>
