~o
<STREAMINFO> 1 39
<VECSIZE> 39<NULLD><MFCC_E_D_A><DIAGC>
~h "three"
<BEGINHMM>
<NUMSTATES> 5
<STATE> 2
<MEAN> 39
 -1.199739e+01 7.217740e-01 4.608072e+00 1.766490e+00 3.164525e+00 -2.806632e+00 -4.955761e+00 -4.226936e+00 -2.940005e-01 -8.773380e+00 -6.395911e+00 -4.414294e+00 4.444724e-01 1.127580e-01 7.613324e-02 6.144781e-02 2.142773e-01 -1.519108e-01 -2.769052e-02 -3.694271e-01 5.343400e-02 6.983210e-02 1.245085e-01 2.289570e-01 8.253583e-02 1.350212e-02 2.246938e-01 -2.999845e-02 -5.200639e-02 -2.127396e-02 2.025890e-02 -1.585631e-01 -1.580962e-01 -1.079898e-01 1.451060e-01 1.418319e-01 8.978602e-03 7.299076e-02 3.478905e-03
<VARIANCE> 39
 1.672746e+01 8.792665e+00 1.486623e+01 1.102657e+01 1.762897e+01 1.573583e+01 1.056468e+01 2.266055e+01 1.736476e+01 2.955741e+01 2.261670e+01 1.254769e+01 8.679601e-03 2.153170e+00 9.924392e-01 1.304172e+00 1.393379e+00 1.337122e+00 2.635581e+00 1.652981e+00 1.653777e+00 1.471844e+00 3.195528e+00 2.548019e+00 1.838434e+00 5.532148e-04 2.328667e-01 1.615987e-01 2.797315e-01 3.127004e-01 1.887533e-01 6.484092e-01 3.346202e-01 2.974439e-01 2.867311e-01 4.191718e-01 5.751858e-01 3.540417e-01 1.472086e-04
<GCONST> 7.657014e+01
<STATE> 3
<MEAN> 39
 6.004399e-02 -6.123785e+00 1.391270e+01 1.609075e+00 -5.232707e+00 -1.253382e+01 -1.303687e+01 -1.349638e+00 -4.829200e-02 7.351062e-01 -1.270543e+00 6.330454e-01 8.083300e-01 -2.161950e-02 1.071986e-01 9.985527e-01 -4.121196e-01 -5.090935e-01 -2.968168e-01 -2.831612e-02 -8.274528e-02 -6.277874e-01 -8.845413e-04 -2.326405e-01 5.340708e-01 7.672843e-03 -3.302569e-01 1.215398e-01 -7.374422e-02 -2.207152e-02 1.573661e-01 2.050569e-01 1.535051e-01 6.476506e-02 -1.271207e-01 -1.284312e-01 -1.443274e-01 -5.549696e-02 -7.401416e-03
<VARIANCE> 39
 2.748042e+01 2.219057e+01 1.615891e+02 1.685643e+01 5.498914e+01 4.585032e+01 1.454158e+01 3.114900e+01 3.850608e+01 1.742495e+01 9.958841e+00 1.307804e+01 1.039848e-02 4.807083e+00 3.189710e+00 8.868956e+00 1.419930e+00 4.900330e+00 6.245868e+00 2.217146e+00 4.293529e+00 3.444672e+00 2.454515e+00 1.466843e+00 1.233559e+00 1.393510e-03 3.968726e-01 3.314075e-01 1.117605e+00 3.106260e-01 6.153253e-01 6.500409e-01 3.740217e-01 8.151623e-01 6.552061e-01 4.058447e-01 2.334300e-01 2.350593e-01 7.410732e-05
<GCONST> 9.492201e+01
<STATE> 4
<MEAN> 39
 -7.810696e+00 6.051435e-01 1.057101e+01 -2.368659e+00 2.803942e+00 -2.772132e+00 -9.337818e+00 -6.493836e+00 -1.684947e+00 -5.115025e+00 -8.873713e+00 4.687897e-01 4.858656e-01 -4.749441e-02 -6.950784e-02 -5.770276e-01 -2.261273e-02 3.594327e-01 4.007303e-01 4.532080e-01 1.213433e-01 5.009531e-01 -7.453489e-02 -8.782023e-02 -3.595122e-01 -1.208917e-02 3.557266e-02 -1.075325e-01 6.977183e-02 1.843023e-02 -1.697183e-01 -6.304698e-02 2.046852e-02 2.032796e-02 1.440319e-03 6.032050e-02 1.369839e-01 -1.158979e-02 7.226580e-04
<VARIANCE> 39
 3.628060e+00 6.425057e+00 2.704328e+01 1.816918e+01 1.808896e+01 9.815606e+00 2.015013e+01 1.085256e+01 2.440871e+01 1.552313e+01 8.444642e+00 2.044372e+01 1.340348e-02 2.642946e-01 5.735733e-01 1.311321e+00 1.661676e+00 1.253400e+00 1.152484e+00 1.182687e+00 1.095506e+00 1.505018e+00 2.180399e+00 1.208722e+00 8.253912e-01 6.760859e-04 5.887269e-02 1.359974e-01 1.305493e-01 4.114277e-01 1.355968e-01 2.668113e-01 2.067504e-01 2.415014e-01 3.364004e-01 4.478621e-01 2.322843e-01 1.664242e-01 8.271947e-05
<GCONST> 6.315847e+01
<TRANSP> 5
 0.000000e+00 1.000000e+00 0.000000e+00 0.000000e+00 0.000000e+00
 0.000000e+00 9.459631e-01 5.403686e-02 0.000000e+00 0.000000e+00
 0.000000e+00 0.000000e+00 9.310300e-01 6.896996e-02 0.000000e+00
 0.000000e+00 0.000000e+00 0.000000e+00 9.523696e-01 4.763040e-02
 0.000000e+00 0.000000e+00 0.000000e+00 0.000000e+00 0.000000e+00
<ENDHMM>
