~o
<STREAMINFO> 1 39
<VECSIZE> 39<NULLD><MFCC_E_D_A><DIAGC>
~h "three"
<BEGINHMM>
<NUMSTATES> 5
<STATE> 2
<MEAN> 39
 -1.066863e+01 -4.480512e+00 -4.458027e+00 8.968660e-01 -7.309572e+00 -8.116706e+00 -7.002798e+00 -2.771816e+00 -1.949881e+00 -4.948242e+00 -1.115148e+00 -2.248577e+00 3.443354e-01 4.861265e-01 -4.419464e-01 4.055119e-01 1.614306e-01 -5.830675e-01 -4.578172e-01 -2.780506e-01 1.943764e-01 -8.125301e-02 1.211970e-01 5.379726e-02 -1.103048e-01 3.167870e-02 1.969483e-02 -4.229154e-02 9.464207e-02 -4.673955e-02 -2.154802e-02 4.907927e-03 2.613727e-02 -4.480449e-03 -1.146085e-02 7.518776e-04 -5.607082e-03 -1.024284e-02 -6.258870e-04
<VARIANCE> 39
 9.489512e+01 3.676594e+01 5.253706e+01 3.595088e+01 4.477872e+01 8.922128e+01 6.034856e+01 3.880848e+01 4.825598e+01 3.145156e+01 2.331971e+01 2.276805e+01 1.136527e-01 4.559967e+00 2.189180e+00 4.558004e+00 2.771419e+00 3.320825e+00 3.812839e+00 3.559152e+00 3.753269e+00 3.569992e+00 2.998919e+00 2.525273e+00 2.330591e+00 2.231064e-03 6.026781e-01 3.131531e-01 7.533209e-01 5.408387e-01 5.623728e-01 6.275074e-01 5.665618e-01 7.156267e-01 7.175480e-01 5.255478e-01 5.333530e-01 4.641412e-01 3.310779e-04
<GCONST> 1.079665e+02
<STATE> 3
<MEAN> 39
 -3.400877e+00 -9.111736e+00 1.718243e+01 -6.890912e+00 -1.657858e+01 -1.008935e+01 -9.678862e+00 -4.757916e+00 -3.725723e+00 -3.260411e+00 -2.894900e+00 -4.825601e-01 6.737537e-01 -2.571009e-01 5.617754e-01 3.751308e-01 -2.223695e-01 2.724038e-01 5.376829e-01 1.518953e-01 -4.158680e-01 1.352026e-01 -1.845565e-01 -1.663281e-01 1.523470e-01 -1.097812e-02 -8.239505e-03 2.639395e-02 -1.445864e-01 8.221848e-02 1.209334e-01 2.232445e-02 1.191308e-02 -1.399422e-02 1.307720e-02 1.343655e-03 1.133538e-02 -9.027979e-03 -1.257534e-03
<VARIANCE> 39
 1.117398e+01 6.800578e+01 4.960477e+01 1.126751e+02 4.487571e+01 6.539191e+01 4.174528e+01 6.101780e+01 7.184434e+01 4.601571e+01 7.522337e+01 4.347058e+01 1.198913e-02 3.856517e-01 7.790986e-01 2.159633e+00 2.323681e+00 1.748681e+00 1.807315e+00 1.925100e+00 2.211275e+00 2.124725e+00 2.235091e+00 1.828529e+00 1.677495e+00 1.549764e-04 5.202289e-02 9.605906e-02 1.770641e-01 2.217224e-01 2.529053e-01 2.668394e-01 3.162796e-01 3.049691e-01 3.134079e-01 3.672594e-01 2.720574e-01 2.769159e-01 2.569007e-05
<GCONST> 8.256662e+01
<STATE> 4
<MEAN> 39
 -8.812535e+00 -4.537098e+00 2.435682e+00 -2.141022e+00 -3.783471e+00 -2.138684e+00 -3.138457e+00 -7.710276e+00 -2.845721e+00 -5.756990e+00 -1.707279e+00 -2.295517e+00 1.826751e-01 -2.495543e-01 -1.700920e-01 -9.328499e-01 5.254971e-02 4.552986e-01 -5.431543e-02 1.541495e-01 1.966577e-01 -8.836734e-02 6.759293e-03 5.640829e-02 -1.079241e-01 -2.292101e-02 1.314946e-02 2.899255e-03 6.664126e-02 -4.913525e-02 -7.836570e-02 -4.554473e-02 -3.993151e-02 2.868869e-02 -1.467054e-02 -5.123067e-03 7.864017e-03 1.502026e-02 1.344830e-03
<VARIANCE> 39
 7.166740e+00 1.161755e+01 5.934577e+01 2.606466e+01 4.303946e+01 2.633996e+01 2.961683e+01 3.162014e+01 2.602209e+01 2.962830e+01 3.261331e+01 1.793895e+01 4.868247e-02 3.573100e-01 6.983897e-01 1.229916e+00 1.345253e+00 1.544964e+00 2.038871e+00 2.207069e+00 1.822530e+00 2.091286e+00 1.628434e+00 1.764421e+00 1.440045e+00 6.696450e-04 6.709269e-02 1.088653e-01 1.576079e-01 2.349414e-01 2.585520e-01 3.386652e-01 4.017459e-01 3.507389e-01 3.861840e-01 3.228243e-01 3.351991e-01 2.811159e-01 7.826035e-05
<GCONST> 7.730923e+01
<TRANSP> 5
 0.000000e+00 1.000000e+00 0.000000e+00 0.000000e+00 0.000000e+00
 0.000000e+00 9.588858e-01 4.111423e-02 0.000000e+00 0.000000e+00
 0.000000e+00 0.000000e+00 9.571372e-01 4.286288e-02 0.000000e+00
 0.000000e+00 0.000000e+00 0.000000e+00 9.486171e-01 5.138290e-02
 0.000000e+00 0.000000e+00 0.000000e+00 0.000000e+00 0.000000e+00
<ENDHMM>
