~o
<STREAMINFO> 1 39
<VECSIZE> 39<NULLD><MFCC_E_D_A><DIAGC>
~h "three"
<BEGINHMM>
<NUMSTATES> 5
<STATE> 2
<MEAN> 39
 -1.826337e+01 6.601175e+00 -6.485827e+00 -4.101291e+00 5.501319e+00 -9.104580e+00 5.743110e+00 1.423454e+00 -3.223681e+00 5.234229e+00 -1.315781e+00 1.760655e+00 2.908591e-01 -1.388941e-01 2.619746e-01 3.935643e-02 1.140932e-02 -3.226630e-01 -4.298656e-01 -4.488607e-01 -3.512659e-02 -2.313469e-01 1.024662e-01 1.214114e-01 -1.662845e-01 1.447421e-02 2.002207e-01 -5.117723e-02 7.245581e-02 1.216623e-01 -6.228188e-02 -5.221157e-02 -1.350280e-01 -1.284288e-01 -3.515892e-02 -3.999280e-02 -8.699260e-04 -6.732001e-02 3.964528e-03
<VARIANCE> 39
 4.454022e+01 3.541591e+01 2.204633e+01 1.756888e+01 2.741366e+01 2.547776e+01 2.985987e+01 3.041236e+01 3.064340e+01 2.131889e+01 1.327260e+01 1.541792e+01 9.809534e-03 3.686609e+00 2.115417e+00 1.945375e+00 1.903658e+00 3.117800e+00 2.590136e+00 2.072957e+00 2.984859e+00 2.003308e+00 1.901748e+00 1.316986e+00 1.623950e+00 1.041856e-03 2.315047e-01 1.653589e-01 1.753472e-01 3.919638e-01 4.086980e-01 4.762650e-01 2.851201e-01 4.388933e-01 3.714550e-01 3.238852e-01 2.491348e-01 3.063036e-01 1.988671e-04
<GCONST> 8.517591e+01
<STATE> 3
<MEAN> 39
 4.732473e+00 -4.531595e+00 6.851159e+00 1.612092e+00 -8.390596e+00 -1.397393e+01 -1.380969e+01 -9.325865e-01 -1.029565e+01 -5.820539e+00 6.301865e+00 -3.684164e+00 7.313576e-01 3.394227e-01 -3.017980e-01 9.270465e-01 -2.665065e-02 -3.216290e-01 -4.958436e-02 -4.115682e-01 5.350283e-01 -5.960270e-01 -5.535504e-01 4.469208e-01 -2.518089e-01 6.698406e-03 -2.310157e-01 7.484066e-02 -7.464591e-02 -1.627015e-01 1.147734e-01 1.157215e-01 1.561680e-01 1.158549e-01 4.556559e-02 5.433259e-02 -5.524220e-02 1.358158e-01 -5.655651e-03
<VARIANCE> 39
 1.539165e+01 3.015759e+01 1.084163e+02 1.938123e+01 5.464399e+01 1.992681e+01 2.800447e+01 6.337262e+01 2.629081e+01 3.124400e+01 4.522944e+01 4.206895e+01 4.303501e-03 2.803716e+00 1.608180e+00 3.195421e+00 3.269606e+00 3.189078e+00 3.405011e+00 3.027081e+00 2.843044e+00 1.742396e+00 1.550545e+00 1.729088e+00 3.719487e+00 1.354677e-03 1.477425e-01 1.840935e-01 4.070001e-01 4.784988e-01 6.079749e-01 6.003839e-01 5.409350e-01 5.269299e-01 3.666616e-01 3.020970e-01 2.596808e-01 7.148834e-01 1.435047e-04
<GCONST> 9.315958e+01
<STATE> 4
<MEAN> 39
 -2.423625e+00 -2.327897e+00 1.112648e+01 -3.246541e+00 -3.648928e+00 -5.651476e+00 -2.610165e+00 -5.595617e-01 -7.399498e+00 -3.828019e+00 1.949599e+00 7.160644e-01 3.610606e-01 -1.446232e-01 4.130029e-03 -8.423640e-01 8.839177e-02 6.323256e-01 4.274524e-01 7.329893e-01 -4.707870e-01 7.354744e-01 3.527923e-01 -5.129530e-01 4.602615e-01 -2.016884e-02 1.739821e-02 -4.227169e-02 4.164688e-03 2.887418e-02 -3.008450e-02 -2.807840e-03 -2.566423e-02 2.817097e-02 1.596635e-02 -1.228753e-02 3.787367e-02 -5.090848e-02 8.217373e-04
<VARIANCE> 39
 2.652414e+00 5.466015e+00 5.497245e+01 9.092113e+00 3.257030e+01 2.363937e+01 4.083513e+01 3.203647e+01 5.385893e+01 2.332802e+01 2.465638e+01 2.573144e+01 2.742986e-02 1.793179e-01 4.786769e-01 5.328532e-01 8.713723e-01 1.101920e+00 1.419286e+00 1.454285e+00 1.539135e+00 1.865684e+00 1.583723e+00 1.058244e+00 1.554721e+00 2.178545e-04 3.066959e-02 7.227663e-02 9.358238e-02 1.679494e-01 2.036883e-01 2.975523e-01 2.852942e-01 2.861400e-01 3.829361e-01 3.308881e-01 1.989740e-01 2.501561e-01 3.209547e-05
<GCONST> 6.457439e+01
<TRANSP> 5
 0.000000e+00 1.000000e+00 0.000000e+00 0.000000e+00 0.000000e+00
 0.000000e+00 9.599991e-01 4.000090e-02 0.000000e+00 0.000000e+00
 0.000000e+00 0.000000e+00 9.564928e-01 4.350715e-02 0.000000e+00
 0.000000e+00 0.000000e+00 0.000000e+00 9.604771e-01 3.952296e-02
 0.000000e+00 0.000000e+00 0.000000e+00 0.000000e+00 0.000000e+00
<ENDHMM>
