~o
<STREAMINFO> 1 39
<VECSIZE> 39<NULLD><MFCC_E_D_A><DIAGC>
~h "three"
<BEGINHMM>
<NUMSTATES> 5
<STATE> 2
<MEAN> 39
 -1.134438e+01 -4.830688e+00 -7.770955e-01 -1.092443e-01 -5.703546e+00 -8.929438e+00 -5.046378e+00 -1.939105e+00 -1.048755e+00 -3.380937e+00 -1.060260e+00 -1.855866e+00 4.449522e-01 5.221972e-01 -3.519660e-01 5.509576e-01 -5.042225e-02 -6.725746e-01 -5.472466e-01 -3.893693e-01 2.736451e-03 -3.678133e-01 -4.217545e-02 2.433292e-02 -1.095662e-01 2.897322e-02 -4.948857e-03 1.955002e-02 1.023559e-01 -6.843536e-02 -3.002224e-02 5.951222e-02 1.745917e-02 -4.057152e-02 -4.750675e-02 3.333268e-02 -1.942933e-03 -2.255498e-02 -9.940568e-04
<VARIANCE> 39
 1.381253e+02 5.450853e+01 6.636343e+01 5.203496e+01 7.929199e+01 1.065668e+02 9.155929e+01 5.179470e+01 5.362039e+01 4.047218e+01 3.743097e+01 3.067919e+01 9.626798e-02 5.056660e+00 2.300822e+00 4.020419e+00 3.218841e+00 3.841111e+00 4.497712e+00 4.668335e+00 4.035638e+00 3.491048e+00 2.955084e+00 2.715931e+00 2.260613e+00 1.985607e-03 6.401904e-01 3.997620e-01 6.026127e-01 5.737873e-01 6.589480e-01 7.696900e-01 7.808477e-01 7.513325e-01 6.283724e-01 5.459975e-01 5.350509e-01 4.392878e-01 3.134790e-04
<GCONST> 1.131488e+02
<STATE> 3
<MEAN> 39
 -5.836544e+00 -1.697835e+00 1.880517e+01 -1.163668e+01 -1.730265e+01 -8.950889e+00 -1.075581e+01 -8.327000e+00 -8.822432e+00 -1.618253e+00 -4.690417e+00 -3.944955e+00 7.164680e-01 -2.796097e-01 7.800765e-01 3.191062e-01 -4.020266e-01 2.431231e-01 6.564507e-01 -5.383594e-03 -4.595293e-01 1.429296e-01 6.107209e-02 -3.292438e-01 3.643871e-02 -1.035657e-02 4.395992e-02 -2.635678e-02 -1.628351e-01 1.378759e-01 1.116547e-01 -3.842758e-02 1.337716e-02 4.147636e-02 7.516250e-02 -5.343005e-02 -8.108662e-03 2.878958e-02 -1.365404e-03
<VARIANCE> 39
 2.460417e+01 6.876911e+01 5.393996e+01 1.113875e+02 6.119842e+01 7.210767e+01 5.771075e+01 7.522123e+01 6.762092e+01 6.929943e+01 8.743259e+01 4.734659e+01 1.243278e-02 4.251278e-01 7.638011e-01 1.515175e+00 1.751069e+00 1.518811e+00 1.759092e+00 1.867585e+00 1.963722e+00 1.820139e+00 1.865400e+00 1.644458e+00 1.436589e+00 1.445598e-04 4.563501e-02 9.915101e-02 1.640891e-01 1.959613e-01 2.515106e-01 2.629165e-01 3.099531e-01 3.107065e-01 2.977191e-01 3.031139e-01 2.832006e-01 2.343214e-01 1.853605e-05
<GCONST> 8.244115e+01
<STATE> 4
<MEAN> 39
 -9.296877e+00 -8.869609e-02 7.326790e+00 -4.069506e+00 -5.820595e+00 -2.687912e+00 -3.476610e+00 -6.916494e+00 -3.420295e+00 -3.352640e+00 -3.196724e+00 -2.013819e+00 2.510499e-01 -2.811055e-01 -3.853354e-01 -1.016875e+00 4.878526e-01 6.875074e-01 5.821661e-02 4.763803e-01 3.867156e-01 2.890981e-01 -2.836334e-02 2.912445e-01 1.128255e-01 -3.192551e-02 -6.945494e-03 -1.931195e-02 1.248376e-02 -4.512511e-02 -3.850035e-02 -4.226295e-02 -3.712464e-02 3.423967e-02 -1.465862e-02 6.229979e-03 1.921585e-02 -2.374907e-03 6.147388e-04
<VARIANCE> 39
 2.153323e+01 3.012076e+01 8.125412e+01 5.986667e+01 6.533450e+01 4.988234e+01 5.187034e+01 5.449730e+01 4.332623e+01 3.781012e+01 4.916483e+01 2.683053e+01 5.884986e-02 6.223996e-01 1.103935e+00 1.659217e+00 2.147803e+00 2.287520e+00 2.588341e+00 2.709009e+00 2.497518e+00 2.288080e+00 2.409825e+00 2.270071e+00 1.889219e+00 1.124233e-03 1.030424e-01 1.787612e-01 2.432940e-01 3.244022e-01 3.632675e-01 4.343798e-01 4.446845e-01 4.353500e-01 4.177219e-01 4.309623e-01 3.885731e-01 3.528450e-01 1.456876e-04
<GCONST> 9.283181e+01
<TRANSP> 5
 0.000000e+00 1.000000e+00 0.000000e+00 0.000000e+00 0.000000e+00
 0.000000e+00 9.608549e-01 3.914509e-02 0.000000e+00 0.000000e+00
 0.000000e+00 0.000000e+00 9.496568e-01 5.034324e-02 0.000000e+00
 0.000000e+00 0.000000e+00 0.000000e+00 9.380990e-01 6.190095e-02
 0.000000e+00 0.000000e+00 0.000000e+00 0.000000e+00 0.000000e+00
<ENDHMM>
