~o
<STREAMINFO> 1 39
<VECSIZE> 39<NULLD><MFCC_E_D_A><DIAGC>
~h "two"
<BEGINHMM>
<NUMSTATES> 5
<STATE> 2
<MEAN> 39
 -9.900867e+00 -2.262596e+00 3.139657e+00 -9.323291e-01 -9.659864e+00 -6.316537e+00 1.608304e+00 1.471220e+00 -5.636967e+00 -1.227050e+00 2.441438e+00 1.682029e+00 3.579770e-01 2.673219e-01 2.285750e-01 5.251304e-01 7.902584e-01 -1.278088e+00 -8.979269e-01 -7.745093e-01 2.106931e-01 -6.187649e-01 -8.698674e-01 7.289383e-01 3.396324e-02 3.450001e-02 6.266185e-02 -6.193078e-03 -9.459237e-03 2.906880e-02 7.910423e-03 -5.977869e-03 -9.823915e-02 6.732026e-03 4.502708e-02 -5.402905e-02 -2.327690e-02 2.675616e-02 1.099101e-03
<VARIANCE> 39
 4.124996e+01 1.073259e+01 2.145078e+01 6.350376e+01 1.197029e+02 4.606944e+01 3.773237e+01 1.878030e+01 3.677044e+01 5.748891e+01 3.461858e+01 1.230283e+01 4.115918e-02 4.417512e+00 1.345747e+00 1.315527e+00 4.282652e+00 3.472718e+00 1.864566e+00 5.173737e+00 1.587267e+00 1.986219e+00 6.779170e+00 2.389622e+00 1.377088e+00 1.650106e-03 4.586042e-01 3.050263e-01 2.590289e-01 6.448665e-01 5.480596e-01 3.777310e-01 9.448859e-01 3.151260e-01 3.677399e-01 1.080102e+00 5.193104e-01 2.809814e-01 3.544553e-04
<GCONST> 9.821901e+01
<STATE> 3
<MEAN> 39
 4.565801e+00 1.107307e+00 3.877605e+00 2.687953e+00 -1.078002e+01 -1.008842e+01 -1.098818e+01 -2.210911e+00 -1.239358e+01 -8.507510e+00 4.344681e+00 -9.745955e-01 6.917823e-01 1.511736e-01 1.572348e-01 -3.383662e-01 -7.477986e-01 5.248825e-01 5.023931e-01 2.910845e-01 -3.817360e-01 4.506233e-02 4.483706e-01 -4.488337e-01 5.406825e-02 -1.108967e-02 -7.818463e-02 -2.668947e-02 -1.514186e-02 2.427265e-02 5.275755e-02 4.454237e-02 1.010738e-01 -2.866512e-02 6.039470e-02 7.896676e-02 1.286929e-04 1.439883e-02 -2.630761e-03
<VARIANCE> 39
 4.638617e+00 7.071446e+00 1.621707e+01 9.022823e+01 2.437421e+01 4.505879e+01 3.236858e+01 2.671986e+01 3.218326e+01 3.991620e+01 3.233082e+01 2.823986e+01 8.022186e-03 3.027206e-01 3.794799e-01 6.862546e-01 1.332616e+00 9.877349e-01 1.334856e+00 1.718270e+00 1.075415e+00 2.550325e+00 1.518742e+00 1.996067e+00 1.180493e+00 2.031027e-04 4.923127e-02 8.543107e-02 1.040253e-01 1.624782e-01 1.508462e-01 2.306366e-01 2.467005e-01 1.880257e-01 2.846090e-01 2.442157e-01 3.124101e-01 1.751932e-01 4.146260e-05
<GCONST> 6.607315e+01
<STATE> 4
<MEAN> 39
 -1.728715e+00 -2.443662e+00 2.769201e+00 -2.950611e+00 -4.257177e-01 -3.564703e+00 -1.786288e-01 -6.645862e+00 -3.197259e+00 -2.277274e+00 -3.250648e+00 4.181453e+00 2.397114e-01 -4.174771e-01 -4.401695e-01 -5.193259e-02 2.180657e-01 4.460590e-01 6.745869e-02 1.846443e-01 6.732478e-02 5.620137e-01 2.726367e-01 -1.083622e-01 -6.348839e-02 -1.879788e-02 4.987484e-02 3.762009e-02 3.534312e-04 -6.446318e-02 -6.357581e-02 -1.766322e-03 -4.475914e-03 5.365753e-02 -9.863809e-02 -2.452597e-02 -1.463051e-02 -5.511366e-02 2.350020e-03
<VARIANCE> 39
 6.490302e+00 8.897758e+00 5.847394e+00 6.998684e+00 1.129185e+01 9.956885e+00 1.331326e+01 1.240580e+01 1.838166e+01 1.212084e+01 1.539433e+01 1.214809e+01 1.200917e-02 2.367328e-01 3.508651e-01 4.838855e-01 8.391229e-01 8.257357e-01 9.540157e-01 9.451513e-01 1.396671e+00 1.744259e+00 1.156669e+00 9.148026e-01 1.431382e+00 3.094848e-04 2.392954e-02 6.018604e-02 1.052710e-01 1.460550e-01 1.300352e-01 1.874049e-01 1.787690e-01 2.658802e-01 3.357390e-01 2.099958e-01 1.795610e-01 2.685575e-01 2.340251e-05
<GCONST> 5.120472e+01
<TRANSP> 5
 0.000000e+00 1.000000e+00 0.000000e+00 0.000000e+00 0.000000e+00
 0.000000e+00 9.483714e-01 5.162866e-02 0.000000e+00 0.000000e+00
 0.000000e+00 0.000000e+00 9.619191e-01 3.808091e-02 0.000000e+00
 0.000000e+00 0.000000e+00 0.000000e+00 9.459865e-01 5.401347e-02
 0.000000e+00 0.000000e+00 0.000000e+00 0.000000e+00 0.000000e+00
<ENDHMM>
