~o
<STREAMINFO> 1 39
<VECSIZE> 39<NULLD><MFCC_E_D_A><DIAGC>
~h "two"
<BEGINHMM>
<NUMSTATES> 5
<STATE> 2
<MEAN> 39
 -1.517966e+01 -1.820961e+00 6.314705e+00 -2.539467e+00 -3.962037e-02 -3.882723e+00 -7.537383e+00 -2.579568e-01 1.562904e+00 -7.961044e+00 -3.230567e+00 -9.916345e-01 5.113651e-01 2.024128e-01 -1.374115e-01 8.463092e-01 5.210020e-02 -6.516998e-01 -4.657395e-01 -5.256364e-01 6.837304e-01 -2.898883e-02 2.469277e-01 4.688420e-01 1.887810e-02 3.197245e-02 2.141850e-01 -2.578252e-02 1.317349e-01 7.498170e-02 -9.789382e-02 -8.984338e-02 -7.271133e-02 1.305954e-02 -3.974505e-02 1.092343e-01 2.328625e-03 -1.099620e-03 3.684945e-03
<VARIANCE> 39
 6.114537e+01 1.066530e+01 1.843043e+01 8.247381e+00 2.695599e+01 1.821150e+01 1.667916e+01 2.704512e+01 1.502330e+01 2.897197e+01 2.507315e+01 8.437985e+00 2.273404e-02 1.042245e+01 1.822311e+00 1.830733e+00 1.138984e+00 1.861141e+00 1.745712e+00 1.769382e+00 1.773811e+00 1.856326e+00 4.495538e+00 3.296218e+00 9.668522e-01 2.108981e-03 1.340269e+00 3.928418e-01 2.616219e-01 2.001486e-01 3.790681e-01 2.946596e-01 3.480494e-01 3.227433e-01 3.948993e-01 7.321500e-01 7.530028e-01 1.910932e-01 4.403965e-04
<GCONST> 8.737937e+01
<STATE> 3
<MEAN> 39
 -2.023291e+00 -2.505482e+00 1.676063e+01 2.710489e+00 -6.864031e+00 -1.200646e+01 -1.511697e+01 1.592506e+00 -1.986783e+00 -6.158471e-01 -1.072541e+00 -5.437896e-01 7.907662e-01 3.227977e-01 7.463660e-01 -5.770845e-01 3.195087e-01 5.540498e-01 3.237889e-02 -2.845896e-01 -1.124952e+00 -5.490667e-01 1.605578e-01 -5.265409e-01 1.678175e-02 -1.383918e-02 -2.973108e-01 1.742312e-01 -3.637814e-01 -1.781819e-01 3.547100e-01 2.764274e-01 1.969248e-01 -2.403590e-01 6.454090e-02 -2.274680e-01 -1.497088e-01 -8.654431e-04 -9.127200e-03
<VARIANCE> 39
 1.115825e+00 1.020137e+01 8.764641e+00 4.782894e+00 1.177850e+01 8.149468e+00 4.836194e+00 1.641206e+01 7.949260e+00 8.241020e+00 9.784789e+00 7.667102e+00 3.627560e-03 4.198726e-01 8.180466e-01 1.559714e+00 6.543900e-01 2.246410e+00 1.303156e+00 5.403739e-01 9.697511e-01 7.266577e-01 6.866487e-01 8.054001e-01 9.359202e-01 4.942294e-04 2.335633e-01 1.416631e-01 1.922340e-01 1.005202e-01 1.935340e-01 1.717737e-01 9.232640e-02 8.834603e-02 1.317478e-01 3.901669e-01 1.363265e-01 2.316499e-01 1.809311e-04
<GCONST> 4.984510e+01
<STATE> 4
<MEAN> 39
 -4.451334e+00 8.775257e-01 5.396050e+00 -6.288655e-01 4.470401e+00 -4.455185e+00 -7.766762e+00 -8.614470e+00 -2.618349e+00 -4.740426e+00 -7.863066e+00 -5.575475e-01 4.709958e-01 -2.889515e-01 -2.641189e-01 -4.538744e-01 -2.169361e-01 3.625731e-01 4.324206e-01 6.658731e-01 -8.602256e-02 1.785331e-01 -3.864847e-01 -1.433635e-01 -8.446950e-03 -1.759369e-02 -1.722324e-02 -7.868443e-02 7.602433e-02 7.561132e-02 -1.123583e-01 -5.602127e-02 -6.072194e-03 7.837758e-02 -1.459700e-02 -1.589079e-02 5.225697e-02 -1.905653e-02 1.356117e-03
<VARIANCE> 39
 4.860283e+00 9.061318e+00 1.293584e+01 5.642627e+00 7.410947e+00 1.454848e+01 2.436827e+01 1.231340e+01 1.753513e+01 1.395867e+01 1.633335e+01 1.151599e+01 1.499664e-02 2.046357e-01 5.737807e-01 6.930536e-01 6.640149e-01 8.221232e-01 9.631029e-01 1.281570e+00 1.494680e+00 1.559901e+00 1.836462e+00 1.858641e+00 1.623209e+00 3.367523e-04 3.871349e-02 9.245118e-02 1.212219e-01 1.334883e-01 1.179924e-01 1.783916e-01 2.575198e-01 2.444898e-01 2.641917e-01 3.612486e-01 3.530087e-01 3.368448e-01 4.591039e-05
<GCONST> 5.748322e+01
<TRANSP> 5
 0.000000e+00 1.000000e+00 0.000000e+00 0.000000e+00 0.000000e+00
 0.000000e+00 9.354836e-01 6.451643e-02 0.000000e+00 0.000000e+00
 0.000000e+00 0.000000e+00 8.946638e-01 1.053362e-01 0.000000e+00
 0.000000e+00 0.000000e+00 0.000000e+00 9.459647e-01 5.403534e-02
 0.000000e+00 0.000000e+00 0.000000e+00 0.000000e+00 0.000000e+00
<ENDHMM>
