~o
<STREAMINFO> 1 39
<VECSIZE> 39<NULLD><MFCC_E_D_A><DIAGC>
~h "two"
<BEGINHMM>
<NUMSTATES> 5
<STATE> 2
<MEAN> 39
 -1.869225e+01 -3.135066e+00 1.421921e+00 -5.722141e+00 -8.067259e+00 -5.605153e+00 -4.439411e+00 -2.846909e+00 -2.834004e+00 -3.062940e+00 -3.914216e-01 -1.087128e+00 3.963085e-01 3.258528e-01 -7.938969e-02 7.473489e-01 1.460212e-01 -8.855092e-01 -3.671188e-01 -5.474445e-01 -3.767454e-02 -9.210452e-02 1.145898e-01 -1.939159e-01 2.728816e-02 3.877997e-02 1.336181e-01 -9.591001e-02 5.444309e-03 2.118706e-03 5.089608e-03 2.402816e-02 -2.795453e-02 -3.779453e-02 -3.957698e-02 -2.532212e-02 -1.471138e-02 -1.340317e-02 -3.230856e-03
<VARIANCE> 39
 8.779416e+01 3.418279e+01 5.633855e+01 5.976958e+01 9.387508e+01 3.895319e+01 4.048930e+01 4.281780e+01 3.339155e+01 4.364436e+01 2.707501e+01 2.273539e+01 1.118916e-01 8.733484e+00 3.302224e+00 2.834467e+00 3.452924e+00 3.316743e+00 3.319314e+00 4.175025e+00 3.304142e+00 3.205630e+00 3.088026e+00 2.262043e+00 1.629055e+00 4.579103e-03 1.014668e+00 5.865943e-01 4.706417e-01 5.265933e-01 5.712191e-01 6.904873e-01 7.110969e-01 5.979037e-01 5.516487e-01 5.118840e-01 4.454665e-01 3.254430e-01 8.427352e-04
<GCONST> 1.098871e+02
<STATE> 3
<MEAN> 39
 -2.794361e+00 -7.077148e+00 9.467232e+00 -8.946074e-01 -1.694637e+01 -1.085483e+01 -1.269875e+01 -5.007237e+00 -7.579000e+00 -5.204825e-01 -3.838272e+00 -3.133994e+00 7.222678e-01 3.638845e-01 1.521675e-01 -3.605771e-01 1.210453e-01 5.632861e-01 -2.548455e-03 2.419587e-01 -1.179027e-01 3.785329e-02 1.256401e-01 1.654388e-01 -9.476657e-02 -8.970971e-03 -5.196602e-02 8.818232e-02 -2.199486e-02 8.869647e-03 5.508928e-02 -1.977442e-02 1.189754e-01 -3.524698e-03 4.729025e-03 -7.051317e-02 -1.017708e-02 3.068449e-02 -1.459560e-03
<VARIANCE> 39
 9.136795e+00 4.685196e+01 3.416456e+01 7.807695e+01 1.409062e+02 5.289497e+01 5.830870e+01 6.519677e+01 6.705986e+01 6.368027e+01 4.771679e+01 2.960171e+01 5.884115e-03 1.841327e-01 5.434704e-01 6.784311e-01 1.241971e+00 1.526349e+00 1.628214e+00 1.707785e+00 1.568352e+00 1.621259e+00 1.955941e+00 9.558881e-01 9.227306e-01 9.850742e-05 3.361930e-02 7.471796e-02 9.684910e-02 1.335743e-01 2.532406e-01 1.767268e-01 2.332386e-01 2.191304e-01 2.365198e-01 2.664002e-01 1.769336e-01 1.455655e-01 2.405506e-05
<GCONST> 7.101413e+01
<STATE> 4
<MEAN> 39
 -6.427545e+00 -4.053619e+00 8.931363e-01 3.579328e-01 -3.545667e+00 -8.323904e+00 -4.222123e+00 -3.955932e+00 -4.411165e+00 -6.950377e+00 -9.076787e-01 -1.104002e+00 2.743137e-01 -4.710482e-01 -5.939274e-02 -3.563964e-01 -1.623462e-01 2.919911e-01 3.053077e-01 2.883065e-01 1.383107e-01 1.638202e-02 -2.562115e-01 -1.412345e-02 3.442982e-02 -2.441102e-02 1.801826e-03 -3.391584e-02 2.354801e-03 7.532432e-03 -3.994389e-02 4.055196e-04 -6.817453e-02 -4.402291e-04 7.827784e-03 4.627232e-02 1.970852e-03 -1.962207e-02 6.746906e-04
<VARIANCE> 39
 2.706999e+01 2.472408e+01 2.437103e+01 3.389124e+01 3.612188e+01 8.299274e+01 2.529137e+01 2.567690e+01 2.031885e+01 2.634277e+01 2.422924e+01 2.253795e+01 6.714560e-02 3.827522e-01 7.893602e-01 1.056415e+00 1.468711e+00 2.061624e+00 2.017684e+00 1.632823e+00 1.653001e+00 1.650765e+00 1.822652e+00 1.536016e+00 1.457835e+00 6.400638e-04 5.890737e-02 1.196815e-01 1.882680e-01 2.462984e-01 3.416010e-01 3.440596e-01 2.760890e-01 2.984315e-01 2.996670e-01 3.124294e-01 3.086301e-01 2.925415e-01 8.878118e-05
<GCONST> 7.871506e+01
<TRANSP> 5
 0.000000e+00 1.000000e+00 0.000000e+00 0.000000e+00 0.000000e+00
 0.000000e+00 9.478728e-01 5.212727e-02 0.000000e+00 0.000000e+00
 0.000000e+00 0.000000e+00 9.467213e-01 5.327868e-02 0.000000e+00
 0.000000e+00 0.000000e+00 0.000000e+00 9.553365e-01 4.466358e-02
 0.000000e+00 0.000000e+00 0.000000e+00 0.000000e+00 0.000000e+00
<ENDHMM>
