~o
<STREAMINFO> 1 39
<VECSIZE> 39<NULLD><MFCC_E_D_A><DIAGC>
~h "two"
<BEGINHMM>
<NUMSTATES> 5
<STATE> 2
<MEAN> 39
 -1.852883e+01 -1.834543e+00 2.950376e+00 -5.983474e+00 -6.138618e+00 -6.643696e+00 -1.680599e+00 -1.694844e+00 -3.061646e+00 -1.317947e+00 1.337610e-01 -1.773269e+00 5.042004e-01 5.925130e-01 -6.188939e-02 7.622467e-01 -3.294230e-02 -1.020698e+00 -7.058817e-01 -5.680603e-01 -1.770463e-01 -5.105178e-01 -7.071594e-02 -9.941254e-02 -1.153861e-01 3.946618e-02 1.364577e-01 -6.578513e-02 8.070542e-03 5.618671e-02 -7.195160e-03 7.650272e-03 -3.433650e-02 3.123045e-03 -1.501192e-02 -1.034830e-02 -9.152325e-03 3.295170e-03 -3.660745e-03
<VARIANCE> 39
 1.047890e+02 4.791346e+01 7.196027e+01 5.896108e+01 9.351574e+01 6.439371e+01 6.407588e+01 5.114641e+01 5.128936e+01 4.014576e+01 3.581322e+01 2.710636e+01 8.736588e-02 7.840463e+00 3.795491e+00 2.914406e+00 3.921994e+00 3.724861e+00 3.757474e+00 4.662112e+00 3.641068e+00 3.160790e+00 3.066593e+00 2.818825e+00 2.091469e+00 4.911390e-03 9.758853e-01 6.957103e-01 4.998974e-01 6.563088e-01 6.520231e-01 6.535240e-01 8.020325e-01 6.523501e-01 5.546957e-01 5.435435e-01 5.147993e-01 3.904253e-01 9.283677e-04
<GCONST> 1.146610e+02
<STATE> 3
<MEAN> 39
 -1.850708e+00 -3.357564e+00 8.391147e+00 -4.040783e+00 -1.339174e+01 -1.461944e+01 -1.240899e+01 -5.596793e+00 -9.299708e+00 -2.290907e+00 -2.867008e+00 -3.956403e+00 7.371963e-01 2.814879e-01 2.564446e-01 -3.800349e-01 9.907238e-02 4.888720e-01 1.761367e-01 -6.672090e-02 -1.379902e-01 7.047399e-02 -1.186649e-02 -1.618736e-02 -2.422777e-02 -9.062604e-03 -4.029210e-02 6.917327e-02 -3.157576e-02 2.153776e-02 5.867294e-02 4.462300e-02 7.317436e-02 -2.409166e-02 2.240499e-02 -1.870704e-02 -7.109385e-03 -2.803058e-03 -1.741425e-03
<VARIANCE> 39
 2.818651e+01 4.994954e+01 7.033333e+01 9.053327e+01 8.909136e+01 8.820991e+01 8.141761e+01 7.303983e+01 8.146505e+01 7.281233e+01 7.002089e+01 4.043158e+01 1.268833e-02 2.336192e-01 6.148319e-01 8.071209e-01 8.925555e-01 1.138138e+00 1.386575e+00 1.635747e+00 1.619879e+00 1.520899e+00 1.501799e+00 1.392460e+00 1.188245e+00 1.219188e-04 3.447260e-02 8.068085e-02 1.045612e-01 1.342195e-01 1.851649e-01 2.023120e-01 2.363168e-01 2.378302e-01 2.283352e-01 2.375394e-01 2.231963e-01 1.983766e-01 2.072959e-05
<GCONST> 7.596508e+01
<STATE> 4
<MEAN> 39
 -5.445314e+00 -2.514592e-01 5.835884e-01 -7.983753e-01 -2.375798e+00 -6.181472e+00 -5.029273e+00 -5.580475e+00 -4.167134e+00 -3.578636e+00 -1.320582e+00 -2.236109e+00 2.889171e-01 -5.942568e-01 -1.631706e-01 -2.849977e-01 7.475543e-02 4.175857e-01 4.190262e-01 5.402400e-01 2.229600e-01 3.271021e-01 2.365398e-03 6.170227e-02 1.357627e-01 -3.082112e-02 -1.938849e-02 -4.857334e-02 1.288049e-02 -1.993441e-02 -4.035694e-02 -2.829980e-02 -2.827067e-02 2.879677e-02 3.042687e-03 1.167367e-02 7.311406e-03 3.422880e-03 2.662937e-04
<VARIANCE> 39
 3.841525e+01 2.853151e+01 4.147605e+01 4.314220e+01 5.194429e+01 6.316246e+01 5.823280e+01 5.159452e+01 4.980114e+01 4.067250e+01 4.404270e+01 2.984069e+01 6.507332e-02 7.112404e-01 1.204462e+00 1.352864e+00 1.716282e+00 2.138511e+00 2.416977e+00 2.669794e+00 2.339026e+00 2.389803e+00 2.355305e+00 2.074155e+00 1.910971e+00 1.003102e-03 1.024746e-01 1.747026e-01 2.117795e-01 2.839811e-01 3.347555e-01 3.829497e-01 4.359476e-01 4.124975e-01 4.174762e-01 4.136332e-01 3.700429e-01 3.483823e-01 1.270176e-04
<GCONST> 9.131492e+01
<TRANSP> 5
 0.000000e+00 1.000000e+00 0.000000e+00 0.000000e+00 0.000000e+00
 0.000000e+00 9.410951e-01 5.890497e-02 0.000000e+00 0.000000e+00
 0.000000e+00 0.000000e+00 9.505189e-01 4.948109e-02 0.000000e+00
 0.000000e+00 0.000000e+00 0.000000e+00 9.415709e-01 5.842907e-02
 0.000000e+00 0.000000e+00 0.000000e+00 0.000000e+00 0.000000e+00
<ENDHMM>
