~o
<STREAMINFO> 1 39
<VECSIZE> 39<NULLD><MFCC_E_D_A><DIAGC>
~h "zero"
<BEGINHMM>
<NUMSTATES> 5
<STATE> 2
<MEAN> 39
 -6.431248e+00 5.867589e+00 1.644789e-01 6.905765e-01 -4.896604e+00 -9.959549e+00 -6.863041e-01 -5.659503e+00 -1.207848e+00 -2.924379e+00 -2.821076e-01 -1.835882e+00 4.748661e-01 2.202612e-01 -9.545802e-03 4.036210e-01 -1.342109e-01 -8.896589e-01 -5.351015e-01 -7.198237e-01 9.026776e-02 -1.479687e-01 -1.991549e-01 6.569684e-01 -4.851490e-01 2.876840e-02 6.848095e-02 -1.322607e-01 2.799989e-02 -1.304774e-02 -1.604764e-02 5.066764e-02 -3.405164e-02 1.545493e-02 1.363797e-02 2.717217e-02 2.158190e-02 -5.057326e-02 -5.652332e-04
<VARIANCE> 39
 1.572945e+01 4.267879e+01 3.720177e+01 1.280907e+01 6.184973e+01 3.881369e+01 6.413101e+01 3.358675e+01 1.450295e+01 1.889848e+01 3.805305e+01 2.223671e+01 5.660564e-02 1.051429e+00 3.431804e+00 1.655903e+00 9.523570e-01 1.920724e+00 2.067888e+00 2.080959e+00 2.663185e+00 1.588976e+00 1.717398e+00 1.645444e+00 9.321271e-01 7.642099e-04 1.473306e-01 2.632138e-01 2.116072e-01 1.414600e-01 2.870548e-01 3.690519e-01 3.122547e-01 4.193508e-01 2.960693e-01 3.388156e-01 2.418026e-01 1.958271e-01 1.220733e-04
<GCONST> 8.298230e+01
<STATE> 3
<MEAN> 39
 6.060198e+00 -3.029205e+00 -5.134114e+00 -8.632792e+00 -1.112178e+01 -6.599218e+00 -1.096138e+01 -2.263594e+00 -8.568785e+00 3.688956e+00 1.629947e+01 -3.303759e+00 7.853858e-01 1.613755e-01 2.592369e-01 -4.032554e-01 -2.477974e-01 3.363208e-01 3.318365e-01 2.774922e-01 -2.082964e-01 -2.427527e-01 3.547556e-01 -3.185030e-02 3.425424e-01 -7.993245e-03 -5.475645e-02 6.967199e-02 2.594582e-03 3.137512e-02 5.310166e-02 -3.538469e-02 3.907246e-02 2.524100e-02 6.837867e-02 -2.319535e-02 -6.008234e-02 7.057714e-02 -1.009400e-03
<VARIANCE> 39
 5.247661e+00 2.031761e+01 6.190028e+01 5.176207e+01 1.965513e+01 2.642439e+01 3.167675e+01 2.762902e+01 3.334574e+01 1.084190e+02 2.869147e+01 5.379272e+01 5.775568e-03 5.506994e-01 1.243645e+00 2.323448e+00 1.389010e+00 1.464108e+00 1.913236e+00 1.711219e+00 1.990341e+00 2.479768e+00 4.349507e+00 2.117609e+00 4.185854e+00 2.943017e-04 5.894901e-02 1.536937e-01 2.465649e-01 1.736505e-01 2.965295e-01 2.939251e-01 2.905136e-01 3.353172e-01 4.418172e-01 5.237874e-01 3.422581e-01 4.512640e-01 3.702550e-05
<GCONST> 8.114543e+01
<STATE> 4
<MEAN> 39
 9.976780e-02 -1.178570e+00 -6.467215e-01 -6.741711e+00 -2.685030e+00 -4.351585e+00 -8.187979e-01 -4.208107e+00 1.580633e-01 5.077965e+00 4.009409e+00 5.787468e+00 2.990205e-01 -5.135702e-01 -4.663547e-01 2.204529e-01 6.021753e-01 5.627518e-01 -1.044774e-01 4.319659e-01 1.557851e-01 6.212221e-01 -2.675142e-01 -7.221723e-01 4.038295e-02 -2.508264e-02 1.242341e-02 -2.656371e-02 -3.499310e-02 -5.373546e-02 -4.696035e-02 2.373908e-02 -1.912382e-02 -1.313539e-03 -1.231495e-01 3.714529e-03 1.732730e-02 -8.497240e-02 1.494473e-03
<VARIANCE> 39
 9.090881e+00 9.906919e+00 5.601319e+00 1.414501e+01 1.441429e+01 1.436385e+01 1.691239e+01 1.584017e+01 1.519941e+01 1.676512e+01 2.956981e+01 1.275834e+01 2.178137e-02 1.402671e-01 3.128715e-01 5.058143e-01 8.954885e-01 9.574034e-01 1.810091e+00 1.092079e+00 1.410921e+00 2.047921e+00 1.185315e+00 1.561197e+00 1.709495e+00 3.075671e-04 2.207464e-02 6.284606e-02 1.044020e-01 1.636333e-01 2.026254e-01 3.667374e-01 2.218150e-01 2.400136e-01 2.757639e-01 2.171201e-01 3.365216e-01 3.244252e-01 3.018148e-05
<GCONST> 5.834501e+01
<TRANSP> 5
 0.000000e+00 1.000000e+00 0.000000e+00 0.000000e+00 0.000000e+00
 0.000000e+00 9.599094e-01 4.009056e-02 0.000000e+00 0.000000e+00
 0.000000e+00 0.000000e+00 9.702914e-01 2.970868e-02 0.000000e+00
 0.000000e+00 0.000000e+00 0.000000e+00 9.400558e-01 5.994419e-02
 0.000000e+00 0.000000e+00 0.000000e+00 0.000000e+00 0.000000e+00
<ENDHMM>
