~o
<STREAMINFO> 1 39
<VECSIZE> 39<NULLD><MFCC_E_D_A><DIAGC>
~h "zero"
<BEGINHMM>
<NUMSTATES> 5
<STATE> 2
<MEAN> 39
 -1.656433e+01 3.055501e+00 -4.798040e+00 8.509983e-01 -6.315310e+00 -8.073063e+00 -3.056253e+00 -7.140143e+00 -2.233812e+00 -4.787957e+00 -1.486352e+00 -2.028617e+00 4.313914e-01 2.265573e-01 -2.191843e-01 6.217896e-01 -1.260897e-01 -6.014925e-01 -3.180687e-01 -2.850296e-01 1.657001e-01 -5.222650e-02 1.621298e-01 -7.721943e-02 -4.148177e-02 3.219834e-02 6.229550e-02 -1.295744e-01 9.593680e-03 -2.986767e-02 -1.615383e-02 2.658663e-02 -1.703579e-03 9.377222e-02 1.523413e-02 1.524176e-03 7.774497e-03 -6.789686e-03 -9.867204e-04
<VARIANCE> 39
 6.823367e+01 6.558443e+01 1.552563e+02 9.122253e+01 8.706776e+01 4.548333e+01 6.524271e+01 4.645870e+01 4.175758e+01 4.424586e+01 3.379534e+01 2.220983e+01 9.427862e-02 3.768398e+00 4.302027e+00 6.204404e+00 5.190324e+00 5.084414e+00 3.153336e+00 3.803376e+00 3.873101e+00 2.467929e+00 3.207673e+00 2.381090e+00 1.814226e+00 1.559841e-03 4.432092e-01 4.328999e-01 7.241890e-01 6.844369e-01 8.759647e-01 6.165671e-01 6.117193e-01 6.195575e-01 4.504716e-01 5.360802e-01 4.059829e-01 3.728982e-01 2.320984e-04
<GCONST> 1.108986e+02
<STATE> 3
<MEAN> 39
 1.508105e+00 -1.479918e+01 -1.776201e+00 -1.471384e+00 -1.411748e+01 -1.198046e+01 -5.322595e+00 3.311535e+00 -2.632715e+00 -7.112383e-01 -3.701738e+00 -6.416484e+00 7.733425e-01 2.860225e-01 -6.392497e-03 -5.086700e-01 1.192909e-01 2.632549e-01 2.018232e-01 2.801320e-01 -1.515103e-01 7.350152e-02 2.672759e-01 1.174764e-01 -1.982601e-01 -6.431379e-03 -4.890254e-02 1.060121e-01 1.959531e-03 -1.629209e-03 7.960989e-02 3.579315e-02 2.382819e-02 -8.709213e-02 -3.779665e-02 -1.912696e-02 1.568213e-02 1.353246e-02 -1.444983e-03
<VARIANCE> 39
 1.445416e+01 3.737745e+01 7.787009e+01 5.610216e+01 8.826144e+01 8.176405e+01 7.662830e+01 4.830021e+01 8.208598e+01 7.522164e+01 7.599160e+01 4.817216e+01 7.613156e-03 4.348424e-01 1.012166e+00 1.641295e+00 1.473730e+00 1.864086e+00 1.723501e+00 1.902838e+00 2.194991e+00 1.404570e+00 1.587499e+00 1.595732e+00 1.360806e+00 1.771029e-04 3.244671e-02 8.740509e-02 1.336760e-01 1.654164e-01 2.440278e-01 2.165341e-01 3.014719e-01 2.918452e-01 2.251183e-01 2.376277e-01 2.356641e-01 1.997517e-01 2.341654e-05
<GCONST> 7.941118e+01
<STATE> 4
<MEAN> 39
 -5.169101e+00 -5.220649e+00 -4.582991e+00 -5.286565e+00 -3.010829e+00 -1.762198e+00 -1.375520e+00 -5.113699e+00 -3.164754e+00 -1.925907e+00 1.050429e+00 -3.615766e+00 2.815692e-01 -5.572053e-01 1.750022e-01 -7.953762e-03 -1.863858e-02 3.027728e-01 1.177281e-01 -8.243083e-02 5.452131e-02 -7.348812e-02 -4.853162e-01 -6.297858e-02 2.804440e-01 -2.519075e-02 6.420416e-03 -4.634383e-02 1.277525e-02 1.449149e-02 -6.539850e-02 -5.802966e-02 -2.539385e-02 2.590190e-02 8.063319e-03 2.327932e-02 -3.319227e-02 -7.658836e-03 9.170292e-04
<VARIANCE> 39
 3.248906e+01 1.954499e+01 2.896254e+01 5.654087e+01 4.718888e+01 3.573882e+01 2.956529e+01 2.304264e+01 2.801474e+01 6.487022e+01 3.083351e+01 2.412411e+01 7.254695e-02 5.919600e-01 8.402579e-01 1.156396e+00 1.470531e+00 2.474402e+00 1.917080e+00 1.862479e+00 2.037415e+00 1.942779e+00 2.229882e+00 1.577426e+00 1.195719e+00 8.413693e-04 9.245993e-02 1.148544e-01 1.697705e-01 2.497880e-01 3.138833e-01 2.742688e-01 3.142457e-01 3.847878e-01 3.764146e-01 3.906009e-01 3.053859e-01 2.199825e-01 1.120474e-04
<GCONST> 8.273798e+01
<TRANSP> 5
 0.000000e+00 1.000000e+00 0.000000e+00 0.000000e+00 0.000000e+00
 0.000000e+00 9.593319e-01 4.066806e-02 0.000000e+00 0.000000e+00
 0.000000e+00 0.000000e+00 9.638963e-01 3.610368e-02 0.000000e+00
 0.000000e+00 0.000000e+00 0.000000e+00 9.559158e-01 4.408419e-02
 0.000000e+00 0.000000e+00 0.000000e+00 0.000000e+00 0.000000e+00
<ENDHMM>
