~o
<STREAMINFO> 1 39
<VECSIZE> 39<NULLD><MFCC_E_D_A><DIAGC>
~h "zero"
<BEGINHMM>
<NUMSTATES> 5
<STATE> 2
<MEAN> 39
 -1.040025e+01 4.615126e+00 6.643413e+00 -3.075765e-01 5.662989e+00 -6.962174e+00 -6.986548e+00 -3.749430e+00 -3.125016e+00 -4.468008e+00 -6.798493e+00 -4.311205e-01 5.439886e-01 1.189889e-01 -5.932167e-02 5.111023e-01 6.627876e-02 -2.519802e-01 -5.099683e-01 -1.970547e-01 3.192789e-01 -1.443746e-01 2.796387e-01 1.371827e-01 2.230293e-02 1.992871e-02 1.037013e-01 -8.935468e-02 3.733801e-02 5.079399e-02 -1.622006e-02 2.713435e-02 3.156795e-02 -5.919095e-03 1.443656e-02 4.906407e-02 -3.705857e-02 -6.255839e-03 1.842269e-03
<VARIANCE> 39
 4.605236e+01 3.961096e+01 1.763342e+01 3.577079e+00 1.686300e+01 2.698795e+01 8.709826e+00 3.670219e+01 1.267266e+01 1.931429e+01 1.720705e+01 8.774494e+00 2.163247e-02 6.035880e+00 4.468002e+00 1.476080e+00 3.625762e-01 2.143886e+00 3.150803e+00 9.530882e-01 2.103962e+00 1.112190e+00 1.536196e+00 1.096384e+00 1.216258e+00 9.193654e-04 8.718212e-01 5.197843e-01 2.534120e-01 7.618231e-02 2.972474e-01 5.755684e-01 1.725708e-01 2.859271e-01 1.800164e-01 2.441776e-01 1.813224e-01 2.742328e-01 2.315453e-04
<GCONST> 7.699933e+01
<STATE> 3
<MEAN> 39
 1.490781e+00 -1.049059e+01 7.078896e+00 2.470768e+00 -4.589858e+00 -1.675999e+01 -6.211131e+00 7.660459e+00 1.055870e-03 8.461198e+00 -1.166982e+00 -6.102705e+00 7.980433e-01 3.884480e-01 -4.501972e-01 -1.118974e+00 -8.165318e-02 -9.344207e-02 3.769024e-01 5.304199e-01 3.322792e-02 3.050850e-01 5.373228e-01 -7.756338e-02 -8.717477e-01 -8.874514e-03 -1.410498e-01 1.677363e-01 -9.613918e-03 -1.125984e-01 1.254404e-01 1.507435e-01 -6.216736e-02 -6.372236e-02 -2.846802e-02 -9.775197e-02 -7.178949e-02 -5.771000e-02 -1.957104e-03
<VARIANCE> 39
 6.736928e+00 1.600738e+01 7.736816e+01 1.914342e+01 5.534392e+00 5.420118e+00 1.039761e+01 2.723018e+01 8.944013e+00 1.934441e+01 7.883371e+00 3.168108e+01 3.580133e-03 2.537439e-01 1.479165e+00 1.757735e+00 2.919629e+00 1.261634e+00 1.625305e+00 1.101974e+00 3.431656e+00 9.580311e-01 1.904927e+00 1.346078e+00 2.612043e+00 1.069681e-04 9.247152e-02 2.297412e-01 2.602162e-01 4.286394e-01 2.911171e-01 2.110874e-01 3.170445e-01 4.841914e-01 2.137382e-01 4.416723e-01 1.982078e-01 5.977647e-01 3.166162e-05
<GCONST> 6.760448e+01
<STATE> 4
<MEAN> 39
 -1.962035e+00 -2.350753e+00 3.400792e-01 -3.632939e+00 2.410537e+00 -2.930536e+00 -4.201220e+00 -4.138821e+00 -2.158362e+00 1.259527e+00 -3.710968e+00 -3.571508e+00 5.061780e-01 -4.269185e-01 3.494027e-01 2.503943e-01 5.550159e-02 3.952263e-01 3.417665e-01 -2.189110e-01 -5.427217e-01 -3.270643e-01 -9.139373e-01 -8.744575e-02 7.741408e-01 -1.548928e-02 3.796379e-03 -9.600705e-03 9.614006e-03 9.946056e-02 -4.004202e-02 -9.774411e-02 2.552770e-02 1.361385e-02 2.931567e-02 -3.012569e-02 -5.216403e-03 -1.316747e-02 6.030464e-04
<VARIANCE> 39
 1.137374e+01 1.605047e+01 4.337671e+00 6.857401e+00 1.323182e+01 1.723805e+01 1.921504e+01 2.159476e+01 2.002154e+01 6.951835e+01 1.966508e+01 5.374042e+01 9.989417e-03 1.561411e-01 1.060764e+00 2.323261e-01 6.807033e-01 6.677817e-01 1.529102e+00 2.495530e+00 1.992061e+00 1.353542e+00 2.795168e+00 2.686475e+00 3.245148e+00 8.181856e-05 3.276111e-02 9.728737e-02 5.104407e-02 8.506566e-02 1.156339e-01 2.976027e-01 3.665313e-01 3.653264e-01 2.600996e-01 5.024424e-01 5.496209e-01 5.863383e-01 2.041644e-05
<GCONST> 6.286285e+01
<TRANSP> 5
 0.000000e+00 1.000000e+00 0.000000e+00 0.000000e+00 0.000000e+00
 0.000000e+00 9.583440e-01 4.165599e-02 0.000000e+00 0.000000e+00
 0.000000e+00 0.000000e+00 9.444270e-01 5.557303e-02 0.000000e+00
 0.000000e+00 0.000000e+00 0.000000e+00 9.545444e-01 4.545557e-02
 0.000000e+00 0.000000e+00 0.000000e+00 0.000000e+00 0.000000e+00
<ENDHMM>
