~o
<STREAMINFO> 1 39
<VECSIZE> 39<NULLD><MFCC_E_D_A><DIAGC>
~h "zero"
<BEGINHMM>
<NUMSTATES> 5
<STATE> 2
<MEAN> 39
 -1.633800e+01 7.112562e+00 9.660338e-01 5.473518e-01 -5.379855e+00 -9.348084e+00 -2.722538e+00 -5.597214e+00 -3.814726e+00 -4.998541e+00 -2.352378e+00 -2.648414e+00 4.897399e-01 3.081456e-01 -2.003458e-01 6.047571e-01 -2.857873e-01 -8.037853e-01 -4.630142e-01 -3.483220e-01 -1.251520e-01 -2.601111e-01 4.324123e-02 -1.598581e-03 -5.052961e-02 3.420086e-02 6.863542e-02 -1.486569e-01 1.419344e-02 -5.572881e-02 3.918035e-03 5.370791e-02 -1.536902e-02 5.734886e-02 1.032523e-02 3.280299e-02 9.136534e-03 -4.956322e-03 -1.758988e-03
<VARIANCE> 39
 7.512140e+01 9.787797e+01 9.919241e+01 6.692384e+01 1.139392e+02 7.166811e+01 6.221759e+01 5.484264e+01 4.726110e+01 4.188958e+01 3.711546e+01 3.008427e+01 7.917914e-02 4.669206e+00 5.821281e+00 3.955000e+00 3.773553e+00 5.034126e+00 4.341812e+00 3.759864e+00 3.250581e+00 3.020811e+00 2.995796e+00 2.430419e+00 2.024609e+00 2.025065e-03 5.810217e-01 5.737453e-01 5.479981e-01 5.022786e-01 8.229560e-01 7.917291e-01 6.691920e-01 5.977457e-01 5.547549e-01 5.193062e-01 4.383821e-01 3.775253e-01 3.137304e-04
<GCONST> 1.129399e+02
<STATE> 3
<MEAN> 39
 1.256255e+00 -9.910435e+00 -1.743200e+00 -5.960151e+00 -1.104590e+01 -1.248323e+01 -8.122456e+00 -8.720424e-01 -3.500352e+00 -1.564514e+00 -3.313121e+00 -6.688571e+00 7.538093e-01 2.871264e-01 1.446849e-02 -5.272242e-01 -6.917140e-02 3.931486e-01 2.912784e-01 7.937602e-02 7.029849e-03 7.819625e-02 9.917505e-02 -2.493804e-02 -1.267832e-01 -6.449282e-03 -4.491506e-02 8.541699e-02 2.030907e-03 3.989303e-02 2.805682e-02 6.521427e-03 3.789428e-02 -3.731912e-02 -1.232881e-02 -2.771700e-02 -2.106338e-03 2.081172e-02 -1.205888e-03
<VARIANCE> 39
 3.223080e+01 5.668826e+01 1.087613e+02 8.734248e+01 7.853575e+01 9.093156e+01 7.735019e+01 8.655702e+01 8.027859e+01 6.199960e+01 7.558950e+01 4.950155e+01 1.094603e-02 5.772231e-01 1.269376e+00 1.851362e+00 1.807379e+00 1.921160e+00 2.155809e+00 2.385167e+00 2.743536e+00 2.215585e+00 1.961730e+00 1.737862e+00 1.530890e+00 1.763550e-04 5.595498e-02 1.171295e-01 1.880624e-01 2.421327e-01 2.886533e-01 3.113776e-01 3.505143e-01 3.739529e-01 3.388340e-01 3.089482e-01 2.846093e-01 2.489997e-01 2.452267e-05
<GCONST> 8.817804e+01
<STATE> 4
<MEAN> 39
 -4.892540e+00 -1.886009e+00 -3.581170e+00 -4.381458e+00 -2.062613e+00 -3.123047e+00 -1.820273e+00 -3.980672e+00 -2.531402e+00 -2.444875e+00 -1.608936e+00 -3.648987e+00 2.745378e-01 -7.063115e-01 4.913411e-02 1.483428e-01 3.351147e-01 3.371351e-01 1.648511e-01 2.921666e-01 1.396713e-01 1.741642e-01 -1.597415e-01 7.363073e-02 2.642463e-01 -3.068321e-02 -7.669969e-03 -6.696799e-02 -7.637613e-03 -1.683532e-02 -2.776072e-02 -3.216612e-02 -3.349839e-02 3.001771e-02 2.959461e-02 3.239156e-02 1.375757e-02 -1.429777e-02 3.644471e-04
<VARIANCE> 39
 4.087493e+01 2.737541e+01 4.468354e+01 5.574402e+01 4.494604e+01 5.347573e+01 4.471357e+01 5.008822e+01 5.165124e+01 4.659884e+01 4.416429e+01 3.155639e+01 6.511550e-02 7.645158e-01 1.187540e+00 1.419209e+00 2.050360e+00 2.101681e+00 2.162696e+00 2.254756e+00 2.219099e+00 2.365986e+00 2.458199e+00 2.076708e+00 1.837389e+00 1.022585e-03 1.082989e-01 1.730749e-01 2.248896e-01 3.179129e-01 3.469483e-01 3.511723e-01 3.714707e-01 3.988675e-01 4.112323e-01 4.140583e-01 3.564574e-01 3.382212e-01 1.250723e-04
<GCONST> 9.111870e+01
<TRANSP> 5
 0.000000e+00 1.000000e+00 0.000000e+00 0.000000e+00 0.000000e+00
 0.000000e+00 9.524435e-01 4.755656e-02 0.000000e+00 0.000000e+00
 0.000000e+00 0.000000e+00 9.672509e-01 3.274904e-02 0.000000e+00
 0.000000e+00 0.000000e+00 0.000000e+00 9.409137e-01 5.908630e-02
 0.000000e+00 0.000000e+00 0.000000e+00 0.000000e+00 0.000000e+00
<ENDHMM>
