~o
<STREAMINFO> 1 39
<VECSIZE> 39<NULLD><MFCC_E_D_A><DIAGC>
~h "eight"
<BEGINHMM>
<NUMSTATES> 5
<STATE> 2
<MEAN> 39
 -8.451468e+00 -7.864924e+00 2.345617e+00 -9.408150e+00 -7.893143e+00 -5.414120e+00 -2.548229e+00 -2.001851e+00 -1.865327e+00 -6.535988e+00 -2.099545e+00 -1.737893e+00 2.742014e-01 3.950773e-01 -4.886360e-01 1.220940e+00 -1.019742e+00 -1.477188e+00 -2.719721e-01 -1.956779e-01 7.734544e-01 1.642598e-01 2.487104e-01 -2.164397e-01 -2.668875e-01 5.774269e-02 -3.965898e-02 1.066427e-01 -1.132545e-02 7.802095e-02 3.082531e-02 4.087555e-02 -1.400990e-01 -2.318962e-02 -3.433141e-02 6.214016e-03 7.876945e-02 2.314439e-02 -3.000519e-03
<VARIANCE> 39
 1.953439e+01 4.773296e+01 5.833702e+01 8.270285e+01 9.530684e+01 4.878672e+01 3.905853e+01 7.978110e+01 3.141467e+01 4.723977e+01 3.792409e+01 3.465382e+01 1.394192e-01 1.485123e+00 3.796461e+00 4.241761e+00 4.674660e+00 5.565089e+00 2.824003e+00 3.287380e+00 4.629937e+00 2.477855e+00 3.096387e+00 3.188113e+00 2.076272e+00 1.000000e-02 2.814235e-01 6.121116e-01 7.457700e-01 6.940178e-01 9.663447e-01 5.036243e-01 5.613321e-01 7.625093e-01 4.750123e-01 5.098534e-01 5.236368e-01 3.937013e-01 1.000000e-02
<GCONST> 1.139267e+02
<STATE> 3
<MEAN> 39
 -6.497009e+00 -7.084486e+00 1.623588e+01 -1.136147e+01 -1.754985e+01 -7.118984e+00 -6.493171e+00 -1.100204e+00 -3.888127e+00 -2.735161e+00 1.131047e+00 -2.797344e+00 6.360419e-01 -1.547529e-01 3.873704e-01 -2.874748e-01 5.960044e-01 4.545028e-01 1.819795e-01 -7.139829e-03 -6.932040e-01 -8.151969e-02 -9.391163e-02 1.548994e-01 1.954872e-01 -2.351398e-02 -2.917407e-02 -1.536104e-02 -1.625389e-01 7.032537e-02 1.376973e-01 2.264862e-02 7.610741e-02 -5.524923e-03 2.981389e-02 -3.942649e-02 -5.508403e-02 -3.284932e-03 -4.012872e-03
<VARIANCE> 39
 1.020872e+01 4.630446e+01 3.256029e+01 1.460440e+02 5.492157e+01 5.747933e+01 4.311772e+01 1.093052e+02 3.395635e+01 3.382343e+01 7.574331e+01 3.391426e+01 4.011420e-02 2.853477e-01 7.364607e-01 2.290083e+00 1.584507e+00 1.791552e+00 1.306394e+00 1.488323e+00 1.759785e+00 2.118493e+00 1.739177e+00 1.636731e+00 1.394650e+00 1.000000e-02 4.677222e-02 9.995597e-02 1.737617e-01 2.652977e-01 2.340421e-01 2.174386e-01 2.586078e-01 3.484527e-01 3.572670e-01 3.024164e-01 2.878015e-01 2.583333e-01 1.000000e-02
<GCONST> 9.030924e+01
<STATE> 4
<MEAN> 39
 -1.558103e+01 -2.429537e+00 -2.892633e+00 -3.785448e+00 -9.728655e-01 -6.615263e+00 -9.118638e-01 -4.744191e+00 -3.081565e+00 -5.336387e+00 -1.039888e+00 -1.198137e+00 1.743839e-01 -9.929615e-02 -8.531151e-03 -3.320481e-01 3.118789e-02 3.492318e-01 -8.346511e-03 1.050491e-01 1.687438e-01 -2.511824e-02 -7.979759e-02 -7.612938e-02 -2.933923e-02 -7.860956e-03 2.553280e-02 -1.600117e-03 8.225342e-02 -3.883728e-02 -7.697204e-02 -5.818273e-03 -3.236869e-02 -1.885799e-02 -1.490525e-02 2.219089e-02 8.996765e-03 -1.212907e-02 1.467824e-03
<VARIANCE> 39
 4.891167e+01 1.840930e+01 2.365294e+01 2.547924e+01 2.504986e+01 2.890741e+01 2.895508e+01 2.922166e+01 2.459111e+01 2.364737e+01 2.168145e+01 1.638471e+01 4.717831e-02 2.954141e+00 1.532911e+00 2.375776e+00 1.667884e+00 2.028762e+00 2.609098e+00 2.286003e+00 2.194194e+00 2.196596e+00 2.592264e+00 1.834991e+00 1.606547e+00 1.000000e-02 3.569311e-01 2.785686e-01 3.730609e-01 3.172096e-01 3.447697e-01 5.046812e-01 3.804787e-01 4.091956e-01 4.325666e-01 5.230280e-01 3.460981e-01 3.127905e-01 1.000000e-02
<GCONST> 9.540771e+01
<TRANSP> 5
 0.000000e+00 1.000000e+00 0.000000e+00 0.000000e+00 0.000000e+00
 0.000000e+00 9.162679e-01 8.373206e-02 0.000000e+00 0.000000e+00
 0.000000e+00 0.000000e+00 9.508427e-01 4.915730e-02 0.000000e+00
 0.000000e+00 0.000000e+00 0.000000e+00 9.648241e-01 3.517588e-02
 0.000000e+00 0.000000e+00 0.000000e+00 0.000000e+00 0.000000e+00
<ENDHMM>
