~o
<STREAMINFO> 1 39
<VECSIZE> 39<NULLD><MFCC_E_D_A><DIAGC>
~h "eight"
<BEGINHMM>
<NUMSTATES> 5
<STATE> 2
<MEAN> 39
 -5.546755e+00 -7.420861e+00 1.029477e+01 -4.121904e+00 -3.442334e+00 -9.103644e+00 -3.941730e+00 1.360009e+01 -5.596595e+00 -8.501611e-01 -7.063806e+00 -1.484119e+00 6.430345e-01 1.101182e-01 -8.281687e-02 8.433918e-01 -1.961723e-01 -1.182599e+00 -5.048297e-01 -1.266678e-01 8.232500e-01 -5.061768e-01 5.130993e-01 7.227473e-01 2.434779e-01 2.722148e-02 -1.851620e-02 1.154881e-01 2.469920e-02 1.556930e-02 4.729632e-02 1.020212e-01 -8.940051e-02 -2.060238e-01 -6.203732e-02 -3.304856e-02 8.309718e-02 1.035957e-03 -2.383655e-03
<VARIANCE> 39
 8.525113e+00 1.416310e+01 1.840961e+01 9.184851e+00 6.205986e+01 2.053143e+01 2.077274e+01 1.520019e+02 2.478930e+01 4.059243e+01 3.435490e+01 2.302861e+01 4.088362e-02 1.165081e+00 1.785783e+00 7.494762e-01 9.218691e-01 1.159132e+00 9.763734e-01 2.294330e+00 1.259906e+01 2.710803e+00 1.364776e+00 1.748716e+00 2.363266e+00 1.000000e-02 2.272808e-01 2.835242e-01 1.648387e-01 1.731150e-01 1.954112e-01 1.763762e-01 5.169545e-01 1.400000e+00 4.940070e-01 1.935000e-01 3.398197e-01 4.607693e-01 1.000000e-02
<GCONST> 9.037527e+01
<STATE> 3
<MEAN> 39
 -7.078378e+00 -5.195168e-02 1.399927e+01 -3.515101e+00 -5.595904e+00 -6.995275e+00 -1.117333e+01 5.141564e-03 -8.773975e+00 -4.191542e-03 -2.548581e+00 1.897557e+00 5.844648e-01 -6.428122e-02 3.225851e-01 -1.338203e+00 2.892834e-01 1.578564e+00 5.888380e-01 -1.712794e-01 -1.573168e+00 7.931153e-01 -1.047690e+00 -9.175226e-01 -4.970015e-01 -3.793236e-02 8.234608e-02 -2.377344e-01 -2.214491e-01 2.484508e-02 -2.558187e-02 -5.111125e-02 3.327011e-01 1.285795e-01 3.585558e-01 8.378895e-03 -2.497763e-02 -6.146071e-02 -1.710537e-04
<VARIANCE> 39
 1.641597e+00 5.476802e+00 2.635353e+01 1.471196e+01 3.670745e+01 1.534929e+01 1.178433e+01 4.779216e+01 1.425017e+01 2.187793e+01 2.218132e+01 1.896513e+01 1.464979e-02 2.494546e-01 1.440224e+00 1.294898e+00 6.452341e-01 1.120999e+00 1.498575e+00 2.222074e+00 2.447346e+00 2.104271e+00 9.760923e-01 7.161475e-01 8.199176e-01 1.000000e-02 3.462035e-02 1.256534e-01 2.928753e-01 1.177696e-01 3.176187e-01 2.291003e-01 1.412087e-01 2.975585e-01 2.561285e-01 2.263286e-01 1.826690e-01 1.274385e-01 1.000000e-02
<GCONST> 7.084514e+01
<STATE> 4
<MEAN> 39
 -1.106073e+01 -1.886111e+00 6.439904e+00 -2.533419e+00 3.153309e+00 -4.475748e+00 -5.023892e+00 -3.138743e+00 -9.616144e-01 -5.573636e+00 -3.588993e+00 -1.336115e+00 4.040369e-01 -4.099521e-02 -1.273251e-02 -3.000505e-02 1.809228e-02 9.085260e-02 1.232469e-01 1.774973e-01 2.291482e-02 6.163270e-02 -1.330113e-02 2.549625e-03 3.617655e-02 -1.709204e-03 2.000713e-04 2.298916e-02 2.990370e-02 -3.261141e-02 -1.389922e-02 -2.406241e-02 -3.881321e-02 7.203595e-02 -2.720958e-02 4.448920e-02 -1.260719e-02 -7.356140e-03 8.716531e-04
<VARIANCE> 39
 3.374861e+01 6.845282e+00 9.595368e+00 1.583951e+01 9.132933e+00 1.453986e+01 1.553286e+01 3.123588e+01 1.377358e+01 1.320359e+01 1.797928e+01 8.364443e+00 1.000000e-02 3.345826e+00 9.394661e-01 8.671635e-01 1.199764e+00 1.066885e+00 1.736072e+00 1.956594e+00 3.142433e+00 1.573684e+00 1.583514e+00 2.072083e+00 9.894826e-01 1.000000e-02 5.153171e-01 2.026626e-01 1.624485e-01 2.094366e-01 1.830381e-01 2.859673e-01 3.732819e-01 5.790216e-01 3.632173e-01 3.629616e-01 3.212440e-01 2.084856e-01 1.000000e-02
<GCONST> 8.001488e+01
<TRANSP> 5
 0.000000e+00 1.000000e+00 0.000000e+00 0.000000e+00 0.000000e+00
 0.000000e+00 9.183673e-01 8.163264e-02 0.000000e+00 0.000000e+00
 0.000000e+00 0.000000e+00 8.666667e-01 1.333333e-01 0.000000e+00
 0.000000e+00 0.000000e+00 0.000000e+00 9.518072e-01 4.819277e-02
 0.000000e+00 0.000000e+00 0.000000e+00 0.000000e+00 0.000000e+00
<ENDHMM>
