~o
<STREAMINFO> 1 39
<VECSIZE> 39<NULLD><MFCC_E_D_A><DIAGC>
~h "eight"
<BEGINHMM>
<NUMSTATES> 5
<STATE> 2
<MEAN> 39
 -3.215438e+00 -3.940812e+00 1.868785e+00 -5.412791e+00 -1.280468e+01 -8.280608e+00 3.648193e+00 4.873365e+00 -2.117365e-01 -1.216921e+00 5.800577e+00 -5.775886e+00 4.816217e-01 2.649925e-01 1.488878e-01 8.829375e-01 -4.223406e-01 -1.955040e+00 -1.220878e+00 -6.810290e-01 4.861207e-01 -6.703975e-01 -1.721002e-01 1.793121e+00 -9.315772e-01 5.147476e-02 -9.416211e-03 1.294343e-02 1.735951e-01 3.779606e-03 6.555180e-02 6.353198e-02 -6.664385e-02 -1.647747e-01 -7.240847e-02 -2.563114e-02 3.013471e-02 8.612159e-02 -5.599163e-04
<VARIANCE> 39
 8.136859e+00 5.560782e+00 2.713014e+01 2.137531e+01 1.179577e+02 5.550959e+01 1.968391e+01 3.425079e+01 2.050846e+01 1.436227e+01 8.045455e+01 4.786518e+01 8.248939e-02 6.629355e-01 7.710387e-01 2.441939e+00 1.774156e+00 3.977937e+00 2.658530e+00 1.799255e+00 3.708843e+00 1.463112e+00 1.272084e+00 1.691052e+00 3.278057e+00 1.000000e-02 1.190883e-01 1.601421e-01 3.448904e-01 3.384700e-01 7.045759e-01 5.208849e-01 3.877292e-01 5.121557e-01 2.604461e-01 2.481668e-01 3.993559e-01 6.922215e-01 1.000000e-02
<GCONST> 9.402302e+01
<STATE> 3
<MEAN> 39
 -2.485280e+00 -6.618512e-02 1.453546e+01 -3.989540e+00 -1.742085e+01 -9.991859e+00 -3.872558e+00 -4.330874e+00 -6.917967e+00 -6.130378e+00 1.219590e+01 -5.611491e+00 5.803509e-01 -6.637180e-02 -4.550142e-02 -2.500251e-01 3.370006e-01 1.061557e+00 4.571562e-01 1.037848e-02 -5.901500e-01 5.157831e-02 -5.491595e-02 -1.020717e+00 5.877193e-01 -2.818476e-02 -1.260386e-02 -6.424978e-02 -1.850567e-01 -1.189356e-02 6.975482e-02 -6.209726e-03 7.313819e-02 9.192100e-02 7.757623e-02 6.660965e-02 -7.891810e-02 -5.968727e-03 -2.095077e-03
<VARIANCE> 39
 1.336077e+00 5.733734e+00 9.657504e+00 1.377528e+01 5.776891e+01 2.492861e+01 1.023847e+01 1.953083e+01 1.260048e+01 1.928226e+01 4.735910e+01 2.805067e+01 3.318146e-02 1.783580e-01 5.684668e-01 1.383228e+00 7.329870e-01 1.268610e+00 9.515944e-01 1.035986e+00 1.319528e+00 1.262397e+00 1.963806e+00 1.564410e+00 1.787366e+00 1.000000e-02 2.641393e-02 6.083630e-02 1.053513e-01 1.412410e-01 1.919608e-01 2.024106e-01 2.038226e-01 2.096505e-01 2.211671e-01 3.372684e-01 3.039480e-01 3.528697e-01 1.000000e-02
<GCONST> 6.953503e+01
<STATE> 4
<MEAN> 39
 -9.285119e+00 -1.221994e+00 -3.693982e+00 -5.586886e+00 -2.818075e+00 -1.000450e+01 5.133163e+00 -5.872590e-01 1.004579e+00 1.510870e+00 8.141676e-01 4.236002e+00 2.322396e-01 -8.400101e-02 -3.248254e-02 -2.352127e-01 -3.807478e-02 1.917313e-01 1.513584e-01 2.528386e-01 2.066373e-01 3.066439e-01 1.401921e-01 -6.105464e-02 6.445624e-02 -4.805269e-03 1.656741e-02 1.399073e-02 7.813135e-02 1.660324e-02 -1.322058e-02 3.469882e-02 -6.115580e-03 -9.491198e-03 -3.114570e-02 -3.409630e-02 2.290611e-02 -3.363074e-02 1.062519e-03
<VARIANCE> 39
 2.855438e+01 1.587959e+01 2.694246e+01 1.478418e+01 1.761138e+01 4.128458e+01 1.934449e+01 2.653095e+01 2.525615e+01 1.874131e+01 2.023517e+01 1.825202e+01 1.000000e-02 1.994436e+00 1.608482e+00 2.314975e+00 1.199312e+00 1.406963e+00 2.919172e+00 1.666789e+00 1.859730e+00 1.638498e+00 1.909341e+00 1.613714e+00 1.987040e+00 1.000000e-02 2.365331e-01 2.854879e-01 3.347897e-01 2.192530e-01 2.113291e-01 4.083353e-01 2.776496e-01 3.315341e-01 3.149695e-01 3.780968e-01 2.803692e-01 3.858230e-01 1.000000e-02
<GCONST> 8.740931e+01
<TRANSP> 5
 0.000000e+00 1.000000e+00 0.000000e+00 0.000000e+00 0.000000e+00
 0.000000e+00 9.247312e-01 7.526883e-02 0.000000e+00 0.000000e+00
 0.000000e+00 0.000000e+00 9.489051e-01 5.109489e-02 0.000000e+00
 0.000000e+00 0.000000e+00 0.000000e+00 9.650000e-01 3.500000e-02
 0.000000e+00 0.000000e+00 0.000000e+00 0.000000e+00 0.000000e+00
<ENDHMM>
