~o
<STREAMINFO> 1 39
<VECSIZE> 39<NULLD><MFCC_E_D_A><DIAGC>
~h "eight"
<BEGINHMM>
<NUMSTATES> 5
<STATE> 2
<MEAN> 39
 -8.044114e+00 -3.948304e+00 1.227916e+01 -1.336985e+01 -1.653965e+01 -5.554869e+00 -5.381589e+00 -5.871885e+00 -4.236573e+00 -1.111394e+00 -3.894553e+00 -4.075990e+00 6.108593e-01 1.597877e-01 2.833092e-01 4.130517e-01 -7.285562e-02 -3.368283e-01 -1.302464e-01 -3.447698e-01 -3.703696e-01 -1.002317e-01 -3.798809e-02 -5.734891e-02 -1.193093e-02 9.180461e-03 -3.141451e-02 3.002883e-02 -1.339254e-01 1.333259e-01 1.472687e-01 1.184215e-02 2.972748e-02 1.408123e-02 3.566112e-02 -1.283324e-02 3.656880e-02 2.702536e-02 -5.205570e-03
<VARIANCE> 39
 2.703006e+01 6.766943e+01 9.543346e+01 1.153638e+02 8.786182e+01 5.770531e+01 8.521938e+01 8.422158e+01 5.753031e+01 5.657420e+01 8.395372e+01 4.186571e+01 8.426995e-02 1.036195e+00 2.061676e+00 2.858975e+00 3.702266e+00 4.202524e+00 2.103940e+00 2.623766e+00 2.631246e+00 2.183735e+00 2.314066e+00 2.306772e+00 1.827100e+00 1.000000e-02 1.789525e-01 3.118681e-01 4.134792e-01 5.386569e-01 5.915523e-01 3.702086e-01 4.376559e-01 4.487138e-01 3.812888e-01 4.049728e-01 3.734932e-01 3.098054e-01 1.000000e-02
<GCONST> 1.092035e+02
<STATE> 3
<MEAN> 39
 -1.517313e+01 8.377140e-01 1.527520e+00 -4.122642e+00 -5.473867e+00 -6.735290e+00 -1.594363e+00 -5.874907e+00 -1.422502e+00 -2.701095e+00 -8.614442e-01 -1.522202e+00 2.729774e-01 -9.640520e-01 -1.382818e-01 -1.146521e+00 3.883398e-01 8.935531e-01 -1.497056e-02 8.757198e-01 7.159314e-01 2.510141e-01 3.191668e-02 3.625042e-01 1.713540e-01 -6.961901e-03 4.468606e-02 -4.389841e-02 1.555945e-01 -1.173407e-01 -1.240532e-01 2.259908e-02 -4.426716e-02 1.204970e-02 -2.053719e-02 6.293539e-03 -3.180228e-02 -7.377368e-03 2.211212e-03
<VARIANCE> 39
 7.197711e+01 4.288897e+01 7.990685e+01 5.130033e+01 5.995288e+01 4.992931e+01 5.871486e+01 4.731591e+01 4.186653e+01 3.393232e+01 3.595935e+01 2.572947e+01 5.721350e-02 3.665726e+00 3.124442e+00 4.509437e+00 3.563539e+00 4.043953e+00 3.089125e+00 3.450118e+00 3.347321e+00 3.117378e+00 2.927524e+00 2.743442e+00 2.141188e+00 1.000000e-02 6.149063e-01 5.367276e-01 6.613289e-01 5.599520e-01 6.140124e-01 5.535862e-01 5.999318e-01 6.001174e-01 5.666867e-01 5.248899e-01 4.853398e-01 4.000775e-01 1.000000e-02
<GCONST> 1.130965e+02
<STATE> 4
<MEAN> 39
 -1.644276e+01 -1.433052e+00 -1.505026e+00 -2.325296e+00 -5.883370e-01 -5.307531e+00 1.789130e+00 -8.063942e-01 -9.709959e-02 -2.719179e+00 6.583928e-01 -5.058144e-01 2.064688e-01 3.795516e-01 -1.837077e-01 -2.923506e-02 8.796640e-02 1.455768e-01 1.044448e-01 -7.989313e-02 5.601257e-02 -4.409283e-03 -6.112609e-02 -6.298242e-02 -2.852242e-02 -1.406299e-02 4.514403e-03 3.579365e-02 1.248659e-02 -3.570345e-03 -2.109668e-02 8.967602e-03 -3.262967e-02 -3.770926e-02 -1.460053e-02 1.440556e-03 -1.101118e-02 -1.506142e-02 1.202384e-03
<VARIANCE> 39
 5.093919e+01 2.640454e+01 3.858467e+01 3.542524e+01 3.752759e+01 3.757648e+01 3.742370e+01 3.667081e+01 2.842371e+01 3.084422e+01 2.843071e+01 2.140885e+01 6.041723e-02 1.591244e+00 1.104085e+00 1.214384e+00 1.505608e+00 1.622001e+00 1.921328e+00 1.868339e+00 1.970396e+00 1.876747e+00 1.831830e+00 1.666503e+00 1.503603e+00 1.000000e-02 2.042966e-01 1.852258e-01 2.085129e-01 2.724569e-01 2.991839e-01 3.470193e-01 3.511497e-01 3.763916e-01 3.699276e-01 3.544377e-01 3.286012e-01 2.952175e-01 1.000000e-02
<GCONST> 9.271265e+01
<TRANSP> 5
 0.000000e+00 1.000000e+00 0.000000e+00 0.000000e+00 0.000000e+00
 0.000000e+00 9.632480e-01 3.675200e-02 0.000000e+00 0.000000e+00
 0.000000e+00 0.000000e+00 9.181710e-01 8.182900e-02 0.000000e+00
 0.000000e+00 0.000000e+00 0.000000e+00 9.484351e-01 5.156485e-02
 0.000000e+00 0.000000e+00 0.000000e+00 0.000000e+00 0.000000e+00
<ENDHMM>
