~o
<STREAMINFO> 1 39
<VECSIZE> 39<NULLD><MFCC_E_D_A><DIAGC>
~h "five"
<BEGINHMM>
<NUMSTATES> 5
<STATE> 2
<MEAN> 39
 -9.556994e+00 -4.110619e+00 1.895267e+00 -2.292912e+00 3.382859e+00 -3.199031e-01 -8.681601e-01 -2.015524e+00 -9.630959e-01 -3.489815e+00 -1.364568e+00 -4.848529e+00 5.385147e-01 6.274979e-01 -5.569208e-01 -3.790417e-01 -8.038370e-01 2.061631e-01 4.115975e-01 -1.348758e-01 2.893995e-01 1.036604e-01 2.867289e-01 3.767532e-01 -6.005114e-01 1.878097e-02 4.572872e-02 -4.059724e-02 5.018742e-02 -1.552267e-02 5.150856e-02 4.374367e-02 -4.504842e-02 -3.841756e-02 -2.077839e-02 -5.659892e-02 -7.336634e-04 -4.604438e-02 9.430056e-04
<VARIANCE> 39
 4.938053e+01 1.602321e+01 1.534422e+01 4.608652e+01 1.468227e+01 2.509882e+01 2.002672e+01 1.994548e+01 1.827057e+01 1.361706e+01 1.750934e+01 2.684101e+01 3.828288e-02 4.426492e+00 9.758757e-01 7.433258e-01 2.082648e+00 1.503270e+00 1.187091e+00 2.682504e+00 1.539245e+00 1.736495e+00 1.556176e+00 1.138234e+00 1.883442e+00 1.000000e-02 7.272263e-01 1.075767e-01 1.444029e-01 3.540947e-01 2.580314e-01 1.633984e-01 4.665698e-01 2.974180e-01 4.186298e-01 3.572511e-01 1.925517e-01 3.648870e-01 1.000000e-02
<GCONST> 8.644360e+01
<STATE> 3
<MEAN> 39
 -2.906100e+00 -7.047273e+00 4.368300e+00 -6.701215e+00 1.157978e+00 -3.364133e+00 -3.307898e+00 3.951451e+00 2.707027e-01 -9.344944e-01 -4.000860e-01 -8.466793e+00 6.796291e-01 -3.635443e-01 6.397218e-01 6.977004e-01 6.246442e-01 -6.606682e-01 -9.177088e-01 -1.028230e-01 -1.727862e-01 -1.784987e-01 1.398568e-01 -1.121440e-01 6.406063e-01 -1.006505e-02 -3.238441e-02 5.566103e-02 -7.157671e-02 5.547126e-02 8.294227e-02 -2.974251e-02 1.667313e-02 -5.813019e-02 -7.270188e-03 -6.428459e-02 -7.304496e-02 2.207084e-02 -8.560230e-04
<VARIANCE> 39
 1.005441e+01 3.276425e+01 4.067308e+01 2.460603e+01 6.103114e+01 9.421164e+01 2.055760e+01 4.404713e+01 1.178135e+01 3.896201e+01 2.952781e+01 4.171021e+01 1.000000e-02 1.936084e-01 1.005293e+00 1.157894e+00 7.266100e-01 2.381423e+00 2.769067e+00 8.365493e-01 5.258381e+00 1.207067e+00 2.157857e+00 3.547552e+00 1.110958e+00 1.000000e-02 3.854952e-02 2.008108e-01 1.965946e-01 1.500348e-01 3.812971e-01 3.788322e-01 1.573242e-01 7.313305e-01 2.492054e-01 4.934937e-01 6.843199e-01 1.945893e-01 1.000000e-02
<GCONST> 8.657135e+01
<STATE> 4
<MEAN> 39
 -1.263148e+01 -6.099298e-01 4.783656e+00 -2.737533e-01 2.619826e+00 -5.875454e+00 -1.960474e+00 -5.034934e+00 -5.057466e-01 -5.356906e+00 -4.319121e+00 -1.638784e+00 3.940042e-01 -1.225781e-01 -1.992447e-01 -3.927139e-01 1.880497e-02 4.334369e-01 3.595785e-01 3.073830e-02 -2.074347e-01 1.454996e-01 -4.104555e-01 -3.071195e-01 -1.403445e-01 -1.140441e-02 5.322383e-02 -4.699424e-02 5.176636e-02 -4.720148e-02 -8.526411e-02 -3.307825e-02 1.331762e-02 2.334685e-02 3.203526e-03 1.112336e-01 5.495352e-02 2.130454e-02 1.105219e-03
<VARIANCE> 39
 1.286933e+01 8.971830e+00 1.026335e+01 8.353518e+00 2.071087e+01 2.050474e+01 2.134776e+01 2.281280e+01 1.366678e+01 1.325707e+01 1.549046e+01 7.331022e+00 1.000000e-02 1.331477e+00 6.501475e-01 1.262981e+00 8.456919e-01 1.216298e+00 2.024349e+00 1.378790e+00 1.410667e+00 1.162916e+00 1.905497e+00 1.318434e+00 7.570204e-01 1.000000e-02 1.760930e-01 1.254928e-01 2.263615e-01 1.815961e-01 1.484649e-01 3.585152e-01 2.575356e-01 2.723003e-01 1.992277e-01 2.371928e-01 2.436376e-01 1.527398e-01 1.000000e-02
<GCONST> 7.257722e+01
<TRANSP> 5
 0.000000e+00 1.000000e+00 0.000000e+00 0.000000e+00 0.000000e+00
 0.000000e+00 9.466667e-01 5.333333e-02 0.000000e+00 0.000000e+00
 0.000000e+00 0.000000e+00 9.506173e-01 4.938271e-02 0.000000e+00
 0.000000e+00 0.000000e+00 0.000000e+00 9.523810e-01 4.761904e-02
 0.000000e+00 0.000000e+00 0.000000e+00 0.000000e+00 0.000000e+00
<ENDHMM>
