~o
<STREAMINFO> 1 39
<VECSIZE> 39<NULLD><MFCC_E_D_A><DIAGC>
~h "five"
<BEGINHMM>
<NUMSTATES> 5
<STATE> 2
<MEAN> 39
 -1.524896e+01 -5.524423e+00 -3.846690e+00 -3.739152e+00 -1.558154e+00 -1.467075e+00 -1.659109e+00 -2.370076e+00 -1.688851e-01 -1.963341e+00 -1.988215e+00 -3.232299e+00 3.136690e-01 7.385225e-01 -4.750852e-01 -4.812703e-01 -7.805126e-01 -7.356825e-02 3.258312e-01 -1.850159e-01 -2.595474e-01 -1.144237e-01 -8.329776e-04 -2.767032e-01 -4.800203e-01 4.262702e-02 3.139461e-02 -4.536555e-02 -7.499593e-03 6.566468e-03 5.899711e-02 4.127662e-02 7.751666e-03 -8.672554e-03 -7.427156e-03 -3.080297e-02 -2.737366e-03 9.243507e-06 -2.137236e-04
<VARIANCE> 39
 1.012175e+02 4.293413e+01 5.251136e+01 7.486852e+01 4.190795e+01 4.067864e+01 3.819211e+01 3.865586e+01 3.558844e+01 3.360821e+01 4.486375e+01 3.506049e+01 9.926103e-02 6.817237e+00 2.378547e+00 2.330419e+00 4.642293e+00 2.497428e+00 3.037020e+00 2.716258e+00 2.797095e+00 2.616637e+00 2.588062e+00 2.922316e+00 2.597330e+00 1.000000e-02 1.054563e+00 3.597871e-01 4.052205e-01 8.217039e-01 4.532278e-01 5.213756e-01 5.080352e-01 5.148159e-01 4.900434e-01 4.828699e-01 5.302022e-01 4.834452e-01 1.000000e-02
<GCONST> 1.115022e+02
<STATE> 3
<MEAN> 39
 -1.855658e+00 -1.325598e+01 -5.192893e+00 -1.104172e+01 -5.178151e+00 -2.154580e+00 -2.331607e+00 -3.235417e+00 -2.962757e+00 -5.289317e+00 -7.412924e+00 -8.262011e+00 7.823497e-01 -9.876509e-02 2.602308e-01 6.301746e-01 3.544866e-01 -4.758533e-01 -5.990947e-01 9.334071e-02 2.110539e-01 -7.563881e-02 -2.494668e-03 6.330686e-02 2.349391e-01 -8.651582e-03 2.774355e-03 7.575466e-02 1.480080e-02 4.563561e-02 -1.276113e-02 -4.316153e-02 -1.645550e-02 -7.197842e-03 -5.088049e-04 1.154337e-02 1.675961e-02 1.927978e-02 -1.691048e-03
<VARIANCE> 39
 2.303878e+01 5.882421e+01 8.849942e+01 6.349685e+01 1.199836e+02 1.035263e+02 7.569872e+01 9.210778e+01 8.047827e+01 7.405422e+01 7.419213e+01 5.343863e+01 1.201926e-02 2.389787e-01 7.554461e-01 9.371914e-01 1.204414e+00 1.828108e+00 1.546440e+00 1.791445e+00 1.981950e+00 1.636513e+00 1.868860e+00 1.531829e+00 1.411310e+00 1.000000e-02 3.928423e-02 9.107740e-02 1.188687e-01 1.682622e-01 2.235499e-01 2.263483e-01 2.602183e-01 2.825977e-01 2.633663e-01 2.823889e-01 2.394481e-01 2.280055e-01 1.000000e-02
<GCONST> 9.110551e+01
<STATE> 4
<MEAN> 39
 -1.182068e+01 -3.802308e+00 5.221228e-01 -1.936774e+00 -4.508520e+00 -6.514633e+00 -7.687051e-01 -6.523747e-01 -6.903803e-01 -3.504349e+00 -2.213718e+00 -2.027338e+00 2.568323e-01 -3.684602e-01 9.385846e-02 -2.851140e-01 2.044940e-01 5.431287e-01 3.213570e-01 4.563706e-02 5.067386e-04 1.626356e-01 -2.880048e-02 1.276927e-01 1.239709e-01 -2.259683e-02 2.995754e-03 -2.933958e-02 -1.106578e-02 -4.816359e-02 -1.585195e-02 2.730748e-02 1.579495e-02 8.832873e-03 -9.121650e-04 1.061936e-02 -8.628721e-03 -1.863656e-02 6.820808e-04
<VARIANCE> 39
 5.589132e+01 2.952312e+01 4.810470e+01 3.499729e+01 6.215390e+01 4.571423e+01 3.740890e+01 4.274831e+01 4.363709e+01 3.551679e+01 3.388869e+01 2.466439e+01 5.363005e-02 2.061344e+00 1.411294e+00 1.513148e+00 1.819411e+00 2.594047e+00 2.396342e+00 2.324947e+00 2.445500e+00 2.427866e+00 2.325572e+00 2.091138e+00 1.778452e+00 1.000000e-02 2.501013e-01 2.105815e-01 2.381596e-01 2.895274e-01 4.145743e-01 4.396628e-01 4.313975e-01 4.457902e-01 4.419855e-01 4.343735e-01 3.787303e-01 3.362916e-01 1.000000e-02
<GCONST> 9.979218e+01
<TRANSP> 5
 0.000000e+00 1.000000e+00 0.000000e+00 0.000000e+00 0.000000e+00
 0.000000e+00 9.481413e-01 5.185870e-02 0.000000e+00 0.000000e+00
 0.000000e+00 0.000000e+00 9.624403e-01 3.755967e-02 0.000000e+00
 0.000000e+00 0.000000e+00 0.000000e+00 9.608314e-01 3.916859e-02
 0.000000e+00 0.000000e+00 0.000000e+00 0.000000e+00 0.000000e+00
<ENDHMM>
