~o
<STREAMINFO> 1 39
<VECSIZE> 39<NULLD><MFCC_E_D_A><DIAGC>
~h "five"
<BEGINHMM>
<NUMSTATES> 5
<STATE> 2
<MEAN> 39
 -8.668688e+00 -4.512074e+00 -3.950608e+00 -5.226700e+00 -1.951845e+00 -2.577350e+00 6.288588e+00 -2.398110e-01 -5.729429e-01 3.116918e+00 2.944227e+00 -3.324026e+00 2.925704e-01 6.208252e-01 -8.356311e-02 -2.456931e-01 -1.415402e+00 -9.121336e-01 7.088498e-01 -3.275328e-01 -6.960166e-02 -3.435008e-01 -4.917591e-02 8.503346e-01 -9.143116e-01 4.229578e-02 5.036693e-02 -7.235989e-02 1.617415e-02 -1.151299e-01 2.751064e-02 2.041493e-01 -5.172709e-02 1.100231e-02 7.895753e-02 -6.681701e-02 -2.478207e-02 -5.170128e-02 1.153845e-03
<VARIANCE> 39
 5.250456e+01 6.222668e+00 9.385291e+00 9.206105e+01 4.986893e+01 3.760776e+01 2.264918e+01 1.556952e+01 2.171193e+01 1.307351e+01 3.584438e+01 2.988806e+01 7.142948e-02 4.973621e+00 4.692068e-01 6.156244e-01 6.258624e+00 3.419331e+00 5.671192e+00 1.862460e+00 2.296104e+00 2.779771e+00 1.352534e+00 2.636425e+00 2.934588e+00 1.000000e-02 7.574943e-01 7.794049e-02 1.070494e-01 7.983481e-01 7.094970e-01 7.470117e-01 3.641461e-01 4.929513e-01 6.712527e-01 2.578297e-01 5.520326e-01 5.148554e-01 1.000000e-02
<GCONST> 9.773651e+01
<STATE> 3
<MEAN> 39
 2.647913e+00 -7.500352e+00 -5.042306e+00 -1.962841e+01 -8.834057e+00 3.317136e+00 -3.900143e+00 1.260138e+00 1.377474e+00 4.197241e+00 6.789402e+00 -1.545513e+01 7.719069e-01 -8.699726e-02 1.305503e-01 3.814994e-01 8.640431e-01 1.587340e-01 -1.070504e+00 -2.407956e-01 -1.125193e-02 9.810747e-02 1.674759e-01 -2.575553e-01 3.888273e-01 -1.240706e-02 -2.143798e-02 7.090994e-02 -1.470134e-02 1.011411e-01 1.032714e-02 -9.292106e-02 2.427693e-02 -6.494848e-02 -3.357957e-02 4.707291e-02 -1.385615e-02 1.021371e-01 -2.117048e-03
<VARIANCE> 39
 2.441057e+00 1.164897e+01 3.264334e+01 8.215448e+01 1.989900e+01 2.028292e+02 1.596777e+01 1.655492e+01 2.065887e+01 2.911787e+01 2.268776e+01 5.719028e+01 1.327436e-02 1.702008e-01 4.955126e-01 1.022786e+00 1.072842e+00 1.247471e+00 3.381919e+00 9.671526e-01 1.345077e+00 1.753405e+00 1.654475e+00 1.418954e+00 2.503207e+00 1.000000e-02 4.994237e-02 5.524236e-02 1.083243e-01 1.795578e-01 1.977093e-01 4.217441e-01 2.111447e-01 2.041492e-01 2.801028e-01 2.588204e-01 2.467318e-01 3.467557e-01 1.000000e-02
<GCONST> 7.794585e+01
<STATE> 4
<MEAN> 39
 -4.331749e+00 -3.059294e+00 -5.705751e-02 -2.220295e+00 -2.425959e+00 -9.417036e+00 -7.081994e-01 -4.355555e+00 1.735225e+00 5.742174e+00 1.607480e+00 -7.146953e-01 2.642691e-01 -3.324302e-01 -8.086655e-02 -1.915981e-01 8.548905e-02 4.905397e-01 5.879771e-01 3.430716e-01 4.132567e-02 2.366028e-01 -4.506977e-02 -3.779352e-01 3.321385e-01 -1.916905e-02 2.429857e-02 -3.094893e-02 2.229006e-02 -3.631261e-02 -3.336142e-02 1.071232e-03 3.563185e-02 7.829306e-02 -1.645942e-02 -3.480866e-02 -5.748854e-03 -4.678313e-02 1.331725e-03
<VARIANCE> 39
 1.249494e+01 9.856052e+00 1.075982e+01 1.018333e+01 1.796695e+01 2.439676e+01 1.439266e+01 1.421204e+01 2.154613e+01 1.813059e+01 2.303014e+01 1.842654e+01 1.911357e-02 6.116711e-01 7.606676e-01 8.560521e-01 9.205558e-01 8.990193e-01 1.182406e+00 1.319185e+00 1.757832e+00 2.691090e+00 1.849450e+00 1.271014e+00 1.852331e+00 1.000000e-02 6.361677e-02 1.231655e-01 1.406542e-01 1.815579e-01 1.874729e-01 2.549204e-01 2.202893e-01 3.393901e-01 5.859353e-01 3.253331e-01 2.597279e-01 3.492632e-01 1.000000e-02
<GCONST> 7.559306e+01
<TRANSP> 5
 0.000000e+00 1.000000e+00 0.000000e+00 0.000000e+00 0.000000e+00
 0.000000e+00 9.461538e-01 5.384616e-02 0.000000e+00 0.000000e+00
 0.000000e+00 0.000000e+00 9.629630e-01 3.703703e-02 0.000000e+00
 0.000000e+00 0.000000e+00 0.000000e+00 9.565217e-01 4.347826e-02
 0.000000e+00 0.000000e+00 0.000000e+00 0.000000e+00 0.000000e+00
<ENDHMM>
