~o
<STREAMINFO> 1 39
<VECSIZE> 39<NULLD><MFCC_E_D_A><DIAGC>
~h "five"
<BEGINHMM>
<NUMSTATES> 5
<STATE> 2
<MEAN> 39
 -1.362701e+01 -5.817831e+00 -5.277411e+00 -3.000963e+00 -3.377496e+00 -1.162223e+00 -4.140241e+00 -3.305185e+00 -1.617054e+00 -4.432056e+00 -2.159006e+00 -2.630468e+00 2.553630e-01 6.833324e-01 -5.802941e-01 -4.299408e-01 -7.323043e-01 -1.541000e-01 8.645408e-01 -2.379481e-01 -2.160430e-02 1.759584e-01 1.204144e-01 -1.476523e-01 -4.921466e-01 4.816375e-02 1.298684e-02 -6.648563e-02 -4.707972e-03 -4.616607e-02 6.083563e-02 5.994097e-02 -1.392872e-02 -1.173536e-02 6.788564e-03 -6.805700e-02 3.437153e-02 -2.204637e-02 3.612334e-05
<VARIANCE> 39
 8.415238e+01 3.032645e+01 3.035919e+01 6.531463e+01 2.929097e+01 4.513655e+01 3.198346e+01 2.040914e+01 2.524534e+01 3.503717e+01 4.097552e+01 3.734725e+01 1.126582e-01 7.043365e+00 1.985471e+00 2.151280e+00 6.074319e+00 2.170194e+00 4.157779e+00 2.653086e+00 1.950128e+00 2.277570e+00 3.030035e+00 3.615553e+00 2.803085e+00 1.000000e-02 1.114259e+00 2.757315e-01 3.593522e-01 9.050523e-01 3.994600e-01 6.551718e-01 5.001556e-01 3.864737e-01 4.457595e-01 6.216435e-01 7.431023e-01 4.868452e-01 1.000000e-02
<GCONST> 1.092186e+02
<STATE> 3
<MEAN> 39
 -1.312776e+00 -1.575591e+01 -4.798007e+00 -9.752335e+00 -7.157976e+00 3.867638e+00 -4.039394e+00 -2.324923e+00 1.138675e+00 -6.321647e+00 -4.207494e+00 -7.717033e+00 7.588418e-01 -1.126112e-01 2.846609e-01 6.209685e-01 4.998181e-01 -3.530136e-01 -6.864107e-01 2.836759e-01 6.420702e-02 -1.162795e-01 1.454294e-03 9.146590e-02 2.706030e-01 -1.342381e-02 -2.470430e-02 7.787751e-02 -2.206198e-02 6.651896e-02 3.720880e-02 -6.082783e-02 2.334773e-02 2.238957e-03 -1.603785e-02 2.637104e-02 -1.279177e-02 1.590129e-02 -2.674795e-03
<VARIANCE> 39
 1.086532e+01 2.699201e+01 8.682485e+01 9.598819e+01 1.101678e+02 1.020965e+02 6.583404e+01 5.220888e+01 5.152212e+01 6.527797e+01 4.516405e+01 6.274308e+01 2.288017e-02 3.120575e-01 8.825988e-01 1.121139e+00 1.645831e+00 2.289867e+00 2.080513e+00 2.104085e+00 2.561908e+00 2.035313e+00 1.853897e+00 1.964983e+00 1.652163e+00 1.000000e-02 6.950097e-02 9.988184e-02 1.502795e-01 2.165928e-01 2.959681e-01 3.235560e-01 3.284469e-01 3.760827e-01 3.106604e-01 3.018638e-01 3.165838e-01 2.652674e-01 1.000000e-02
<GCONST> 9.433691e+01
<STATE> 4
<MEAN> 39
 -1.228282e+01 -4.693841e+00 -9.705362e-01 -5.491599e-01 -3.929637e+00 -3.866767e+00 -2.523602e+00 -3.220391e+00 -2.733082e+00 -6.139993e+00 -1.781979e+00 -1.365203e+00 1.493829e-01 -3.478483e-01 1.037906e-01 -3.935526e-01 -4.734500e-02 5.394164e-01 1.900674e-01 -1.123699e-01 -7.365427e-02 -2.476192e-02 -1.008862e-01 1.154803e-03 4.345232e-02 -1.848606e-02 3.064070e-02 -3.902448e-02 3.246210e-02 -4.636687e-02 -7.948332e-02 -1.251515e-03 -1.752931e-02 3.366725e-03 -3.997955e-03 1.111802e-02 1.008376e-02 1.247725e-02 1.843716e-03
<VARIANCE> 39
 3.846192e+01 1.176419e+01 1.807324e+01 2.633075e+01 3.480774e+01 2.343943e+01 2.129362e+01 2.004578e+01 2.615957e+01 2.331349e+01 1.886822e+01 2.293047e+01 3.425439e-02 1.624723e+00 6.998468e-01 1.214378e+00 1.486433e+00 2.031868e+00 2.033443e+00 1.944855e+00 1.914189e+00 1.940754e+00 2.106781e+00 1.961543e+00 1.588732e+00 1.000000e-02 1.717631e-01 1.173666e-01 2.176292e-01 2.521120e-01 3.260441e-01 4.370740e-01 3.850885e-01 3.629288e-01 3.917741e-01 4.278708e-01 3.956061e-01 3.158995e-01 1.000000e-02
<GCONST> 8.802499e+01
<TRANSP> 5
 0.000000e+00 1.000000e+00 0.000000e+00 0.000000e+00 0.000000e+00
 0.000000e+00 9.443561e-01 5.564388e-02 0.000000e+00 0.000000e+00
 0.000000e+00 0.000000e+00 9.642493e-01 3.575076e-02 0.000000e+00
 0.000000e+00 0.000000e+00 0.000000e+00 9.589202e-01 4.107981e-02
 0.000000e+00 0.000000e+00 0.000000e+00 0.000000e+00 0.000000e+00
<ENDHMM>
