~o
<STREAMINFO> 1 39
<VECSIZE> 39<NULLD><MFCC_E_D_A><DIAGC>
~h "four"
<BEGINHMM>
<NUMSTATES> 5
<STATE> 2
<MEAN> 39
 -1.549416e+01 -3.748380e+00 -3.868566e+00 -3.592660e+00 -3.378746e+00 -1.763482e+00 -2.372966e+00 -2.237757e+00 -1.060784e+00 -1.943120e+00 -1.232656e+00 -1.972931e+00 3.006908e-01 8.445896e-01 2.334523e-01 -1.921147e-01 -1.129544e+00 -6.569386e-01 1.851928e-01 -1.782611e-01 -1.402046e-01 -3.263071e-01 -8.408318e-02 -1.416793e-01 -7.662081e-02 3.773151e-02 6.404057e-02 1.204757e-02 1.330914e-02 -8.182375e-02 -2.248795e-02 2.082696e-02 7.352437e-03 2.679736e-02 1.081640e-02 -4.537573e-03 -2.121518e-02 -7.352406e-03 1.480149e-04
<VARIANCE> 39
 1.068679e+02 3.858566e+01 4.343638e+01 1.001476e+02 6.155644e+01 3.450625e+01 3.654064e+01 3.582637e+01 4.149092e+01 3.074933e+01 3.035081e+01 1.992631e+01 8.162595e-02 6.789673e+00 2.306844e+00 1.884850e+00 6.619936e+00 3.624124e+00 2.566567e+00 2.516211e+00 2.646939e+00 3.031008e+00 2.430489e+00 2.166795e+00 1.674905e+00 1.000000e-02 8.976698e-01 4.080624e-01 3.281184e-01 9.207978e-01 6.251849e-01 4.544621e-01 4.629841e-01 4.995809e-01 5.645764e-01 4.618310e-01 3.972368e-01 3.214474e-01 1.000000e-02
<GCONST> 1.094197e+02
<STATE> 3
<MEAN> 39
 4.055990e+00 1.575503e+00 -6.029995e+00 -2.503049e+01 -1.396097e+01 1.812057e+00 -3.182919e+00 -2.940434e+00 -4.807376e+00 -4.866242e+00 -4.502587e+00 -4.060837e+00 7.863570e-01 1.106847e-02 -4.788065e-02 -7.197388e-02 2.368578e-01 1.457576e-01 2.009701e-02 1.573005e-01 5.781805e-02 5.199992e-02 5.181216e-02 8.092889e-02 -8.464897e-02 -5.959186e-03 -5.061949e-02 -3.809975e-02 -2.983274e-02 1.818829e-01 9.467942e-02 -4.046175e-02 1.374154e-03 -4.302808e-02 -2.568279e-02 2.364890e-02 4.017799e-02 -1.168549e-02 -2.045556e-03
<VARIANCE> 39
 1.964604e+01 3.857248e+01 6.044547e+01 6.634535e+01 6.969273e+01 6.033631e+01 6.461244e+01 6.077856e+01 8.003185e+01 5.177447e+01 5.510839e+01 4.118201e+01 1.066623e-02 1.762676e-01 5.414651e-01 5.608840e-01 9.866204e-01 9.519197e-01 1.164801e+00 1.126785e+00 1.233550e+00 1.303994e+00 1.326469e+00 1.132836e+00 1.080649e+00 1.000000e-02 4.173404e-02 7.292662e-02 9.209094e-02 1.816188e-01 1.637414e-01 1.975297e-01 1.940050e-01 2.053887e-01 2.126098e-01 2.143332e-01 1.939224e-01 1.840238e-01 1.000000e-02
<GCONST> 8.081024e+01
<STATE> 4
<MEAN> 39
 -2.410660e+00 -5.153724e+00 -6.943117e+00 -5.181094e+00 -3.623478e+00 -5.550527e+00 -2.246347e+00 2.826591e-01 -2.847569e+00 -3.589201e+00 -2.727112e+00 -4.141011e+00 4.000509e-01 -5.728132e-01 -1.462022e-01 1.903559e-01 7.655178e-01 4.391810e-01 -2.262262e-01 5.428528e-02 9.734805e-02 1.843349e-01 -2.385841e-02 4.556837e-02 1.237837e-01 -2.656389e-02 -5.124297e-03 3.006360e-02 2.124253e-02 -6.737258e-02 -3.986203e-02 1.974010e-02 3.696992e-04 3.259677e-03 1.535961e-02 -8.191074e-03 -8.239586e-03 1.882063e-02 -1.545614e-05
<VARIANCE> 39
 5.389395e+01 5.522744e+01 5.815262e+01 9.113053e+01 7.052895e+01 9.889288e+01 6.251337e+01 6.579214e+01 7.618949e+01 6.015440e+01 5.056794e+01 4.196416e+01 9.214851e-02 7.461507e-01 1.326199e+00 1.502070e+00 2.602345e+00 2.475193e+00 2.953225e+00 2.652696e+00 2.838218e+00 2.601030e+00 2.847329e+00 2.332844e+00 2.033472e+00 1.000000e-02 9.613857e-02 1.700208e-01 2.056711e-01 3.046098e-01 3.355230e-01 3.901106e-01 4.143572e-01 4.537030e-01 4.353231e-01 4.559809e-01 3.895415e-01 3.442752e-01 1.000000e-02
<GCONST> 1.046236e+02
<TRANSP> 5
 0.000000e+00 1.000000e+00 0.000000e+00 0.000000e+00 0.000000e+00
 0.000000e+00 9.525660e-01 4.743398e-02 0.000000e+00 0.000000e+00
 0.000000e+00 0.000000e+00 9.461208e-01 5.387918e-02 0.000000e+00
 0.000000e+00 0.000000e+00 0.000000e+00 9.585755e-01 4.142452e-02
 0.000000e+00 0.000000e+00 0.000000e+00 0.000000e+00 0.000000e+00
<ENDHMM>
