~o
<STREAMINFO> 1 39
<VECSIZE> 39<NULLD><MFCC_E_D_A><DIAGC>
~h "four"
<BEGINHMM>
<NUMSTATES> 5
<STATE> 2
<MEAN> 39
 -9.624816e+00 -1.765910e+00 4.904345e+00 -3.325081e+00 1.395853e+00 -1.561310e+00 -4.363596e+00 -4.850964e+00 -6.944562e-01 -4.953059e+00 -4.958762e+00 -2.174268e+00 3.876525e-01 5.586219e-01 1.284890e-01 1.007160e-01 -8.980037e-01 -9.572774e-01 7.043692e-01 6.205921e-01 9.497185e-02 -7.872345e-02 -1.938756e-01 1.549722e-01 -2.283958e-01 2.975675e-02 1.743495e-01 2.041118e-02 1.780469e-02 -1.469728e-01 -1.725350e-01 1.513181e-01 1.126153e-01 -5.455305e-02 1.169641e-01 -2.981501e-02 -4.231810e-02 6.341547e-02 3.112783e-03
<VARIANCE> 39
 2.061629e+01 5.761885e+00 5.648368e+00 2.192385e+01 2.561811e+01 1.702581e+01 1.104087e+01 1.284936e+01 2.049493e+01 1.482675e+01 1.339054e+01 1.172704e+01 2.153602e-02 4.753847e+00 7.133672e-01 9.714947e-01 4.476804e+00 1.336664e+00 2.644116e+00 2.591063e+00 1.907200e+00 2.283405e+00 1.677758e+00 8.110145e-01 1.520655e+00 1.000000e-02 5.413195e-01 1.226395e-01 2.351228e-01 6.356360e-01 8.682797e-02 5.079650e-01 6.070497e-01 4.264420e-01 2.860443e-01 2.936817e-01 1.929071e-01 3.434524e-01 1.000000e-02
<GCONST> 8.285857e+01
<STATE> 3
<MEAN> 39
 4.167372e+00 3.655845e+00 2.885069e+00 -1.697766e+01 -1.380776e+01 2.305685e+00 2.765316e+00 -4.808475e+00 9.401891e+00 -5.179821e+00 -4.841167e+00 1.603619e+00 7.726863e-01 1.772768e-02 1.287606e-01 -2.837775e-01 1.588941e-01 2.984826e-01 -1.635798e-02 -9.076183e-02 3.693654e-02 1.590446e-01 -1.001918e-01 -7.738648e-02 3.847687e-01 -5.132155e-03 -2.281903e-01 -5.695549e-02 -1.180376e-02 3.107720e-01 3.902947e-01 3.322455e-02 -1.038712e-01 1.632194e-02 -1.119176e-01 -2.108322e-02 -5.724783e-02 -5.553334e-02 -3.850315e-03
<VARIANCE> 39
 7.098261e-01 3.564799e+00 2.876069e+00 6.447145e+00 1.300577e+01 1.402885e+01 2.954266e+00 7.931655e+00 1.391553e+01 4.750696e+00 1.187073e+01 3.426080e+00 1.000000e-02 2.998234e-01 3.499803e-01 1.969889e-01 9.063573e-01 2.695736e+00 2.171464e+00 3.563053e-01 1.407902e+00 1.961350e+00 1.000140e+00 1.148205e+00 3.757601e-01 1.000000e-02 2.031416e-01 3.256251e-02 6.979087e-02 4.147480e-01 6.209323e-01 4.435788e-01 1.769633e-01 3.487381e-01 2.416293e-01 2.681180e-01 2.022805e-01 8.891413e-02 1.000000e-02
<GCONST> 5.551023e+01
<STATE> 4
<MEAN> 39
 -4.244620e+00 -1.235308e+00 1.997475e+00 -2.967872e+00 4.286783e+00 1.475319e+00 -4.472526e+00 -5.103714e+00 4.204974e+00 -7.427348e+00 -7.632501e+00 2.140226e-01 4.411964e-01 -6.734706e-01 -2.702391e-01 2.277150e-01 8.613423e-01 6.199477e-01 -7.473410e-01 -5.149112e-01 -2.037428e-01 -3.460014e-01 1.669883e-02 -5.007835e-01 -4.115238e-01 -2.587589e-02 1.027576e-01 3.617024e-02 -4.800536e-03 -1.777483e-01 -2.936083e-01 -1.417850e-01 -2.031984e-02 2.859231e-02 4.719099e-02 3.541547e-02 8.868780e-02 2.332775e-02 1.441539e-03
<VARIANCE> 39
 1.010654e+01 4.971533e+00 3.594184e+00 1.658296e+01 2.068285e+01 5.270880e+01 1.706107e+01 1.006508e+01 1.649122e+01 1.346473e+01 1.433911e+01 1.271400e+01 2.263522e-02 4.084864e-01 4.509256e-01 2.567484e-01 2.358251e+00 6.293095e+00 2.895927e+00 1.198970e+00 1.552748e+00 2.548329e+00 2.158476e+00 8.377113e-01 1.006926e+00 1.000000e-02 3.490316e-02 6.662633e-02 5.962157e-02 2.462921e-01 8.118188e-01 5.677135e-01 2.383669e-01 3.558045e-01 4.987990e-01 5.357588e-01 1.111560e-01 2.530521e-01 1.000000e-02
<GCONST> 7.387986e+01
<TRANSP> 5
 0.000000e+00 1.000000e+00 0.000000e+00 0.000000e+00 0.000000e+00
 0.000000e+00 9.444444e-01 5.555555e-02 0.000000e+00 0.000000e+00
 0.000000e+00 0.000000e+00 9.473684e-01 5.263158e-02 0.000000e+00
 0.000000e+00 0.000000e+00 0.000000e+00 9.333333e-01 6.666666e-02
 0.000000e+00 0.000000e+00 0.000000e+00 0.000000e+00 0.000000e+00
<ENDHMM>
