~o
<STREAMINFO> 1 39
<VECSIZE> 39<NULLD><MFCC_E_D_A><DIAGC>
~h "four"
<BEGINHMM>
<NUMSTATES> 5
<STATE> 2
<MEAN> 39
 -8.771555e+00 -2.978741e+00 -4.016695e+00 -1.904888e+00 -9.868767e-01 -3.309165e+00 5.166304e+00 -3.496019e-01 -3.846833e-01 3.600686e+00 -3.939344e-01 -5.576655e-01 2.057431e-01 6.581156e-01 6.482925e-01 -1.748923e-01 -1.009443e+00 -1.237450e+00 2.031659e-02 -5.894346e-01 1.292890e-01 -3.926987e-01 -4.038369e-01 1.291188e-01 -4.403776e-01 3.659793e-02 1.403562e-01 1.152694e-01 7.976065e-02 -2.537260e-01 -1.782163e-01 1.196509e-01 -1.111661e-01 7.596847e-02 1.120340e-02 -1.510504e-01 3.179094e-02 -9.135073e-02 5.133299e-03
<VARIANCE> 39
 3.012755e+01 1.458805e+01 1.009154e+01 3.641984e+01 5.031110e+01 1.244530e+01 2.395669e+01 1.518191e+01 1.575407e+01 2.352720e+01 2.195703e+01 1.325181e+01 3.683187e-02 3.874368e+00 2.388584e+00 9.655972e-01 5.419990e+00 5.315984e+00 1.394071e+00 2.972874e+00 2.378668e+00 1.652209e+00 3.369633e+00 2.507114e+00 1.761969e+00 1.000000e-02 4.724016e-01 2.785228e-01 1.599263e-01 5.004764e-01 5.323293e-01 2.895607e-01 4.318114e-01 4.702996e-01 3.143372e-01 4.642796e-01 5.141394e-01 2.776069e-01 1.000000e-02
<GCONST> 9.423520e+01
<STATE> 3
<MEAN> 39
 3.971992e+00 9.130562e+00 -3.604672e+00 -2.738232e+01 -2.245796e+01 -1.643021e-01 -7.301696e+00 8.427797e+00 -3.867240e+00 -6.437983e-01 3.372738e+00 -8.037588e+00 8.519974e-01 -8.015294e-02 -4.433108e-01 -2.897165e-01 5.617137e-02 4.185678e-01 -2.572542e-02 1.597568e-01 -2.240359e-02 -3.695404e-01 7.122182e-01 6.992172e-01 1.533326e-01 -3.861959e-03 -6.977601e-02 -1.395330e-01 -9.942504e-02 2.739923e-01 2.587894e-01 -1.471677e-01 6.186117e-02 -1.100117e-01 8.724814e-02 5.394403e-02 2.916082e-02 1.319807e-01 -5.246959e-03
<VARIANCE> 39
 3.634211e+00 2.719339e+01 1.152419e+01 2.061372e+01 2.061775e+01 2.223444e+01 2.849250e+01 1.754362e+01 5.387549e+01 4.934654e+01 2.834002e+01 2.029686e+01 1.000000e-02 2.909704e-01 1.201319e+00 6.082624e-01 2.130379e+00 1.382243e+00 2.207104e+00 1.718371e+00 1.686864e+00 2.511378e+00 2.186186e+00 2.053722e+00 1.363472e+00 1.000000e-02 1.469052e-01 1.410236e-01 6.429292e-02 2.449937e-01 2.420819e-01 3.183315e-01 2.573543e-01 1.876347e-01 3.904767e-01 5.224469e-01 2.611438e-01 2.542839e-01 1.000000e-02
<GCONST> 8.070530e+01
<STATE> 4
<MEAN> 39
 1.634104e+00 -3.244826e+00 -7.225173e+00 -4.895416e+00 -1.960854e+00 -6.838550e+00 -3.187063e+00 -2.044258e+00 2.658736e+00 5.976661e+00 6.942004e+00 1.255542e+00 4.045041e-01 -3.132600e-01 -1.484666e-01 4.065753e-01 6.093056e-01 5.574587e-01 1.977067e-02 1.793916e-01 -1.775889e-01 5.975830e-01 -3.051980e-01 -6.791407e-01 2.577251e-01 -2.316502e-02 -1.670168e-02 2.702502e-02 5.353731e-02 -9.221859e-02 -8.352940e-02 1.053334e-01 5.054034e-02 5.349514e-02 -7.626204e-02 1.259261e-02 -7.173500e-02 -3.974986e-02 8.387046e-04
<VARIANCE> 39
 1.466653e+01 6.211770e+00 3.755965e+01 3.112707e+01 1.915671e+01 1.650525e+01 3.077583e+01 1.591475e+01 3.567340e+01 2.058172e+01 4.558009e+01 2.014784e+01 4.732119e-02 2.589836e-01 5.721111e-01 1.206739e+00 2.214792e+00 1.307156e+00 1.785047e+00 2.277606e+00 1.696189e+00 2.716668e+00 2.656980e+00 1.499404e+00 1.756304e+00 1.000000e-02 2.794173e-02 1.081947e-01 1.572957e-01 2.058700e-01 2.148264e-01 2.722407e-01 3.568916e-01 3.561217e-01 3.383908e-01 5.489030e-01 3.618667e-01 3.446503e-01 1.000000e-02
<GCONST> 8.268262e+01
<TRANSP> 5
 0.000000e+00 1.000000e+00 0.000000e+00 0.000000e+00 0.000000e+00
 0.000000e+00 9.473684e-01 5.263158e-02 0.000000e+00 0.000000e+00
 0.000000e+00 0.000000e+00 9.567901e-01 4.320988e-02 0.000000e+00
 0.000000e+00 0.000000e+00 0.000000e+00 9.608939e-01 3.910615e-02
 0.000000e+00 0.000000e+00 0.000000e+00 0.000000e+00 0.000000e+00
<ENDHMM>
