~o
<STREAMINFO> 1 39
<VECSIZE> 39<NULLD><MFCC_E_D_A><DIAGC>
~h "four"
<BEGINHMM>
<NUMSTATES> 5
<STATE> 2
<MEAN> 39
 -1.426778e+01 -4.677639e+00 -5.991618e+00 -2.364585e+00 -6.357553e+00 -4.074096e+00 -4.615292e+00 -4.454998e+00 -2.984462e+00 -4.392724e+00 -2.493151e+00 -1.845465e+00 2.710452e-01 6.992415e-01 1.733539e-01 -2.009784e-01 -7.296103e-01 -6.777377e-01 3.379491e-01 1.932818e-01 -1.269912e-01 -7.470744e-02 1.381234e-01 -5.448635e-02 -7.749930e-02 3.544420e-02 4.966133e-02 -5.521205e-03 2.166890e-02 -7.877404e-02 -3.724178e-02 2.169859e-02 2.480091e-02 -9.960957e-04 3.982948e-02 -2.020508e-02 -1.309861e-02 -2.518099e-02 2.138538e-04
<VARIANCE> 39
 8.581990e+01 2.883611e+01 2.645454e+01 6.522109e+01 4.623597e+01 3.783482e+01 3.005983e+01 3.345219e+01 3.403035e+01 3.308568e+01 3.036841e+01 1.916843e+01 9.032983e-02 6.628709e+00 1.640596e+00 1.296566e+00 5.384840e+00 4.179786e+00 2.321566e+00 2.140044e+00 2.266947e+00 2.649786e+00 2.699816e+00 2.549464e+00 1.949638e+00 1.000000e-02 8.546591e-01 3.095323e-01 2.223136e-01 6.965759e-01 6.684245e-01 3.932002e-01 3.938963e-01 4.522764e-01 4.528886e-01 4.687893e-01 4.382338e-01 3.918283e-01 1.000000e-02
<GCONST> 1.052877e+02
<STATE> 3
<MEAN> 39
 4.456850e+00 -4.189438e+00 -9.265732e+00 -1.708490e+01 -1.529229e+01 2.310807e+00 6.730043e-01 -3.445526e+00 -2.561208e+00 -1.830043e+00 -3.267069e+00 -5.334442e+00 7.799717e-01 -1.031861e-01 -2.173236e-01 2.910503e-02 5.249063e-01 4.052050e-01 -3.393886e-01 -3.240595e-02 2.143859e-01 1.954934e-01 -3.413744e-03 7.326284e-02 -1.777429e-02 -9.304514e-03 -6.193748e-02 6.396276e-03 1.643918e-02 1.170560e-01 9.626819e-02 -3.177718e-02 -2.876849e-02 -1.049446e-02 -2.205604e-02 -9.718261e-03 -1.480821e-03 1.915454e-02 -2.552859e-03
<VARIANCE> 39
 5.277093e+00 5.729907e+01 2.314771e+01 1.210345e+02 1.037271e+02 8.006411e+01 4.269796e+01 6.530334e+01 9.692799e+01 7.136182e+01 9.238110e+01 5.452127e+01 1.034227e-02 2.312358e-01 8.284552e-01 5.972205e-01 1.909212e+00 1.450218e+00 2.265980e+00 1.547217e+00 1.987724e+00 1.450156e+00 2.068226e+00 1.715504e+00 1.387777e+00 1.000000e-02 5.572047e-02 8.846714e-02 8.493282e-02 2.341717e-01 2.137397e-01 3.125536e-01 2.318513e-01 3.106868e-01 2.602133e-01 3.188997e-01 2.516384e-01 2.223514e-01 1.000000e-02
<GCONST> 8.868754e+01
<STATE> 4
<MEAN> 39
 -6.074376e+00 -6.474934e+00 -4.630583e+00 -1.736305e+00 -8.362372e-01 -4.291409e+00 -3.007442e+00 -2.443109e+00 -7.890601e-01 -4.804213e+00 -1.373057e+00 -3.310304e+00 2.301768e-01 -6.104936e-01 1.084331e-01 2.203477e-01 9.697556e-02 3.021523e-01 1.270610e-02 -1.295769e-01 -1.495424e-01 -1.854841e-01 -1.825963e-01 -8.938623e-03 1.196833e-01 -2.750464e-02 3.615066e-02 -7.583928e-03 -4.459151e-02 -7.419325e-02 -8.174012e-02 6.439125e-03 1.779715e-02 -3.053154e-03 -1.039002e-02 8.493936e-03 1.066608e-02 1.239269e-02 1.631087e-03
<VARIANCE> 39
 2.146988e+01 2.228333e+01 2.093753e+01 3.980723e+01 2.101170e+01 2.906612e+01 2.881445e+01 3.051444e+01 5.255385e+01 4.377207e+01 2.455059e+01 2.151488e+01 5.742684e-02 7.156758e-01 9.578905e-01 1.232629e+00 2.444564e+00 2.100280e+00 1.793771e+00 1.907052e+00 2.093925e+00 2.257205e+00 2.070896e+00 1.703267e+00 1.491693e+00 1.000000e-02 1.029126e-01 1.442423e-01 2.054442e-01 3.138836e-01 2.988425e-01 3.128904e-01 3.491911e-01 3.399720e-01 3.691209e-01 3.528714e-01 3.021125e-01 2.788372e-01 1.000000e-02
<GCONST> 8.965620e+01
<TRANSP> 5
 0.000000e+00 1.000000e+00 0.000000e+00 0.000000e+00 0.000000e+00
 0.000000e+00 9.559748e-01 4.402515e-02 0.000000e+00 0.000000e+00
 0.000000e+00 0.000000e+00 9.626865e-01 3.731344e-02 0.000000e+00
 0.000000e+00 0.000000e+00 0.000000e+00 9.471299e-01 5.287009e-02
 0.000000e+00 0.000000e+00 0.000000e+00 0.000000e+00 0.000000e+00
<ENDHMM>
