~o
<STREAMINFO> 1 39
<VECSIZE> 39<NULLD><MFCC_E_D_A><DIAGC>
~h "junk"
<BEGINHMM>
<NUMSTATES> 5
<STATE> 2
<MEAN> 39
 -1.118075e+01 -2.614874e+00 1.796705e+00 -1.619832e+00 1.226480e-01 -1.262195e-01 3.962168e+00 -3.855885e+00 1.952791e+00 3.744934e-01 -9.356133e-01 -1.294172e-01 1.771315e-01 -2.797431e-02 -2.202771e-02 1.220385e-03 2.532980e-02 2.349797e-02 1.006477e-01 1.043950e-01 3.680507e-02 1.464860e-02 -6.178268e-02 -4.541165e-02 -2.748796e-02 1.838990e-05 1.293713e-02 9.844174e-03 -2.391530e-03 -9.734655e-03 -4.784086e-03 -1.417966e-03 1.073233e-02 2.176106e-02 1.233360e-02 2.335206e-02 1.858756e-02 -8.105141e-03 3.285026e-04
<VARIANCE> 39
 3.338425e+01 5.048777e+00 7.175155e+00 6.537631e+00 1.362048e+01 1.156521e+01 1.701330e+01 1.203731e+01 1.499463e+01 1.498942e+01 1.881434e+01 1.393753e+01 1.000000e-02 2.541578e-01 2.487998e-01 4.566345e-01 6.021533e-01 1.058400e+00 1.131907e+00 1.177352e+00 1.236839e+00 1.512554e+00 1.390048e+00 1.584332e+00 1.105295e+00 1.000000e-02 3.509136e-02 4.603876e-02 8.425046e-02 1.239338e-01 2.309122e-01 2.302541e-01 2.279992e-01 2.595638e-01 3.283613e-01 2.805650e-01 3.350288e-01 2.196703e-01 1.000000e-02
<GCONST> 6.426558e+01
<STATE> 3
<MEAN> 39
 -2.912296e+00 -4.106283e+00 1.355460e+00 -1.298351e+00 2.062842e+00 -5.801504e-01 5.545540e+00 -1.140776e+00 2.471303e+00 1.609482e+00 -1.170874e+00 2.560490e+00 2.923337e-01 -2.086314e-02 -4.860630e-02 -1.669764e-03 5.708900e-02 5.127389e-02 1.026655e-01 1.390136e-01 8.796392e-02 2.907229e-02 -5.445443e-02 -6.820564e-02 -2.857021e-02 -1.020674e-03 -8.917839e-03 -1.630570e-02 -7.746064e-04 2.646267e-03 2.671034e-02 1.230404e-03 -3.191675e-02 -2.267369e-02 -2.245338e-02 -1.879337e-02 -1.418230e-02 -4.383357e-03 1.071069e-04
<VARIANCE> 39
 9.886839e+00 5.665394e+00 7.230780e+00 7.881465e+00 1.210630e+01 1.449519e+01 1.704696e+01 1.476840e+01 1.315161e+01 1.633076e+01 1.600467e+01 1.066499e+01 4.285079e-02 2.735386e-01 5.285984e-01 5.167449e-01 6.791763e-01 1.033855e+00 1.065547e+00 1.363056e+00 1.342707e+00 1.124996e+00 1.336286e+00 1.007700e+00 1.028035e+00 1.000000e-02 4.361369e-02 9.418377e-02 1.048974e-01 1.395769e-01 2.060921e-01 2.280719e-01 2.803969e-01 2.791734e-01 2.065843e-01 2.678991e-01 1.893689e-01 1.876811e-01 1.000000e-02
<GCONST> 6.519894e+01
<STATE> 4
<MEAN> 39
 -4.917516e+00 -5.399476e+00 3.987683e-01 -2.503638e+00 3.396982e+00 2.860116e-01 5.461512e+00 -1.495323e+00 2.570409e+00 5.612887e-01 -3.847643e+00 2.710109e+00 1.132624e-01 -1.968946e-02 1.442955e-02 -1.901290e-02 7.355989e-03 -3.345308e-03 9.588204e-03 2.685292e-02 1.130567e-02 1.303268e-03 -8.433974e-03 -7.406807e-03 -1.913096e-02 8.299417e-06 -5.120724e-03 1.899053e-02 -6.173274e-03 4.081800e-03 -1.149163e-02 -2.287482e-02 -7.000063e-03 -3.467896e-03 -6.913135e-03 3.020855e-03 9.799315e-03 -3.843395e-03 3.622358e-04
<VARIANCE> 39
 1.057221e+00 2.234627e+00 3.728060e+00 5.701830e+00 7.954871e+00 1.063445e+01 1.117529e+01 1.378009e+01 1.424200e+01 1.408068e+01 1.448066e+01 1.134115e+01 1.000000e-02 1.181999e-01 2.548904e-01 3.682498e-01 6.307063e-01 7.819254e-01 1.078472e+00 1.093080e+00 1.337278e+00 1.281553e+00 1.511077e+00 1.338036e+00 1.115991e+00 1.000000e-02 2.391965e-02 5.271630e-02 7.356072e-02 1.301520e-01 1.581602e-01 2.117689e-01 2.187712e-01 2.714894e-01 2.635260e-01 3.089949e-01 2.726776e-01 2.272561e-01 1.000000e-02
<GCONST> 5.513023e+01
<TRANSP> 5
 0.000000e+00 1.000000e+00 0.000000e+00 0.000000e+00 0.000000e+00
 0.000000e+00 8.600000e-01 1.400000e-01 0.000000e+00 0.000000e+00
 0.000000e+00 0.000000e+00 8.102981e-01 1.897019e-01 0.000000e+00
 0.000000e+00 0.000000e+00 0.000000e+00 9.839743e-01 1.602564e-02
 0.000000e+00 0.000000e+00 0.000000e+00 0.000000e+00 0.000000e+00
<ENDHMM>
