~o
<STREAMINFO> 1 39
<VECSIZE> 39<NULLD><MFCC_E_D_A><DIAGC>
~h "nine"
<BEGINHMM>
<NUMSTATES> 5
<STATE> 2
<MEAN> 39
 -3.330824e+00 -1.446249e+00 7.402813e+00 -8.097748e-02 3.358409e+00 -4.434912e+00 -6.060143e+00 -8.807110e-01 -1.606727e+00 -1.634372e+00 -8.290659e+00 -3.398300e+00 5.818145e-01 4.132572e-01 -7.016719e-01 -4.111984e-02 -1.896404e-01 -2.144220e-01 3.898061e-01 -3.788213e-01 8.031152e-01 3.395726e-01 3.863809e-01 1.773676e-01 -5.317902e-01 2.669182e-02 1.609743e-02 -8.900879e-02 -2.272822e-02 -4.616004e-02 6.013718e-03 1.641173e-01 3.428264e-02 -1.053810e-01 7.557418e-02 1.658543e-03 3.387074e-02 -2.206579e-03 9.994128e-04
<VARIANCE> 39
 1.115223e+01 4.328135e+01 1.796926e+01 1.291102e+01 1.195704e+01 2.866152e+01 1.614095e+01 9.060494e+01 1.535542e+01 2.755400e+01 2.435220e+01 2.301779e+01 3.566815e-02 8.297800e-01 4.250268e+00 1.900594e+00 1.304039e+00 7.886216e-01 5.465755e+00 1.080038e+00 7.831724e+00 2.245459e+00 1.716979e+00 2.533030e+00 1.439614e+00 1.000000e-02 1.566844e-01 4.605431e-01 2.518187e-01 2.580911e-01 1.511368e-01 6.875206e-01 1.637630e-01 1.493391e+00 3.832338e-01 2.423218e-01 5.307338e-01 2.332290e-01 1.000000e-02
<GCONST> 9.116750e+01
<STATE> 3
<MEAN> 39
 -1.480505e+00 -1.139264e+01 4.425238e+00 -4.694663e+00 -1.240085e+00 -5.567327e-01 -5.746308e+00 5.493786e+00 8.679796e-01 -3.530914e-01 -1.541554e+00 -8.367586e+00 7.160771e-01 -1.017694e-01 7.136307e-01 3.893510e-01 1.522955e-01 -3.680654e-02 -6.464439e-01 2.518038e-01 -4.860960e-01 -4.410024e-01 5.611488e-02 2.184526e-01 2.497747e-01 -5.576815e-03 1.106689e-02 1.216680e-01 1.061984e-02 9.511847e-02 1.192813e-01 -6.309178e-02 -2.496502e-02 -1.903526e-02 -5.494196e-02 -4.395868e-02 -1.576537e-01 -1.092616e-02 -1.406832e-04
<VARIANCE> 39
 5.036026e+00 3.323858e+01 3.273563e+01 1.419942e+01 2.725980e+01 1.041746e+02 5.070580e+01 4.463343e+01 2.095697e+01 2.018757e+01 3.483613e+01 1.869567e+01 1.000000e-02 3.228314e-01 8.512284e-01 1.072206e+00 1.088249e+00 2.711706e+00 3.620643e+00 2.546195e+00 3.635526e+00 6.157035e-01 1.867628e+00 2.923378e+00 1.829700e+00 1.000000e-02 5.366838e-02 1.512367e-01 1.177181e-01 1.763341e-01 3.722122e-01 4.814204e-01 4.158487e-01 4.078796e-01 1.469454e-01 4.923583e-01 5.703580e-01 4.141421e-01 1.000000e-02
<GCONST> 8.626343e+01
<STATE> 4
<MEAN> 39
 -5.377742e+00 -1.078985e+00 7.514359e+00 7.602697e-02 4.476438e+00 -4.043513e+00 -5.025964e+00 -5.721666e+00 -1.816780e+00 -5.344709e+00 -9.434862e+00 -2.678560e+00 4.684382e-01 -2.108855e-01 -1.209211e-01 -3.294304e-01 3.641543e-02 3.760277e-01 2.731348e-01 -8.701962e-02 -3.236308e-01 1.948561e-01 -4.424895e-01 -5.174764e-01 1.257228e-01 -1.452614e-02 -3.835145e-02 -6.394652e-02 2.441511e-02 -7.245428e-02 -1.025279e-01 -5.825362e-02 7.967826e-03 1.376559e-01 5.869192e-03 6.565914e-02 2.062363e-01 2.975459e-02 -5.037343e-04
<VARIANCE> 39
 4.572079e+00 1.100972e+01 1.117404e+01 1.521144e+01 9.192139e+00 1.044464e+01 1.414620e+01 2.819648e+01 1.745632e+01 1.648084e+01 1.521101e+01 8.825695e+00 1.700794e-02 3.194749e-01 1.113013e+00 5.039411e-01 1.837318e+00 1.688744e+00 2.089389e+00 1.158881e+00 3.907815e+00 2.083559e+00 1.868998e+00 2.997007e+00 5.735508e-01 1.000000e-02 6.601931e-02 1.965733e-01 8.268912e-02 3.608657e-01 2.530707e-01 4.215230e-01 2.070897e-01 8.188651e-01 4.226704e-01 3.082898e-01 4.043752e-01 1.143217e-01 1.000000e-02
<GCONST> 7.514245e+01
<TRANSP> 5
 0.000000e+00 1.000000e+00 0.000000e+00 0.000000e+00 0.000000e+00
 0.000000e+00 9.428571e-01 5.714285e-02 0.000000e+00 0.000000e+00
 0.000000e+00 0.000000e+00 9.565217e-01 4.347826e-02 0.000000e+00
 0.000000e+00 0.000000e+00 0.000000e+00 9.500000e-01 5.000000e-02
 0.000000e+00 0.000000e+00 0.000000e+00 0.000000e+00 0.000000e+00
<ENDHMM>
