~o
<STREAMINFO> 1 39
<VECSIZE> 39<NULLD><MFCC_E_D_A><DIAGC>
~h "nine"
<BEGINHMM>
<NUMSTATES> 5
<STATE> 2
<MEAN> 39
 -3.035927e+00 -1.978896e+00 3.476096e+00 -3.093419e+00 -6.960418e+00 -6.594793e+00 -5.356497e+00 -6.183628e+00 -4.634332e+00 -6.028096e+00 -6.388496e+00 -4.757507e+00 5.486864e-01 4.693421e-01 -8.873023e-01 -4.573407e-01 -5.971727e-01 1.187590e-01 1.246693e-01 -5.521459e-01 4.628915e-01 7.069953e-02 -3.752617e-01 -3.722008e-01 -2.404660e-01 4.379615e-02 -8.410273e-02 -1.036598e-01 -1.509062e-01 -7.365062e-03 1.712601e-01 1.325177e-01 1.118181e-02 2.175875e-02 8.274946e-02 3.703889e-04 6.725112e-02 1.150077e-02 -4.120003e-03
<VARIANCE> 39
 5.145900e+01 8.047739e+01 6.622414e+01 6.115339e+01 8.510049e+01 6.059231e+01 6.385464e+01 9.639169e+01 6.219541e+01 5.999287e+01 6.004037e+01 4.246564e+01 1.007509e-01 2.701554e+00 5.664200e+00 5.043409e+00 3.333865e+00 5.786297e+00 4.543638e+00 4.021475e+00 7.835639e+00 4.263051e+00 3.337597e+00 2.964076e+00 2.684246e+00 1.000000e-02 4.268187e-01 8.586608e-01 6.807651e-01 5.587244e-01 7.785136e-01 7.082753e-01 7.675951e-01 1.386115e+00 7.271944e-01 5.950721e-01 5.083076e-01 4.719800e-01 1.000000e-02
<GCONST> 1.223784e+02
<STATE> 3
<MEAN> 39
 -1.819856e+00 -1.415928e+01 -4.380439e+00 -9.296064e+00 -1.256440e+00 -1.140709e+00 -9.071721e+00 -5.780903e-01 -2.497901e+00 -1.052384e+01 -6.453252e+00 -7.551630e+00 7.783680e-01 -5.788083e-02 1.706905e-01 5.198123e-01 -1.284427e-02 -4.953985e-01 -5.090296e-02 3.664950e-01 -8.829790e-02 -2.043260e-01 1.140266e-01 1.389138e-01 4.387839e-02 -5.883422e-03 -1.560336e-02 9.662271e-02 1.286037e-01 -5.439327e-03 -1.275362e-01 -6.553560e-02 5.533326e-02 -4.674277e-03 -6.562919e-02 6.233602e-02 -6.042907e-03 1.289401e-02 -9.711842e-04
<VARIANCE> 39
 2.296400e+01 5.410298e+01 6.035719e+01 5.899601e+01 1.063168e+02 7.639850e+01 7.860175e+01 7.747413e+01 8.937042e+01 8.054028e+01 7.452905e+01 5.506864e+01 1.000000e-02 2.126946e-01 5.880190e-01 1.201641e+00 1.113328e+00 2.024791e+00 1.590798e+00 2.032846e+00 1.812814e+00 1.746244e+00 1.725284e+00 1.555876e+00 1.550066e+00 1.000000e-02 3.018535e-02 8.046338e-02 1.032442e-01 1.423037e-01 1.902121e-01 2.182467e-01 2.630952e-01 2.837936e-01 2.665932e-01 2.643324e-01 2.451960e-01 2.393300e-01 1.000000e-02
<GCONST> 8.924618e+01
<STATE> 4
<MEAN> 39
 -5.257298e+00 -1.563756e+00 5.304750e+00 -3.187546e+00 -6.336877e+00 -4.979708e+00 -2.202287e+00 -4.802622e+00 -5.301759e+00 -5.242179e+00 -4.570315e+00 -4.603771e+00 4.254357e-01 -2.666091e-01 2.849118e-01 -1.698219e-01 3.271428e-01 3.605539e-01 -2.230949e-02 5.587076e-02 -8.766532e-02 1.378647e-01 9.531973e-02 1.379132e-01 1.262695e-01 -2.192387e-02 -5.572232e-03 -4.563465e-02 -6.152698e-02 1.201406e-02 4.712734e-02 1.000149e-02 -1.992462e-02 3.071908e-02 3.897899e-02 -2.454248e-02 2.828296e-04 1.045229e-02 -2.380605e-04
<VARIANCE> 39
 3.251419e+01 4.219997e+01 4.888273e+01 7.969804e+01 7.448907e+01 5.193867e+01 4.923872e+01 6.764189e+01 5.513898e+01 5.164815e+01 5.079594e+01 3.698488e+01 7.463283e-02 7.356728e-01 1.574149e+00 1.656175e+00 2.470713e+00 2.237315e+00 2.584853e+00 2.346243e+00 3.338260e+00 2.424594e+00 2.555474e+00 2.200584e+00 1.839807e+00 1.000000e-02 9.273239e-02 1.757199e-01 2.383318e-01 3.700955e-01 3.552648e-01 4.317728e-01 4.161563e-01 5.256343e-01 4.192165e-01 4.182752e-01 3.802511e-01 3.348941e-01 1.000000e-02
<GCONST> 1.020776e+02
<TRANSP> 5
 0.000000e+00 1.000000e+00 0.000000e+00 0.000000e+00 0.000000e+00
 0.000000e+00 9.338111e-01 6.618896e-02 0.000000e+00 0.000000e+00
 0.000000e+00 0.000000e+00 9.501474e-01 4.985255e-02 0.000000e+00
 0.000000e+00 0.000000e+00 0.000000e+00 9.641054e-01 3.589457e-02
 0.000000e+00 0.000000e+00 0.000000e+00 0.000000e+00 0.000000e+00
<ENDHMM>
