~o
<STREAMINFO> 1 39
<VECSIZE> 39<NULLD><MFCC_E_D_A><DIAGC>
~h "nine"
<BEGINHMM>
<NUMSTATES> 5
<STATE> 2
<MEAN> 39
 -3.213871e+00 -3.904178e+00 3.149442e+00 -2.972058e+00 -4.701428e+00 -5.166004e+00 -7.346817e+00 -5.752697e+00 -3.433372e+00 -5.325963e+00 -3.858294e+00 -5.419245e+00 4.299341e-01 5.222418e-01 -9.196268e-01 -1.359727e-01 -4.782653e-01 -1.395532e-01 3.619311e-01 -5.604480e-01 5.666682e-01 2.519616e-01 2.419690e-01 -4.447675e-01 -4.265677e-01 4.336675e-02 -7.372500e-02 -1.285541e-01 -1.502486e-01 -7.604185e-02 1.059310e-01 1.280621e-01 -2.279202e-02 3.061636e-02 4.233631e-02 -2.767081e-02 1.339335e-02 -6.401045e-03 -2.186670e-03
<VARIANCE> 39
 2.999797e+01 7.431566e+01 3.783276e+01 4.840169e+01 6.433767e+01 5.096672e+01 4.544635e+01 5.563142e+01 5.367911e+01 9.228894e+01 3.312559e+01 4.278808e+01 1.300774e-01 1.868570e+00 6.131905e+00 4.746247e+00 3.651616e+00 4.101734e+00 4.037181e+00 3.592080e+00 5.748048e+00 4.125463e+00 4.904421e+00 2.125067e+00 3.286520e+00 1.000000e-02 2.757525e-01 8.570873e-01 6.174705e-01 5.636919e-01 5.479084e-01 6.825616e-01 6.545314e-01 1.023726e+00 7.803568e-01 8.820162e-01 4.418322e-01 5.637359e-01 1.000000e-02
<GCONST> 1.177759e+02
<STATE> 3
<MEAN> 39
 -8.423342e-01 -1.889372e+01 -2.766679e+00 -9.633437e+00 2.662094e-01 4.034933e+00 -1.066138e+01 1.606592e+00 -1.719390e+00 -4.754663e+00 -5.938583e+00 -9.051069e+00 7.746657e-01 -8.087564e-02 2.429777e-01 5.024714e-01 1.838004e-01 -4.157287e-01 -1.282739e-01 5.585498e-01 -1.708022e-01 -1.322849e-01 3.786974e-02 2.320556e-01 9.258884e-02 -8.206302e-03 1.513723e-03 1.125816e-01 9.042587e-02 2.507281e-02 -8.999293e-02 -9.858241e-02 7.686452e-02 -7.892188e-02 -2.056520e-02 3.772986e-02 -7.610566e-05 1.736596e-02 -1.480181e-03
<VARIANCE> 39
 1.081583e+01 2.140036e+01 5.651887e+01 9.811356e+01 1.188523e+02 7.589272e+01 6.265742e+01 4.246838e+01 8.552627e+01 4.887158e+01 3.387875e+01 5.078448e+01 1.118807e-02 2.675779e-01 7.849061e-01 1.269689e+00 1.505232e+00 2.812438e+00 2.442094e+00 2.258691e+00 2.168114e+00 1.997772e+00 1.306228e+00 1.767555e+00 1.665192e+00 1.000000e-02 3.857200e-02 1.161807e-01 1.381646e-01 2.111558e-01 2.534279e-01 2.557080e-01 2.975250e-01 3.352093e-01 3.409656e-01 2.129568e-01 3.179611e-01 2.408189e-01 1.000000e-02
<GCONST> 9.028643e+01
<STATE> 4
<MEAN> 39
 -6.088367e+00 -4.008356e+00 4.009478e+00 -2.889192e+00 -5.896678e+00 -2.230605e+00 -8.851451e-01 -5.690002e+00 -2.125804e+00 -4.573779e+00 -3.478424e+00 -4.976959e+00 3.466396e-01 -2.770456e-01 3.176187e-01 -3.707490e-01 1.527960e-01 4.064983e-01 -9.999572e-02 -1.389081e-01 -1.861262e-01 -2.043928e-02 -1.451111e-01 9.086111e-02 1.842228e-01 -1.858414e-02 4.182588e-03 -5.103508e-02 -2.541741e-02 5.745270e-03 2.369134e-02 1.830108e-02 -3.246812e-02 5.404492e-02 -9.262577e-03 -1.184607e-02 9.359802e-03 2.211159e-04 2.346982e-04
<VARIANCE> 39
 1.906684e+01 2.834422e+01 3.327843e+01 6.070402e+01 7.227812e+01 3.425137e+01 3.169922e+01 2.619870e+01 2.787309e+01 4.439458e+01 2.362546e+01 1.920831e+01 6.216716e-02 4.761330e-01 1.372871e+00 1.708855e+00 2.286173e+00 2.004972e+00 2.008628e+00 1.576819e+00 1.980821e+00 1.718126e+00 1.765815e+00 1.593423e+00 1.397510e+00 1.000000e-02 7.886198e-02 1.479811e-01 2.774208e-01 3.265753e-01 3.379762e-01 3.489346e-01 3.254400e-01 3.281330e-01 3.065177e-01 3.258626e-01 2.792745e-01 2.656780e-01 1.000000e-02
<GCONST> 9.061551e+01
<TRANSP> 5
 0.000000e+00 1.000000e+00 0.000000e+00 0.000000e+00 0.000000e+00
 0.000000e+00 9.410775e-01 5.892256e-02 0.000000e+00 0.000000e+00
 0.000000e+00 0.000000e+00 9.573171e-01 4.268293e-02 0.000000e+00
 0.000000e+00 0.000000e+00 0.000000e+00 9.653808e-01 3.461919e-02
 0.000000e+00 0.000000e+00 0.000000e+00 0.000000e+00 0.000000e+00
<ENDHMM>
