~o
<STREAMINFO> 1 39
<VECSIZE> 39<NULLD><MFCC_E_D_A><DIAGC>
~h "nine"
<BEGINHMM>
<NUMSTATES> 5
<STATE> 2
<MEAN> 39
 6.071320e-01 -1.917080e-01 4.120276e-01 -4.315031e+00 -3.617746e+00 -1.238109e+00 -2.462560e+00 -3.435583e+00 -2.165199e+00 2.858779e+00 -2.071265e+00 -8.149283e+00 5.212079e-01 6.471025e-01 -3.410092e-01 -7.168314e-01 -6.239471e-01 -8.422845e-01 1.288816e-01 -6.353571e-01 1.946961e-01 1.970188e-01 3.293048e-01 6.820560e-01 -1.536315e+00 4.849014e-02 1.099931e-02 -2.280672e-01 -1.266120e-01 -1.208142e-01 9.306055e-03 3.324512e-01 9.202255e-02 1.603872e-02 7.484215e-02 -1.297598e-01 1.679318e-01 -1.049481e-02 -1.571092e-03
<VARIANCE> 39
 1.437866e+01 2.251623e+01 2.445744e+01 1.156754e+01 3.106250e+01 2.334281e+01 3.982654e+01 2.558354e+01 2.410088e+01 2.817972e+01 1.392982e+01 5.523584e+01 5.481789e-02 1.292490e+00 3.688618e+00 3.028068e+00 9.575030e-01 1.912093e+00 6.354966e+00 3.954459e+00 3.789134e+00 3.541619e+00 2.771324e+00 1.464395e+00 2.457387e+00 1.000000e-02 2.456839e-01 3.702558e-01 4.439061e-01 1.334584e-01 4.290643e-01 1.334839e+00 5.918645e-01 7.848071e-01 6.253382e-01 5.260481e-01 2.212625e-01 5.463546e-01 1.000000e-02
<GCONST> 9.929050e+01
<STATE> 3
<MEAN> 39
 4.800850e+00 -9.212841e+00 -9.014961e+00 -1.781227e+01 -7.600010e+00 1.107422e+01 -3.542293e+00 5.518776e-01 1.832817e+00 -1.994387e+00 7.063272e+00 -1.731813e+01 7.892265e-01 -1.250000e-01 3.985990e-02 1.794089e-01 1.072219e-02 6.635325e-02 -3.331409e-01 -4.015547e-02 2.916284e-01 -1.995480e-02 -1.012203e-01 -1.019145e-01 2.154563e-01 -8.214576e-03 -7.254528e-02 1.252258e-01 1.322136e-01 1.105625e-01 -4.241183e-02 -3.261603e-01 4.565246e-02 6.018190e-02 -5.520042e-02 6.074719e-02 -8.272500e-02 1.643295e-01 -1.928608e-03
<VARIANCE> 39
 5.230099e+00 1.201793e+01 4.019124e+00 2.134894e+01 9.434076e+00 3.998673e+01 8.178893e+00 1.057243e+01 1.378857e+01 3.236042e+01 1.778811e+01 1.288953e+01 1.000000e-02 2.874383e-01 3.853550e-01 5.639926e-01 2.063426e+00 9.481461e-01 4.734118e+00 6.959614e-01 1.056850e+00 8.312101e-01 2.634889e+00 1.591085e+00 1.736364e+00 1.000000e-02 3.146638e-02 8.231133e-02 1.198372e-01 1.129475e-01 1.718036e-01 1.996636e-01 1.448675e-01 1.651774e-01 1.966116e-01 3.821033e-01 2.567948e-01 3.422923e-01 1.000000e-02
<GCONST> 6.694496e+01
<STATE> 4
<MEAN> 39
 -1.319410e+00 -3.559259e+00 3.484227e+00 -5.032542e+00 -5.824657e+00 -6.202180e+00 2.443590e+00 2.366219e+00 -1.302890e+00 2.873233e+00 3.775953e+00 -1.169112e+00 3.905361e-01 -2.063949e-01 9.108429e-02 2.456279e-01 2.645167e-01 4.070982e-01 1.086261e-01 3.189193e-01 -3.367962e-01 -6.408121e-02 2.349564e-03 -1.956763e-01 6.306081e-01 -1.832713e-02 1.956923e-02 -2.504932e-02 -5.798039e-02 -2.556172e-02 3.402775e-02 1.098806e-01 -1.308218e-02 -5.553836e-02 2.345820e-02 1.707883e-02 -1.368579e-02 -1.041304e-01 4.110232e-04
<VARIANCE> 39
 3.977412e+00 6.974155e+00 2.017451e+01 1.284951e+01 4.657443e+01 1.652844e+01 1.309767e+01 3.709230e+01 2.318167e+01 1.317494e+01 3.441464e+01 3.520297e+01 3.379875e-02 1.741062e-01 5.851972e-01 1.375024e+00 9.290559e-01 1.842708e+00 1.335674e+00 1.566826e+00 1.901804e+00 2.346377e+00 1.473791e+00 1.982134e+00 1.577797e+00 1.000000e-02 2.933317e-02 8.432719e-02 1.465158e-01 1.950947e-01 2.954788e-01 2.123628e-01 3.310951e-01 3.255940e-01 4.223105e-01 3.002060e-01 3.280227e-01 2.726833e-01 1.000000e-02
<GCONST> 7.691534e+01
<TRANSP> 5
 0.000000e+00 1.000000e+00 0.000000e+00 0.000000e+00 0.000000e+00
 0.000000e+00 9.239131e-01 7.608696e-02 0.000000e+00 0.000000e+00
 0.000000e+00 0.000000e+00 9.513889e-01 4.861111e-02 0.000000e+00
 0.000000e+00 0.000000e+00 0.000000e+00 9.635417e-01 3.645834e-02
 0.000000e+00 0.000000e+00 0.000000e+00 0.000000e+00 0.000000e+00
<ENDHMM>
