~o
<STREAMINFO> 1 39
<VECSIZE> 39<NULLD><MFCC_E_D_A><DIAGC>
~h "one"
<BEGINHMM>
<NUMSTATES> 5
<STATE> 2
<MEAN> 39
 -4.337194e+00 1.732933e+00 4.989283e+00 -2.955791e+00 1.074927e+00 -4.855575e+00 -4.015428e+00 -5.114907e+00 1.201899e+00 -4.422101e+00 -5.699338e+00 -1.231295e+00 5.012503e-01 6.642433e-01 3.949326e-01 4.820909e-02 -1.083401e+00 -1.248431e+00 1.741203e-02 3.074729e-01 4.028474e-01 5.902390e-01 3.461081e-02 2.426077e-01 -3.420684e-02 2.885560e-02 4.627267e-02 -1.169005e-01 -7.055189e-02 -1.676372e-01 -8.235649e-02 3.009716e-01 1.564928e-01 -9.128999e-03 5.767103e-02 -1.022607e-01 2.920355e-02 3.939798e-02 1.225171e-03
<VARIANCE> 39
 2.131526e+01 1.738799e+01 6.125752e+00 2.877189e+01 5.128324e+01 1.699239e+01 1.834946e+01 1.258909e+01 2.756453e+01 1.368439e+01 1.159889e+01 1.011669e+01 3.138512e-02 1.088999e+00 1.159503e+00 9.756225e-01 3.105002e+00 3.462053e+00 3.692446e+00 3.263092e+00 1.255366e+00 2.579206e+00 1.854516e+00 1.152826e+00 1.369180e+00 1.000000e-02 1.810061e-01 2.389201e-01 1.762888e-01 3.866223e-01 5.416566e-01 7.432590e-01 5.400944e-01 2.517474e-01 5.447556e-01 3.610837e-01 2.383472e-01 2.674989e-01 1.000000e-02
<GCONST> 8.721367e+01
<STATE> 3
<MEAN> 39
 1.970783e+00 -3.337331e+00 6.313474e-01 -1.508428e+01 -8.426402e+00 8.803564e+00 -4.681155e-01 -2.396191e+00 3.063374e+00 -2.260694e+00 1.288910e+00 -3.025411e+00 7.781305e-01 -3.454993e-01 -6.751470e-01 -5.946507e-02 1.111648e+00 1.156677e+00 1.439301e-02 -6.119319e-01 -3.112512e-01 -1.133035e+00 9.837260e-01 9.994231e-01 -8.738800e-01 -5.839471e-03 -7.306290e-02 3.459358e-01 2.795467e-01 4.303100e-01 1.967966e-01 -7.363845e-01 -2.107090e-01 -1.174640e-01 -1.642662e-01 1.429305e-01 -9.391952e-02 -6.757715e-02 -2.838446e-03
<VARIANCE> 39
 4.244845e+00 1.668645e+01 1.488628e+01 2.665884e+01 3.979957e+01 3.736448e+01 4.351915e+01 2.389466e+01 2.792988e+01 4.148577e+01 3.452152e+01 3.739412e+01 1.000000e-02 3.654000e-01 1.728007e+00 1.710975e+00 2.356802e+00 1.371496e+00 1.095042e+01 3.519644e+00 2.061031e+00 1.506976e+00 2.669173e+00 1.342262e+00 2.481231e+00 1.000000e-02 7.723250e-02 1.191741e-01 1.344060e-01 2.429790e-01 4.233271e-01 4.189835e-01 7.439676e-01 4.357336e-01 3.581018e-01 5.205365e-01 2.573656e-01 5.000830e-01 1.000000e-02
<GCONST> 9.009966e+01
<STATE> 4
<MEAN> 39
 -4.704346e+00 -3.366415e-01 6.937809e+00 -6.735647e-01 3.400222e+00 -5.051719e+00 -4.445262e+00 -4.997714e+00 -2.968801e+00 -4.416930e-01 -2.956117e+00 -5.282515e+00 5.360473e-01 -4.114069e-01 -2.308327e-02 -6.052868e-05 2.427421e-01 3.032230e-01 -3.302056e-02 2.064730e-01 -1.366137e-01 1.248409e-01 -5.008111e-01 -5.798594e-01 4.108031e-01 -1.808835e-02 2.812836e-02 -7.590026e-02 -7.983906e-02 -1.032346e-01 -4.209795e-02 1.798716e-01 -1.775726e-02 4.298530e-02 7.489628e-02 -3.253175e-02 2.588461e-02 1.193021e-02 1.051806e-03
<VARIANCE> 39
 9.606936e+00 1.614845e+01 1.072375e+01 1.701908e+01 1.127794e+01 1.628139e+01 1.668041e+01 1.484269e+01 2.709894e+01 2.316922e+01 3.450018e+01 2.054955e+01 2.895863e-02 3.514885e-01 1.734869e+00 1.125666e+00 2.124780e+00 1.453402e+00 2.609611e+00 1.495527e+00 1.460556e+00 2.489925e+00 1.130717e+00 2.069170e+00 9.852442e-01 1.000000e-02 7.633051e-02 2.082624e-01 1.314532e-01 4.039815e-01 2.484618e-01 5.629613e-01 2.884386e-01 2.792635e-01 4.607688e-01 2.574460e-01 3.351982e-01 1.667768e-01 1.000000e-02
<GCONST> 8.056706e+01
<TRANSP> 5
 0.000000e+00 1.000000e+00 0.000000e+00 0.000000e+00 0.000000e+00
 0.000000e+00 9.340659e-01 6.593407e-02 0.000000e+00 0.000000e+00
 0.000000e+00 0.000000e+00 9.062500e-01 9.375000e-02 0.000000e+00
 0.000000e+00 0.000000e+00 0.000000e+00 9.512195e-01 4.878049e-02
 0.000000e+00 0.000000e+00 0.000000e+00 0.000000e+00 0.000000e+00
<ENDHMM>
