~o
<STREAMINFO> 1 39
<VECSIZE> 39<NULLD><MFCC_E_D_A><DIAGC>
~h "one"
<BEGINHMM>
<NUMSTATES> 5
<STATE> 2
<MEAN> 39
 -3.000473e+00 6.443933e-01 -2.420342e+00 -8.841101e+00 -7.542008e+00 -4.334519e+00 -2.722944e+00 -4.310236e+00 -3.060893e+00 -7.509455e+00 -1.956275e+00 -2.223938e+00 3.257377e-01 1.082384e+00 1.715937e-01 -3.850771e-01 -1.502233e+00 -1.112038e+00 8.884020e-01 2.351362e-01 2.123641e-01 1.538786e-01 -7.767749e-02 -5.134676e-02 2.992381e-02 5.275112e-02 -9.604542e-02 -2.449193e-01 -1.070957e-01 -8.758678e-02 1.322021e-01 2.964154e-01 -1.036067e-01 2.500764e-02 7.931551e-03 3.272326e-02 9.290602e-02 -2.989223e-02 -1.188814e-03
<VARIANCE> 39
 6.193431e+01 3.346111e+01 2.768635e+01 6.809319e+01 7.991047e+01 4.338900e+01 2.910520e+01 3.148052e+01 3.662829e+01 3.116544e+01 2.786919e+01 2.365886e+01 1.223009e-01 2.527572e+00 3.210947e+00 1.861982e+00 3.471279e+00 5.100562e+00 5.128765e+00 2.656656e+00 2.935140e+00 2.661346e+00 1.957932e+00 3.083893e+00 2.091635e+00 1.000000e-02 4.308312e-01 4.361085e-01 2.709715e-01 4.964114e-01 8.568248e-01 5.726687e-01 5.726640e-01 5.565184e-01 4.575154e-01 4.039375e-01 4.594658e-01 4.640775e-01 1.000000e-02
<GCONST> 1.080722e+02
<STATE> 3
<MEAN> 39
 1.060238e+00 -9.972794e+00 -4.962226e+00 -1.426908e+01 -5.504844e+00 6.724872e+00 -9.969592e+00 -3.192729e-01 -1.230077e+00 -6.994025e+00 -4.483239e+00 -6.360917e+00 7.671494e-01 -2.697066e-01 -1.955548e-01 3.992758e-01 8.971471e-01 5.804777e-01 -3.595706e-01 -1.904909e-01 -7.839236e-02 -2.026786e-02 1.993866e-02 -1.144665e-01 -2.458891e-01 -8.176301e-03 -4.497031e-03 1.202883e-01 3.544585e-02 8.935967e-02 -1.346326e-02 -1.385889e-01 1.006508e-01 -4.027959e-02 -1.729231e-02 -8.516021e-03 -4.909738e-02 3.589268e-02 -2.471181e-03
<VARIANCE> 39
 1.169588e+01 5.211792e+01 5.833041e+01 1.471010e+02 8.974782e+01 1.383264e+02 5.942463e+01 5.284069e+01 9.739197e+01 9.456381e+01 7.001835e+01 7.685461e+01 1.655928e-02 3.826961e-01 2.886769e+00 1.259802e+00 1.978376e+00 2.664969e+00 3.927618e+00 3.092362e+00 3.018761e+00 2.185885e+00 2.427630e+00 2.183004e+00 2.497957e+00 1.000000e-02 4.251643e-02 2.033990e-01 1.631833e-01 2.860110e-01 3.230065e-01 5.355601e-01 3.657970e-01 4.418423e-01 3.521743e-01 4.194214e-01 3.681256e-01 3.628993e-01 1.000000e-02
<GCONST> 1.026758e+02
<STATE> 4
<MEAN> 39
 -6.487063e+00 -3.247608e+00 6.045662e-01 -1.389913e-02 1.008008e+00 -1.432134e+00 -2.868696e+00 -4.991634e+00 -2.550934e+00 -6.533866e+00 -2.767699e+00 -4.550160e+00 2.709406e-01 -4.049400e-01 5.077638e-02 -2.784678e-01 -1.126235e-01 3.398058e-02 -8.397462e-02 1.202264e-01 2.382347e-03 -7.957430e-02 1.274983e-02 1.013283e-01 2.514475e-01 -2.272600e-02 1.507635e-02 -3.548983e-02 -9.608367e-03 -5.172137e-02 -4.102376e-02 -1.754844e-03 -4.975913e-02 3.044605e-02 1.967480e-03 -4.334938e-03 -1.700054e-03 -8.450818e-03 9.236331e-04
<VARIANCE> 39
 1.823128e+01 1.489207e+01 2.374397e+01 4.490626e+01 1.742443e+01 3.385600e+01 1.873853e+01 2.190030e+01 3.048862e+01 3.762156e+01 1.797778e+01 2.307205e+01 7.601730e-02 4.288799e-01 7.223459e-01 1.164210e+00 1.331717e+00 1.277928e+00 1.470950e+00 1.591799e+00 1.448382e+00 1.500990e+00 1.973885e+00 1.385813e+00 1.297370e+00 1.000000e-02 6.845727e-02 1.131564e-01 1.689296e-01 2.181899e-01 2.427854e-01 2.605229e-01 2.916001e-01 2.848879e-01 3.107295e-01 3.633307e-01 2.781366e-01 2.570625e-01 1.000000e-02
<GCONST> 8.211237e+01
<TRANSP> 5
 0.000000e+00 1.000000e+00 0.000000e+00 0.000000e+00 0.000000e+00
 0.000000e+00 9.275362e-01 7.246377e-02 0.000000e+00 0.000000e+00
 0.000000e+00 0.000000e+00 9.615384e-01 3.846154e-02 0.000000e+00
 0.000000e+00 0.000000e+00 0.000000e+00 9.575243e-01 4.247573e-02
 0.000000e+00 0.000000e+00 0.000000e+00 0.000000e+00 0.000000e+00
<ENDHMM>
