~o
<STREAMINFO> 1 39
<VECSIZE> 39<NULLD><MFCC_E_D_A><DIAGC>
~h "one"
<BEGINHMM>
<NUMSTATES> 5
<STATE> 2
<MEAN> 39
 -5.624176e-01 4.575239e+00 -5.430051e-01 -9.790868e+00 -9.055087e+00 -4.841541e+00 -3.778477e+00 -4.007358e+00 -4.195878e+00 -5.630403e+00 -3.860781e+00 -4.859474e+00 4.694279e-01 1.048674e+00 9.651569e-02 -4.282543e-01 -1.773002e+00 -8.503461e-01 5.162818e-01 -1.181898e-01 2.111803e-01 -2.093298e-01 -1.901271e-01 -8.856048e-02 -2.493597e-01 5.377430e-02 -1.729950e-01 -2.707369e-01 -1.280963e-01 -1.933326e-02 2.539544e-01 2.737276e-01 4.832738e-02 4.006959e-02 2.327987e-02 1.740686e-03 6.616602e-02 4.539564e-02 -3.669503e-03
<VARIANCE> 39
 7.396833e+01 4.467758e+01 4.538953e+01 1.183808e+02 8.285110e+01 5.100171e+01 5.189440e+01 4.486676e+01 4.353242e+01 3.843201e+01 4.154119e+01 3.071273e+01 1.032915e-01 3.142823e+00 3.600336e+00 2.517807e+00 4.696831e+00 4.733899e+00 5.185417e+00 3.206952e+00 3.367646e+00 3.065822e+00 2.988073e+00 2.540519e+00 2.165573e+00 1.000000e-02 4.938763e-01 4.768504e-01 3.511677e-01 7.292314e-01 8.189356e-01 6.696932e-01 5.681517e-01 5.849041e-01 5.264963e-01 5.115491e-01 4.380555e-01 3.757961e-01 1.000000e-02
<GCONST> 1.143345e+02
<STATE> 3
<MEAN> 39
 1.006080e+00 -9.144636e+00 -7.479184e+00 -1.679176e+01 -3.219145e+00 3.743451e+00 -8.260999e+00 -2.298386e+00 -4.905187e+00 -7.448416e+00 -4.808249e+00 -7.409667e+00 7.958496e-01 -2.794399e-01 -4.185755e-01 3.379487e-01 1.070182e+00 4.790891e-01 -4.307616e-01 -2.340169e-01 -1.968334e-01 7.512394e-02 -4.369782e-03 -1.816494e-01 -1.112255e-02 -7.457522e-03 2.176827e-02 2.000519e-01 1.499107e-01 1.587637e-01 -1.138184e-01 -2.170255e-01 2.871225e-02 -9.358903e-02 -1.590736e-02 3.546591e-02 -1.281357e-02 1.333797e-02 -2.388871e-03
<VARIANCE> 39
 2.672667e+01 6.568570e+01 5.933466e+01 1.068941e+02 1.122010e+02 9.930509e+01 8.544021e+01 8.677162e+01 8.795361e+01 8.194623e+01 8.814187e+01 5.697522e+01 1.010042e-02 4.130316e-01 2.280861e+00 1.895166e+00 2.150396e+00 3.991676e+00 3.780392e+00 2.902842e+00 3.514525e+00 2.828882e+00 2.788980e+00 2.477689e+00 2.326718e+00 1.000000e-02 5.283951e-02 1.446482e-01 1.757973e-01 3.288829e-01 4.001331e-01 4.363394e-01 4.424945e-01 5.786767e-01 4.670083e-01 4.497356e-01 4.024127e-01 3.820250e-01 1.000000e-02
<GCONST> 1.056654e+02
<STATE> 4
<MEAN> 39
 -4.712064e+00 -5.481753e-01 2.747676e+00 -6.463864e-02 -2.557646e+00 -6.523472e+00 -3.778917e+00 -5.730573e+00 -3.742076e+00 -6.214792e+00 -5.136848e+00 -4.094401e+00 3.984859e-01 -3.918680e-01 1.615752e-01 -1.005263e-02 1.724207e-01 1.673272e-01 7.722972e-02 2.503295e-01 7.142655e-02 7.050703e-02 7.943176e-02 1.867573e-01 1.606107e-01 -2.250748e-02 -1.373999e-02 -6.987280e-02 -7.280860e-02 -6.611140e-02 1.685061e-02 6.068539e-02 -1.766395e-02 7.236046e-02 3.453610e-02 -3.531937e-03 1.271695e-02 -4.721137e-03 1.076998e-04
<VARIANCE> 39
 3.832193e+01 3.236078e+01 4.600737e+01 4.039443e+01 5.441015e+01 5.466236e+01 4.604213e+01 5.553919e+01 5.403259e+01 5.514827e+01 4.712503e+01 3.566972e+01 7.568699e-02 5.791724e-01 1.411169e+00 1.558745e+00 1.685091e+00 1.793261e+00 2.058846e+00 2.006686e+00 2.861407e+00 2.104087e+00 2.104288e+00 1.882393e+00 1.668443e+00 1.000000e-02 7.889037e-02 1.772563e-01 2.337489e-01 2.803062e-01 3.023084e-01 3.542588e-01 3.506538e-01 4.636007e-01 3.774899e-01 3.759263e-01 3.385870e-01 3.057568e-01 1.000000e-02
<GCONST> 9.699105e+01
<TRANSP> 5
 0.000000e+00 1.000000e+00 0.000000e+00 0.000000e+00 0.000000e+00
 0.000000e+00 9.177437e-01 8.225628e-02 0.000000e+00 0.000000e+00
 0.000000e+00 0.000000e+00 9.462703e-01 5.372972e-02 0.000000e+00
 0.000000e+00 0.000000e+00 0.000000e+00 9.603665e-01 3.963346e-02
 0.000000e+00 0.000000e+00 0.000000e+00 0.000000e+00 0.000000e+00
<ENDHMM>
