~o
<STREAMINFO> 1 39
<VECSIZE> 39<NULLD><MFCC_E_D_A><DIAGC>
~h "one"
<BEGINHMM>
<NUMSTATES> 5
<STATE> 2
<MEAN> 39
 4.250800e+00 5.135386e+00 1.992044e-01 -1.113044e+01 -1.355341e+01 -3.332253e+00 -1.700039e+00 -2.853513e-01 2.180819e-01 -3.653532e+00 -1.932297e+00 -4.775559e+00 5.886008e-01 6.290613e-01 8.043320e-01 -2.966831e-01 -1.533070e+00 -1.756016e+00 9.115104e-02 -6.767233e-01 8.207115e-01 1.468900e-01 -4.982474e-01 7.156534e-01 -6.265138e-01 5.108202e-02 -3.742334e-02 -1.014171e-01 -6.640542e-02 -1.466335e-01 4.248609e-02 1.970225e-01 1.029711e-01 8.298358e-02 1.832329e-02 2.806391e-02 6.622172e-02 2.071994e-02 8.893872e-05
<VARIANCE> 39
 2.548915e+01 3.776711e+01 6.728076e+00 6.784782e+01 1.215057e+02 1.948250e+01 4.130075e+01 3.182882e+01 4.129108e+01 1.817439e+01 2.715542e+01 2.958450e+01 7.167584e-02 2.097647e+00 1.936416e+00 8.442357e-01 1.781231e+00 3.230378e+00 2.638802e+00 3.231683e+00 2.096685e+00 2.343090e+00 1.434229e+00 1.532004e+00 2.168108e+00 1.000000e-02 3.006557e-01 3.380993e-01 1.451900e-01 2.307777e-01 5.748182e-01 3.305947e-01 5.342233e-01 3.183615e-01 3.590470e-01 2.448349e-01 2.325685e-01 4.012033e-01 1.000000e-02
<GCONST> 9.544553e+01
<STATE> 3
<MEAN> 39
 3.881903e+00 -1.851320e+00 -7.335983e+00 -2.343613e+01 -9.962012e+00 8.177276e+00 -4.889653e+00 5.646403e+00 -5.336645e-01 2.003676e+00 6.710159e+00 -1.125004e+01 7.987856e-01 -1.386692e-01 -3.900888e-01 5.233277e-02 5.775071e-01 9.891383e-01 -4.101402e-01 -1.072363e-01 -1.500296e-01 -1.356867e-01 7.127933e-01 -1.669732e-01 -1.341342e-01 -1.347642e-02 -3.653150e-03 8.158824e-02 7.919808e-02 1.110422e-01 6.448953e-03 -1.754562e-01 -1.587334e-02 -5.679553e-02 1.516535e-02 2.508464e-03 -5.858353e-02 3.608036e-02 -1.370065e-03
<VARIANCE> 39
 3.119561e+00 1.801414e+01 1.020032e+01 4.684648e+01 7.642378e+01 5.498712e+01 1.600310e+01 2.235118e+01 2.616366e+01 4.261538e+01 1.727442e+01 2.265621e+01 1.661978e-02 1.325698e-01 9.050205e-01 8.742704e-01 1.256099e+00 1.330947e+00 3.488388e+00 1.034311e+00 1.469396e+00 1.800477e+00 1.199530e+00 1.159261e+00 1.463572e+00 1.000000e-02 2.342110e-02 6.204234e-02 7.854837e-02 1.772661e-01 1.969448e-01 1.819759e-01 1.836721e-01 2.709357e-01 2.705315e-01 2.336920e-01 1.988999e-01 2.472900e-01 1.000000e-02
<GCONST> 7.409227e+01
<STATE> 4
<MEAN> 39
 -1.000047e+00 -2.979564e-01 7.486798e-01 -5.010205e+00 1.696482e+00 -4.704010e+00 -2.474255e-01 9.569315e-01 2.679133e+00 4.413245e+00 3.101028e-01 -3.642569e-01 3.781799e-01 -2.591885e-01 -1.449364e-01 1.530420e-01 4.373294e-01 1.714159e-01 2.862540e-01 5.374744e-01 -3.805505e-01 9.319501e-02 -3.669714e-01 -2.537163e-01 7.439505e-01 -2.045955e-02 5.973619e-03 -4.227388e-02 -4.148879e-02 -3.311608e-02 -4.248958e-02 8.752546e-02 -1.122169e-03 -1.107927e-02 4.748692e-03 2.169530e-02 2.604291e-02 -6.017596e-02 2.627160e-04
<VARIANCE> 39
 4.465794e+00 1.115185e+01 8.207681e+00 1.836126e+01 1.485782e+01 1.524862e+01 2.419386e+01 1.742293e+01 1.563684e+01 2.282789e+01 2.052805e+01 3.784346e+01 2.465380e-02 1.132251e-01 6.984456e-01 6.376119e-01 1.145078e+00 1.076580e+00 1.446189e+00 1.174042e+00 1.514606e+00 1.352544e+00 2.301689e+00 1.173393e+00 1.530814e+00 1.000000e-02 1.974461e-02 8.166268e-02 1.110771e-01 1.637495e-01 2.148323e-01 3.038763e-01 2.384823e-01 2.858753e-01 2.719640e-01 4.695033e-01 2.262677e-01 2.470430e-01 1.000000e-02
<GCONST> 7.078092e+01
<TRANSP> 5
 0.000000e+00 1.000000e+00 0.000000e+00 0.000000e+00 0.000000e+00
 0.000000e+00 9.351852e-01 6.481481e-02 0.000000e+00 0.000000e+00
 0.000000e+00 0.000000e+00 9.573171e-01 4.268293e-02 0.000000e+00
 0.000000e+00 0.000000e+00 0.000000e+00 9.517241e-01 4.827586e-02
 0.000000e+00 0.000000e+00 0.000000e+00 0.000000e+00 0.000000e+00
<ENDHMM>
