~o
<STREAMINFO> 1 39
<VECSIZE> 39<NULLD><MFCC_E_D_A><DIAGC>
~h "seven"
<BEGINHMM>
<NUMSTATES> 5
<STATE> 2
<MEAN> 39
 -2.682465e+01 5.645316e+00 -1.040174e+01 2.958968e+00 -6.342764e+00 -5.529525e+00 7.249072e-01 -2.747205e-01 -2.486733e+00 -2.774520e+00 -2.840293e+00 -4.260059e-01 4.245275e-01 -2.212356e-01 3.106061e-01 1.196894e-02 -2.304089e-01 -7.741431e-01 -3.008453e-01 -1.655005e-01 2.917043e-01 1.646039e-01 -1.162206e-01 -5.829537e-02 1.083374e-01 3.672070e-02 4.315662e-01 -2.287938e-01 9.939637e-03 -1.533106e-01 -1.214324e-01 -6.650609e-02 -1.226897e-01 9.931546e-03 -4.185207e-03 -2.629350e-01 -1.106352e-01 -4.060254e-02 -6.027413e-04
<VARIANCE> 39
 3.087523e+01 2.876779e+01 2.196088e+01 2.158524e+01 3.193993e+01 2.148980e+01 2.155161e+01 2.019089e+01 2.026114e+01 1.609213e+01 1.852039e+01 1.711258e+01 3.567644e-02 7.909220e+00 3.067415e+00 1.811125e+00 3.371903e+00 4.092704e+00 3.416993e+00 2.052008e+00 2.083591e+00 2.344537e+00 3.149316e+00 2.329862e+00 1.527451e+00 1.000000e-02 7.886121e-01 3.962425e-01 3.144068e-01 4.265762e-01 7.377542e-01 5.605260e-01 3.381111e-01 4.588419e-01 5.180426e-01 4.728336e-01 5.178892e-01 3.134063e-01 1.000000e-02
<GCONST> 9.945110e+01
<STATE> 3
<MEAN> 39
 -2.241344e+00 -7.152370e+00 -3.664631e+00 -5.094963e+00 -1.756661e+01 -9.942748e+00 -4.463638e+00 3.041002e+00 -7.885418e-01 -1.522293e+01 -7.805685e+00 9.109280e-01 6.232781e-01 5.531184e-01 -2.035614e-02 3.323607e-01 4.275304e-02 -1.133015e-01 1.041266e-01 2.305391e-02 -1.429184e-01 9.556397e-02 -1.849497e-01 -6.575409e-02 1.166907e-01 -1.506740e-03 -1.671724e-01 1.460129e-01 9.064541e-03 7.143620e-02 1.085870e-01 7.136065e-02 4.267909e-03 -5.493385e-02 4.243879e-02 1.461113e-01 5.277489e-02 -3.147463e-02 -1.596575e-03
<VARIANCE> 39
 3.226095e+01 2.370673e+01 2.948309e+01 1.554691e+01 4.905429e+01 3.953198e+01 3.039577e+01 2.520320e+01 2.787575e+01 2.536455e+01 1.621393e+01 3.324629e+01 1.925260e-02 4.499138e+00 2.976169e+00 1.790895e+00 1.601946e+00 4.027973e+00 5.060202e+00 2.709564e+00 2.546001e+00 3.401509e+00 3.252336e+00 1.964714e+00 1.720238e+00 1.000000e-02 7.647906e-01 2.813156e-01 3.214234e-01 3.505751e-01 7.536315e-01 1.133746e+00 5.322835e-01 4.456633e-01 6.289884e-01 5.213276e-01 3.625322e-01 3.072321e-01 1.000000e-02
<GCONST> 1.019366e+02
<STATE> 4
<MEAN> 39
 -4.545931e+00 6.647568e-01 -4.199440e-01 9.488997e-01 -6.564169e+00 -6.080377e+00 -3.838450e+00 -5.054727e+00 -1.587817e+00 -1.207028e+01 -5.873996e+00 -3.306381e+00 3.336149e-01 -4.995120e-01 -2.192326e-01 -4.561916e-01 9.273299e-02 7.318361e-01 2.748223e-01 4.565987e-02 -1.191522e-01 -2.306124e-01 2.268255e-01 1.551411e-01 -2.094790e-01 -2.604860e-02 -2.347996e-03 -7.835177e-02 -1.580721e-02 8.070798e-04 -6.011664e-02 -3.074291e-02 2.934389e-02 3.679824e-02 -4.406694e-02 -7.659002e-02 1.290693e-02 6.372485e-02 -2.953330e-04
<VARIANCE> 39
 3.304516e+01 2.418741e+01 3.115837e+01 2.606391e+01 5.891280e+01 2.137778e+01 1.861335e+01 1.558003e+01 2.692715e+01 2.622841e+01 1.481974e+01 1.693879e+01 6.939432e-02 6.801350e-01 1.457943e+00 1.026517e+00 1.821231e+00 2.083290e+00 1.218070e+00 1.529120e+00 1.581098e+00 2.433658e+00 2.129313e+00 1.470683e+00 1.881058e+00 1.000000e-02 1.084884e-01 2.264787e-01 1.572795e-01 2.643194e-01 3.107635e-01 2.446167e-01 2.450728e-01 3.072901e-01 4.550290e-01 4.031073e-01 3.122781e-01 3.347455e-01 1.000000e-02
<GCONST> 8.716640e+01
<TRANSP> 5
 0.000000e+00 1.000000e+00 0.000000e+00 0.000000e+00 0.000000e+00
 0.000000e+00 9.469697e-01 5.303030e-02 0.000000e+00 0.000000e+00
 0.000000e+00 0.000000e+00 9.705882e-01 2.941176e-02 0.000000e+00
 0.000000e+00 0.000000e+00 0.000000e+00 9.595376e-01 4.046243e-02
 0.000000e+00 0.000000e+00 0.000000e+00 0.000000e+00 0.000000e+00
<ENDHMM>
