~o
<STREAMINFO> 1 39
<VECSIZE> 39<NULLD><MFCC_E_D_A><DIAGC>
~h "seven"
<BEGINHMM>
<NUMSTATES> 5
<STATE> 2
<MEAN> 39
 -2.452336e+01 4.606487e+00 -6.712168e+00 2.906491e-01 -1.542730e+00 -4.289111e+00 1.480908e+00 -1.485939e+00 6.091686e-01 -2.428850e+00 8.780518e-03 -1.001333e+00 4.021352e-01 1.032071e-01 4.115595e-02 -6.014902e-02 -1.370585e-01 -4.424866e-01 -3.469637e-01 -1.948401e-01 3.354679e-02 8.365220e-02 -4.174322e-02 -2.058749e-01 -3.773878e-02 2.853881e-02 3.202927e-01 -1.814507e-01 5.101221e-02 -9.660843e-02 -1.082375e-01 -7.440923e-02 -8.625415e-02 3.068558e-02 -2.517068e-03 -3.787268e-02 -1.103860e-01 -4.533375e-02 1.893317e-03
<VARIANCE> 39
 5.780110e+01 5.046557e+01 5.339973e+01 5.115715e+01 5.149640e+01 4.091404e+01 3.477205e+01 3.276109e+01 3.043347e+01 2.630291e+01 2.726145e+01 1.994360e+01 6.360362e-02 6.417697e+00 2.848722e+00 1.947696e+00 2.460162e+00 3.025278e+00 3.132881e+00 2.690039e+00 2.193707e+00 2.209944e+00 2.127419e+00 2.311803e+00 1.650275e+00 1.000000e-02 5.076822e-01 3.615049e-01 3.088203e-01 3.874160e-01 4.858621e-01 5.316409e-01 4.816705e-01 4.458146e-01 4.329986e-01 3.994250e-01 4.344842e-01 3.212030e-01 1.000000e-02
<GCONST> 1.042265e+02
<STATE> 3
<MEAN> 39
 -2.827224e+00 -8.512147e+00 -1.295634e+00 -7.497828e+00 -9.877864e+00 -9.323415e+00 -4.650133e+00 7.206914e-03 -9.195293e-01 -6.149508e+00 -8.411636e+00 -5.748662e+00 6.952044e-01 3.906878e-01 -3.167250e-02 2.858326e-01 2.833021e-02 4.591523e-02 8.912965e-03 -4.265533e-02 -1.404981e-01 -1.835519e-01 -5.802405e-02 -7.908036e-02 -1.041056e-01 -1.730327e-03 -1.810180e-01 1.266916e-01 -9.231241e-04 1.024357e-01 9.386395e-02 6.693856e-02 6.157569e-02 -5.913179e-02 -1.224239e-02 3.351313e-02 7.983455e-02 3.843261e-02 -3.384909e-03
<VARIANCE> 39
 2.926267e+01 5.941645e+01 5.438628e+01 5.676253e+01 6.464066e+01 5.814554e+01 6.516186e+01 6.447820e+01 8.719859e+01 7.392729e+01 6.229000e+01 4.705320e+01 3.124318e-02 2.334165e+00 3.710105e+00 1.623310e+00 3.124666e+00 2.930637e+00 2.818824e+00 3.149595e+00 3.784576e+00 3.000168e+00 2.675713e+00 2.800159e+00 2.031573e+00 1.000000e-02 4.258394e-01 4.060834e-01 2.677960e-01 4.532985e-01 5.321490e-01 5.656639e-01 5.937590e-01 6.160747e-01 5.132780e-01 4.764591e-01 4.569671e-01 3.392252e-01 1.000000e-02
<GCONST> 1.106773e+02
<STATE> 4
<MEAN> 39
 -5.251154e+00 6.611622e-01 3.414795e+00 3.193174e-01 -3.281234e+00 -7.341660e+00 -3.097699e+00 -5.266390e+00 -2.803427e+00 -5.365947e+00 -4.851574e+00 -3.856658e+00 3.861127e-01 -4.033762e-01 -2.543507e-02 -1.600811e-01 1.139298e-01 3.407381e-01 2.911248e-01 1.283018e-01 1.035494e-01 8.593166e-02 4.795721e-02 2.156407e-01 1.378026e-01 -2.317813e-02 -9.942614e-03 -5.446259e-02 -3.544181e-02 -5.642563e-02 -7.537948e-03 6.553557e-03 -4.125295e-03 6.333032e-02 2.234885e-02 1.208154e-03 2.796835e-03 5.477884e-06 2.995399e-05
<VARIANCE> 39
 3.044360e+01 2.798247e+01 3.876711e+01 3.655048e+01 4.589000e+01 4.678421e+01 4.056023e+01 5.402934e+01 5.332647e+01 5.111993e+01 4.206442e+01 3.186911e+01 7.957239e-02 4.936681e-01 1.091363e+00 1.177335e+00 1.620579e+00 1.594024e+00 1.643730e+00 1.850823e+00 2.470426e+00 2.004681e+00 1.918782e+00 1.765931e+00 1.542586e+00 1.000000e-02 6.803936e-02 1.498487e-01 1.819512e-01 2.753257e-01 2.691639e-01 2.919792e-01 3.332924e-01 4.387638e-01 3.720449e-01 3.497083e-01 3.231303e-01 2.833652e-01 1.000000e-02
<GCONST> 9.279943e+01
<TRANSP> 5
 0.000000e+00 1.000000e+00 0.000000e+00 0.000000e+00 0.000000e+00
 0.000000e+00 9.509486e-01 4.905142e-02 0.000000e+00 0.000000e+00
 0.000000e+00 0.000000e+00 9.653686e-01 3.463136e-02 0.000000e+00
 0.000000e+00 0.000000e+00 0.000000e+00 9.533936e-01 4.660641e-02
 0.000000e+00 0.000000e+00 0.000000e+00 0.000000e+00 0.000000e+00
<ENDHMM>
