~o
<STREAMINFO> 1 39
<VECSIZE> 39<NULLD><MFCC_E_D_A><DIAGC>
~h "seven"
<BEGINHMM>
<NUMSTATES> 5
<STATE> 2
<MEAN> 39
 -1.678827e+01 6.008518e+00 -9.357522e+00 2.246442e+00 2.683588e-01 -4.209282e+00 8.467690e+00 -1.476432e+00 5.562547e-01 1.608563e+00 7.571759e-01 -4.926322e-02 2.236215e-01 -1.264098e-01 1.921743e-01 -1.657943e-01 -7.628744e-02 -5.752872e-01 -3.948368e-01 -3.841255e-01 -1.430659e-02 -6.308214e-02 3.999528e-02 2.579794e-01 -3.086719e-01 1.478674e-02 1.938991e-01 -1.057306e-01 1.065539e-01 -1.085382e-01 -1.370527e-01 -4.558269e-02 -1.909944e-01 1.827623e-02 3.561367e-02 -2.005023e-02 -8.203767e-03 -1.178928e-01 5.584689e-03
<VARIANCE> 39
 2.213251e+01 2.370651e+01 1.679025e+01 1.156999e+01 1.746625e+01 1.675249e+01 1.508928e+01 1.630767e+01 1.491678e+01 1.355280e+01 1.415778e+01 1.419016e+01 1.000000e-02 2.667571e+00 2.054816e+00 1.461479e+00 1.343612e+00 1.910429e+00 1.648171e+00 2.629389e+00 1.387198e+00 1.143864e+00 1.628244e+00 1.519269e+00 1.581949e+00 1.000000e-02 1.982282e-01 1.823928e-01 1.397279e-01 1.373101e-01 2.579919e-01 2.734778e-01 3.395885e-01 3.085737e-01 1.979316e-01 3.351166e-01 3.072763e-01 3.634361e-01 1.000000e-02
<GCONST> 8.042008e+01
<STATE> 3
<MEAN> 39
 1.494687e+00 -7.061206e+00 2.250970e-01 -9.637876e+00 -1.310206e+01 -7.552293e+00 -8.689568e+00 5.220464e+00 7.519718e+00 8.173547e-01 3.243022e+00 -1.476526e+01 7.291831e-01 4.385391e-01 2.656878e-02 2.476307e-01 -1.875683e-01 8.193572e-02 -2.010121e-01 -5.195566e-01 3.507635e-02 7.719819e-03 2.195924e-01 -9.088975e-02 -3.162393e-01 1.002420e-02 -1.734883e-01 1.023405e-01 -5.658742e-02 1.784438e-02 1.203066e-01 3.791302e-02 1.235581e-01 3.842779e-02 -4.081171e-02 7.369000e-02 8.240974e-03 1.447782e-01 -4.506021e-03
<VARIANCE> 39
 7.603880e+00 1.536630e+01 8.103578e+00 8.446030e+00 1.649618e+01 2.037204e+01 1.950098e+01 3.489458e+01 1.854160e+01 1.883520e+01 1.435620e+01 2.994540e+01 1.993932e-02 1.317207e+00 1.482683e+00 8.717441e-01 1.303029e+00 1.694234e+00 2.510690e+00 3.020427e+00 3.530674e+00 1.932165e+00 1.486569e+00 1.407371e+00 3.138361e+00 1.000000e-02 1.788770e-01 8.283509e-02 1.516295e-01 2.433492e-01 3.014720e-01 5.151883e-01 6.729994e-01 6.384446e-01 3.016632e-01 2.260346e-01 2.817535e-01 3.300942e-01 1.000000e-02
<GCONST> 8.367085e+01
<STATE> 4
<MEAN> 39
 9.290317e-03 1.510272e+00 4.587005e+00 -8.737844e+00 -4.009459e+00 -1.047461e+01 -8.797110e+00 2.298623e+00 -7.737673e-01 5.619209e+00 2.790018e+00 -2.739773e+00 5.230054e-01 -1.931062e-01 -1.665545e-01 6.413761e-02 2.342171e-01 4.133475e-01 3.730491e-01 6.092228e-01 -1.582680e-01 -1.644678e-01 -2.272706e-01 -1.443717e-01 6.730063e-01 -2.190804e-02 1.416341e-03 -4.994439e-02 -2.439145e-02 5.210941e-02 9.401091e-03 2.587858e-02 4.332653e-02 -6.291722e-02 5.307200e-03 -6.628653e-02 -1.474363e-02 -8.225995e-03 -2.212141e-03
<VARIANCE> 39
 2.475864e+00 7.877110e+00 8.406390e+00 2.049962e+01 2.475708e+01 2.849502e+01 4.056319e+01 2.919989e+01 2.731187e+01 2.064584e+01 1.749725e+01 3.484745e+01 3.469740e-02 2.159703e-01 6.553348e-01 6.308743e-01 1.012905e+00 1.161583e+00 1.322139e+00 1.282066e+00 2.195262e+00 2.709336e+00 1.513498e+00 1.622325e+00 1.509326e+00 1.000000e-02 4.636539e-02 1.056421e-01 9.876325e-02 1.639508e-01 2.233193e-01 2.589560e-01 2.768884e-01 3.030748e-01 5.155990e-01 3.261397e-01 2.936277e-01 2.869527e-01 1.000000e-02
<GCONST> 7.594984e+01
<TRANSP> 5
 0.000000e+00 1.000000e+00 0.000000e+00 0.000000e+00 0.000000e+00
 0.000000e+00 9.593023e-01 4.069768e-02 0.000000e+00 0.000000e+00
 0.000000e+00 0.000000e+00 9.593023e-01 4.069768e-02 0.000000e+00
 0.000000e+00 0.000000e+00 0.000000e+00 9.588235e-01 4.117647e-02
 0.000000e+00 0.000000e+00 0.000000e+00 0.000000e+00 0.000000e+00
<ENDHMM>
