~o
<STREAMINFO> 1 39
<VECSIZE> 39<NULLD><MFCC_E_D_A><DIAGC>
~h "seven"
<BEGINHMM>
<NUMSTATES> 5
<STATE> 2
<MEAN> 39
 -1.986327e+01 3.601640e+00 -9.730412e+00 1.069379e+00 -3.187963e+00 -6.165670e+00 -4.566971e-01 -4.529745e+00 -1.311249e+00 -4.680615e+00 -1.556459e+00 -9.509937e-01 3.370084e-01 1.354897e-01 -5.112952e-02 7.454419e-02 4.006302e-04 -5.607355e-01 -2.829486e-01 -2.151877e-01 2.152906e-01 2.747201e-01 3.429987e-03 -1.208008e-01 -1.118901e-01 3.133523e-02 2.202988e-01 -2.172362e-01 8.969922e-02 -9.532384e-02 -8.497105e-02 1.340474e-02 -8.211154e-02 1.088543e-01 1.061142e-02 -6.496552e-02 -4.029819e-02 -5.348145e-02 2.016566e-03
<VARIANCE> 39
 6.517927e+01 4.501408e+01 4.293350e+01 3.567070e+01 4.107843e+01 4.499318e+01 5.348567e+01 3.052495e+01 3.518562e+01 3.180360e+01 2.767767e+01 1.708027e+01 7.578009e-02 6.093757e+00 3.687375e+00 3.252504e+00 2.556954e+00 3.184542e+00 2.453567e+00 2.499238e+00 2.164887e+00 2.851671e+00 2.448735e+00 2.574688e+00 2.063850e+00 1.000000e-02 5.632590e-01 3.647608e-01 4.045392e-01 3.841718e-01 5.247199e-01 4.726414e-01 3.593120e-01 4.104477e-01 5.032911e-01 4.060583e-01 4.944923e-01 3.854731e-01 1.000000e-02
<GCONST> 1.058942e+02
<STATE> 3
<MEAN> 39
 -2.475938e+00 -1.146809e+01 4.534505e-01 -5.290585e+00 -1.079391e+01 -7.838115e+00 -6.735232e+00 5.303145e+00 1.131449e+00 -6.728909e+00 -5.355277e+00 -4.716866e+00 7.008252e-01 2.578247e-01 5.028715e-02 2.360092e-01 4.488462e-02 1.669310e-01 1.416699e-01 8.600146e-02 -4.664475e-02 -9.453138e-02 5.446250e-02 -1.383128e-02 -9.111665e-02 -5.084808e-03 -1.301586e-01 1.706612e-01 -3.409045e-02 8.872827e-02 1.051906e-01 1.856306e-02 5.317358e-02 -1.281301e-01 -3.450988e-02 3.595488e-02 2.595083e-02 2.877203e-02 -3.257316e-03
<VARIANCE> 39
 1.455690e+01 3.889544e+01 2.521549e+01 5.152001e+01 4.795892e+01 7.147939e+01 5.787261e+01 4.102508e+01 8.801854e+01 8.915470e+01 4.674278e+01 4.462255e+01 2.536943e-02 1.432560e+00 3.153912e+00 1.163238e+00 1.919628e+00 2.600743e+00 2.503548e+00 2.395168e+00 3.485247e+00 2.422381e+00 2.402546e+00 2.004233e+00 1.756771e+00 1.000000e-02 3.223853e-01 3.171928e-01 2.224393e-01 2.876466e-01 4.936661e-01 4.741731e-01 4.319015e-01 4.886130e-01 4.457737e-01 4.750897e-01 3.650788e-01 3.147191e-01 1.000000e-02
<GCONST> 1.023978e+02
<STATE> 4
<MEAN> 39
 -5.645747e+00 -2.006286e+00 1.798020e+00 9.925542e-01 -1.073271e+00 -3.313137e+00 -3.443359e+00 -4.043612e+00 -2.000185e+00 -6.356217e+00 -3.502917e+00 -4.827181e+00 3.082621e-01 -4.157141e-01 -4.804429e-02 -3.337717e-01 -6.095951e-02 3.018514e-01 1.605800e-01 4.057656e-02 -1.539565e-01 -1.878954e-01 -9.808478e-02 1.223584e-01 2.215163e-01 -2.240105e-02 5.548367e-04 -6.146688e-02 -1.876299e-02 -6.041899e-02 -6.134795e-02 -3.992440e-02 -2.105818e-02 6.570975e-02 1.723464e-02 -4.740405e-03 6.956064e-03 8.969278e-03 4.360164e-04
<VARIANCE> 39
 1.918515e+01 1.440214e+01 2.517169e+01 3.590525e+01 2.600383e+01 1.974663e+01 2.322366e+01 1.591076e+01 3.800566e+01 3.542212e+01 2.037723e+01 2.016318e+01 6.837740e-02 4.450167e-01 7.937498e-01 9.004491e-01 1.422485e+00 1.556768e+00 1.490401e+00 1.607213e+00 1.658172e+00 2.007475e+00 1.751183e+00 1.560447e+00 1.401641e+00 1.000000e-02 7.552235e-02 1.318449e-01 1.310646e-01 2.147288e-01 2.390266e-01 2.587351e-01 3.077167e-01 3.404861e-01 3.649617e-01 3.379720e-01 3.101153e-01 2.691762e-01 1.000000e-02
<GCONST> 8.286266e+01
<TRANSP> 5
 0.000000e+00 1.000000e+00 0.000000e+00 0.000000e+00 0.000000e+00
 0.000000e+00 9.550706e-01 4.492939e-02 0.000000e+00 0.000000e+00
 0.000000e+00 0.000000e+00 9.669187e-01 3.308129e-02 0.000000e+00
 0.000000e+00 0.000000e+00 0.000000e+00 9.558638e-01 4.413620e-02
 0.000000e+00 0.000000e+00 0.000000e+00 0.000000e+00 0.000000e+00
<ENDHMM>
