~o
<STREAMINFO> 1 39
<VECSIZE> 39<NULLD><MFCC_E_D_A><DIAGC>
~h "six"
<BEGINHMM>
<NUMSTATES> 5
<STATE> 2
<MEAN> 39
 -2.131343e+01 4.832892e+00 -1.174672e+01 2.491922e+00 -2.177734e+00 -5.265409e+00 -4.910766e-01 -5.641566e+00 -1.681047e+00 -4.969198e+00 -3.519619e-01 -9.486687e-01 3.272271e-01 -2.073829e-01 2.910250e-01 6.182239e-02 1.047089e-01 -3.903604e-01 -2.552455e-01 -8.537353e-02 1.293617e-02 5.534910e-02 1.269669e-01 3.575879e-02 -6.864089e-02 2.599785e-02 2.303185e-01 -1.496494e-01 2.261354e-01 -7.972469e-02 -1.602565e-01 -5.411080e-02 -1.038951e-01 4.694302e-02 -5.608771e-03 -2.955271e-02 -2.107460e-02 -4.862431e-02 1.951686e-03
<VARIANCE> 39
 5.181882e+01 4.555209e+01 4.898360e+01 3.778782e+01 2.560117e+01 3.069706e+01 4.188599e+01 3.214336e+01 2.751112e+01 2.694098e+01 2.394084e+01 1.453532e+01 7.176422e-02 3.803057e+00 2.641616e+00 4.120773e+00 2.250136e+00 3.503848e+00 2.152578e+00 2.600760e+00 1.913223e+00 1.859204e+00 2.058660e+00 1.937634e+00 1.571499e+00 1.000000e-02 3.936621e-01 3.432942e-01 4.082640e-01 3.135600e-01 5.987707e-01 3.862090e-01 4.639261e-01 3.870968e-01 3.600692e-01 4.402159e-01 4.194880e-01 3.043714e-01 1.000000e-02
<GCONST> 1.009314e+02
<STATE> 3
<MEAN> 39
 -9.343306e+00 -8.286825e+00 3.437285e+00 -3.556994e+00 -1.485051e+01 -1.057889e+01 -3.517239e+00 -7.484552e-01 -2.385244e+00 -4.034437e+00 -8.854133e-01 -4.028576e+00 5.131956e-01 -3.129900e-01 -8.185933e-03 -2.579862e-01 2.347990e-01 1.169737e-01 -6.695815e-02 2.998991e-01 6.528535e-02 -6.987252e-03 -7.037082e-02 -1.443354e-02 1.388929e-01 -5.955279e-03 -2.200244e-01 1.919016e-01 -2.062840e-01 3.173443e-02 1.973096e-01 8.651487e-02 1.114637e-01 -4.451324e-02 2.961409e-03 3.178609e-02 -4.606884e-03 4.919236e-02 -1.858018e-03
<VARIANCE> 39
 3.126905e+01 3.810252e+01 7.249009e+01 9.733352e+01 6.211744e+01 5.470383e+01 5.285093e+01 4.911528e+01 3.317032e+01 3.464565e+01 4.145024e+01 2.370472e+01 7.081977e-02 3.585995e+00 4.114507e+00 4.554829e+00 3.521191e+00 4.963657e+00 2.935367e+00 2.628872e+00 3.365987e+00 2.870718e+00 2.799826e+00 2.440593e+00 1.835678e+00 1.000000e-02 3.674990e-01 4.058495e-01 4.597266e-01 5.209562e-01 7.720894e-01 6.013731e-01 4.593881e-01 5.663440e-01 5.235872e-01 5.074983e-01 3.999647e-01 3.251634e-01 1.000000e-02
<GCONST> 1.107922e+02
<STATE> 4
<MEAN> 39
 -1.979178e+01 3.369323e+00 -1.004619e+01 1.272416e+00 -6.450775e-01 -7.573970e+00 3.169605e-01 -5.885113e+00 -1.713252e+00 -5.551905e+00 -9.531628e-01 -9.555958e-01 2.800815e-01 4.729238e-01 -2.211445e-01 2.022294e-01 -2.762239e-01 2.207076e-01 2.781200e-01 -2.140941e-01 -8.500928e-02 -4.814468e-02 -3.176324e-02 1.957095e-02 -8.611495e-02 -1.318289e-02 5.717682e-02 -9.555930e-02 3.727748e-02 1.765946e-03 -5.201586e-02 -2.408918e-02 -3.258458e-02 1.638857e-02 -6.082708e-03 6.025118e-03 1.917601e-02 -1.534347e-03 -8.259168e-04
<VARIANCE> 39
 4.607763e+01 3.469994e+01 3.230904e+01 2.822149e+01 2.511424e+01 3.409483e+01 3.079926e+01 2.612041e+01 2.294866e+01 2.506800e+01 2.437388e+01 1.779904e+01 6.092991e-02 6.630898e-01 1.192865e+00 1.074098e+00 1.209149e+00 1.467571e+00 1.744335e+00 1.857956e+00 1.894919e+00 1.925825e+00 1.833884e+00 1.646102e+00 1.423854e+00 1.000000e-02 1.007970e-01 1.612088e-01 1.554955e-01 2.361621e-01 2.974569e-01 3.185438e-01 3.738678e-01 3.793502e-01 4.041156e-01 3.782455e-01 3.319965e-01 2.831689e-01 1.000000e-02
<GCONST> 8.809444e+01
<TRANSP> 5
 0.000000e+00 1.000000e+00 0.000000e+00 0.000000e+00 0.000000e+00
 0.000000e+00 9.573691e-01 4.263094e-02 0.000000e+00 0.000000e+00
 0.000000e+00 0.000000e+00 9.630412e-01 3.695882e-02 0.000000e+00
 0.000000e+00 0.000000e+00 0.000000e+00 9.665072e-01 3.349283e-02
 0.000000e+00 0.000000e+00 0.000000e+00 0.000000e+00 0.000000e+00
<ENDHMM>
