~o
<STREAMINFO> 1 39
<VECSIZE> 39<NULLD><MFCC_E_D_A><DIAGC>
~h "six"
<BEGINHMM>
<NUMSTATES> 5
<STATE> 2
<MEAN> 39
 -1.709332e+01 7.506457e+00 -9.571489e+00 1.652930e+00 1.222853e+00 -5.435694e+00 8.878975e+00 -2.039594e+00 8.081769e-01 9.661779e-01 8.566652e-01 -8.049884e-01 2.616840e-01 -2.013438e-01 3.044400e-01 -2.067786e-01 1.099830e-02 -5.878088e-01 -4.157349e-01 -3.079593e-01 6.966763e-02 -9.565268e-02 -9.891578e-02 2.721339e-01 -2.136442e-01 1.529310e-02 1.981776e-01 -7.917269e-02 1.562788e-01 -5.157709e-02 -1.216564e-01 -5.101984e-02 -2.656871e-01 6.744394e-03 1.362936e-02 -5.482861e-02 1.945814e-02 -3.547725e-02 5.436488e-03
<VARIANCE> 39
 3.140204e+01 3.237620e+01 1.988330e+01 1.981382e+01 2.209953e+01 1.388598e+01 1.414438e+01 1.546555e+01 1.812680e+01 1.606901e+01 2.785272e+01 1.374583e+01 1.000000e-02 2.683559e+00 2.265750e+00 1.736037e+00 1.828457e+00 1.763740e+00 1.786552e+00 3.223214e+00 1.484350e+00 1.190574e+00 1.746689e+00 2.372345e+00 1.170423e+00 1.000000e-02 1.763236e-01 1.763759e-01 2.453340e-01 2.552951e-01 2.623266e-01 2.958369e-01 6.083899e-01 2.729690e-01 2.236277e-01 3.232447e-01 4.866074e-01 2.160489e-01 1.000000e-02
<GCONST> 8.545303e+01
<STATE> 3
<MEAN> 39
 -2.865954e+00 -3.401409e+00 6.058327e+00 -5.540329e+00 -1.499620e+01 -1.692248e+01 -7.882499e+00 2.399449e+00 -4.314257e+00 -3.448579e-01 8.542545e+00 -8.162349e-01 5.824378e-01 -6.808095e-02 -1.574526e-01 -1.883298e-01 -3.843975e-02 1.303932e-01 -3.737428e-01 2.283843e-01 1.699797e-01 -2.649570e-01 2.579077e-01 -1.296093e-01 9.135884e-02 -2.292329e-03 -2.669076e-01 1.345883e-01 -1.665255e-01 4.025164e-02 1.444186e-01 -1.459395e-03 2.872128e-01 4.524094e-02 1.869245e-02 5.750816e-02 -3.536895e-02 6.930076e-02 -3.906797e-03
<VARIANCE> 39
 5.604666e+00 9.578378e+00 4.689902e+01 8.853613e+00 3.502116e+01 2.094042e+01 3.635521e+01 3.361968e+01 3.631832e+01 2.704033e+01 4.169665e+01 3.206179e+01 5.142536e-02 2.329181e+00 1.078131e+00 5.072978e+00 1.145360e+00 2.719130e+00 2.632781e+00 5.592110e+00 2.917668e+00 2.496717e+00 1.780477e+00 2.576339e+00 2.097417e+00 1.000000e-02 2.126200e-01 1.800879e-01 4.706207e-01 1.872583e-01 3.177792e-01 4.461885e-01 5.813201e-01 4.585479e-01 4.551863e-01 3.517564e-01 3.335805e-01 3.589911e-01 1.000000e-02
<GCONST> 9.500356e+01
<STATE> 4
<MEAN> 39
 -1.755767e+01 6.910637e+00 -6.721659e+00 -3.955068e+00 4.827666e+00 -1.266826e+01 6.286571e+00 8.323295e-01 -1.839930e+00 4.764317e+00 -2.107677e+00 2.614032e+00 2.944124e-01 1.547830e-01 -5.003789e-02 3.351415e-01 8.636600e-02 3.885633e-01 6.809242e-01 4.794448e-02 -2.192804e-01 2.727324e-01 -1.308764e-01 -8.945648e-02 7.465620e-02 -1.036984e-02 1.344433e-01 -1.221339e-01 5.156237e-02 1.260877e-02 -3.639744e-02 1.017521e-01 -5.221050e-02 -3.150121e-03 -3.183968e-02 -4.159635e-02 -1.068279e-03 -1.707969e-02 -7.679452e-04
<VARIANCE> 39
 3.459193e+01 3.268791e+01 1.660297e+01 1.034502e+01 2.226566e+01 5.052570e+01 1.566542e+01 3.059231e+01 2.322571e+01 1.727878e+01 1.970707e+01 1.605361e+01 1.681335e-02 1.688470e+00 1.918403e+00 4.304214e-01 8.264350e-01 1.325107e+00 1.413356e+00 1.585032e+00 1.303775e+00 1.823413e+00 1.567689e+00 1.232944e+00 1.332068e+00 1.000000e-02 1.131860e-01 8.880282e-02 1.128975e-01 1.574724e-01 2.298283e-01 3.316757e-01 3.402131e-01 2.295924e-01 3.648083e-01 3.096874e-01 2.147413e-01 2.234118e-01 1.000000e-02
<GCONST> 7.957771e+01
<TRANSP> 5
 0.000000e+00 1.000000e+00 0.000000e+00 0.000000e+00 0.000000e+00
 0.000000e+00 9.578313e-01 4.216868e-02 0.000000e+00 0.000000e+00
 0.000000e+00 0.000000e+00 9.631579e-01 3.684211e-02 0.000000e+00
 0.000000e+00 0.000000e+00 0.000000e+00 9.660194e-01 3.398058e-02
 0.000000e+00 0.000000e+00 0.000000e+00 0.000000e+00 0.000000e+00
<ENDHMM>
