~o
<STREAMINFO> 1 39
<VECSIZE> 39<NULLD><MFCC_E_D_A><DIAGC>
~h "six"
<BEGINHMM>
<NUMSTATES> 5
<STATE> 2
<MEAN> 39
 -2.645961e+01 8.667275e+00 -1.344082e+01 3.173306e+00 -3.284539e+00 -5.022829e+00 1.568504e-01 -1.321097e+00 -5.916486e+00 -2.799544e+00 -3.563477e+00 -4.687528e-01 4.413635e-01 -3.528239e-01 4.897490e-01 2.894727e-01 -2.051530e-01 -8.069886e-01 -4.608795e-01 -1.234462e-01 6.113067e-02 -3.685795e-02 2.685483e-01 1.782712e-01 -1.390187e-01 3.424230e-02 3.968278e-01 -2.104929e-01 2.062901e-01 -2.011738e-01 -3.487595e-01 -1.579439e-01 -9.999146e-02 -1.902979e-03 6.293173e-02 -5.239800e-02 -8.930251e-03 -8.834656e-02 -8.275590e-05
<VARIANCE> 39
 2.829668e+01 3.269072e+01 3.246663e+01 1.869629e+01 1.936404e+01 1.298461e+01 1.764975e+01 1.623274e+01 1.712114e+01 2.201455e+01 2.114885e+01 1.540952e+01 3.038199e-02 6.536729e+00 3.810883e+00 5.049278e+00 2.965636e+00 7.293722e+00 3.085661e+00 2.231213e+00 1.475504e+00 2.235009e+00 2.205065e+00 1.860654e+00 1.718204e+00 1.000000e-02 8.097136e-01 4.694282e-01 5.354847e-01 3.383003e-01 1.016366e+00 4.660531e-01 4.427354e-01 2.744889e-01 4.715531e-01 4.845706e-01 4.932883e-01 3.288883e-01 1.000000e-02
<GCONST> 9.927352e+01
<STATE> 3
<MEAN> 39
 -1.069655e+01 -7.521014e+00 -7.737393e-01 -6.450995e+00 -1.836645e+01 -1.115841e+01 1.356053e+00 -1.998670e+00 -1.996688e+00 -2.153836e+00 -4.236232e+00 -4.135253e+00 4.042987e-01 -2.883033e-01 -1.021185e-01 -2.380104e-01 5.360204e-01 2.549203e-01 1.358933e-01 2.378275e-01 8.404935e-02 2.901628e-02 -1.311258e-01 -5.459384e-02 2.593625e-01 -4.558282e-03 -1.973083e-01 1.728897e-01 -1.091692e-01 5.232628e-02 2.707738e-01 1.512508e-01 6.483651e-02 -2.607934e-02 -5.940380e-02 -5.774611e-03 -1.927805e-03 4.212429e-02 -1.194929e-03
<VARIANCE> 39
 3.625711e+01 2.689972e+01 5.363401e+01 1.162611e+02 9.568423e+01 4.692251e+01 3.681155e+01 3.616133e+01 1.777840e+01 2.312931e+01 1.585698e+01 2.503414e+01 1.087135e-01 4.286272e+00 3.766126e+00 2.759378e+00 5.439264e+00 7.047079e+00 3.921853e+00 2.759408e+00 3.748792e+00 2.094806e+00 2.062339e+00 1.558191e+00 2.139946e+00 1.000000e-02 5.430574e-01 3.919596e-01 5.062163e-01 8.708834e-01 1.309857e+00 8.713270e-01 5.146884e-01 7.076293e-01 4.094499e-01 4.103389e-01 2.777127e-01 4.042688e-01 1.000000e-02
<GCONST> 1.100736e+02
<STATE> 4
<MEAN> 39
 -2.204113e+01 5.157481e+00 -1.313374e+01 4.263849e+00 -4.216910e+00 -4.936525e+00 4.387086e-01 -2.733161e+00 -3.590596e+00 -4.630538e+00 -3.731458e+00 -6.199281e-02 2.973426e-01 6.897975e-01 -2.772256e-01 8.230657e-02 -5.005853e-01 3.217644e-01 2.719096e-01 -2.696178e-01 -1.941113e-01 1.147047e-01 -2.627188e-02 2.121936e-02 -2.839864e-01 -2.132347e-02 5.373714e-02 -1.213971e-01 2.168767e-02 5.721446e-02 -8.814661e-02 -4.742588e-02 -3.835024e-02 1.461323e-02 3.591591e-02 2.484020e-02 2.098835e-02 -2.223915e-02 -7.576623e-04
<VARIANCE> 39
 4.769377e+01 4.588821e+01 1.730974e+01 2.616204e+01 1.725751e+01 1.829377e+01 1.608772e+01 1.758426e+01 1.985768e+01 1.858131e+01 1.804618e+01 2.488914e+01 6.552474e-02 7.169920e-01 1.966186e+00 1.267010e+00 1.645196e+00 1.723788e+00 1.803806e+00 1.753705e+00 1.638303e+00 2.000128e+00 1.745715e+00 1.470642e+00 1.681308e+00 1.000000e-02 1.426943e-01 2.209444e-01 1.903141e-01 3.618054e-01 3.979767e-01 3.122994e-01 4.127192e-01 3.505613e-01 4.154360e-01 3.786172e-01 3.150060e-01 3.475912e-01 1.000000e-02
<GCONST> 8.817696e+01
<TRANSP> 5
 0.000000e+00 1.000000e+00 0.000000e+00 0.000000e+00 0.000000e+00
 0.000000e+00 9.496403e-01 5.035971e-02 0.000000e+00 0.000000e+00
 0.000000e+00 0.000000e+00 9.703390e-01 2.966102e-02 0.000000e+00
 0.000000e+00 0.000000e+00 0.000000e+00 9.621621e-01 3.783783e-02
 0.000000e+00 0.000000e+00 0.000000e+00 0.000000e+00 0.000000e+00
<ENDHMM>
