~o
<STREAMINFO> 1 39
<VECSIZE> 39<NULLD><MFCC_E_D_A><DIAGC>
~h "six"
<BEGINHMM>
<NUMSTATES> 5
<STATE> 2
<MEAN> 39
 -2.533208e+01 5.206430e+00 -6.782413e+00 6.807612e-01 -1.187860e+00 -3.798722e+00 1.869357e+00 -1.565013e+00 1.542331e-01 -2.360448e+00 2.353308e-01 -8.238204e-01 4.073522e-01 -4.563654e-01 2.582072e-01 -6.399323e-02 1.393303e-02 -2.451089e-01 -1.514787e-01 -1.062677e-03 -2.420212e-03 -2.300285e-03 1.152720e-02 1.406446e-03 3.908219e-02 2.489880e-02 2.853256e-01 -1.156530e-01 1.231044e-01 -5.793024e-02 -1.370172e-01 -1.189733e-01 -9.982955e-02 -3.052801e-02 -3.336011e-02 -2.384678e-02 -4.598418e-02 -1.582608e-02 -5.008460e-04
<VARIANCE> 39
 5.589045e+01 4.782958e+01 4.962540e+01 4.940203e+01 4.448045e+01 3.623072e+01 3.470408e+01 3.212090e+01 2.799893e+01 2.557590e+01 2.695325e+01 1.866025e+01 6.636142e-02 2.985899e+00 2.110061e+00 1.744975e+00 1.759373e+00 2.016219e+00 2.340033e+00 2.143388e+00 1.961165e+00 1.878995e+00 1.812413e+00 1.690848e+00 1.461872e+00 1.000000e-02 4.329823e-01 2.885429e-01 2.761176e-01 3.293485e-01 4.473703e-01 4.935053e-01 4.742881e-01 4.022940e-01 3.892288e-01 3.657593e-01 3.578296e-01 2.985898e-01 1.000000e-02
<GCONST> 9.889499e+01
<STATE> 3
<MEAN> 39
 -1.048419e+01 -5.124341e+00 2.129184e+00 -5.004770e+00 -1.356168e+01 -1.167740e+01 -1.672608e+00 -1.877330e+00 -1.525001e+00 -1.055865e+00 -1.038262e+00 -2.527113e+00 4.930988e-01 7.688761e-03 -1.320094e-01 -6.364746e-02 1.305183e-01 4.452241e-02 -1.372671e-01 -4.496227e-03 8.866242e-02 8.421122e-02 2.591648e-03 8.716490e-03 9.838035e-03 -3.433936e-03 -2.087543e-01 1.049439e-01 -6.014843e-02 3.287014e-02 1.246047e-01 1.278107e-01 7.807417e-02 2.998342e-02 1.553020e-02 2.716116e-03 2.774640e-02 1.711244e-02 -6.893600e-04
<VARIANCE> 39
 5.771403e+01 5.731488e+01 8.895218e+01 8.187251e+01 1.056988e+02 7.211774e+01 6.038819e+01 5.678613e+01 5.978858e+01 5.092193e+01 5.431121e+01 3.196334e+01 8.724749e-02 5.775074e+00 4.035511e+00 4.663209e+00 3.856816e+00 5.921346e+00 4.290012e+00 3.762328e+00 3.413237e+00 3.374916e+00 2.983791e+00 2.834004e+00 2.076506e+00 1.000000e-02 5.240485e-01 5.750942e-01 6.445361e-01 4.981415e-01 7.684858e-01 6.935683e-01 6.362675e-01 6.141795e-01 5.805349e-01 5.193741e-01 4.696015e-01 3.772483e-01 1.000000e-02
<GCONST> 1.186583e+02
<STATE> 4
<MEAN> 39
 -2.222171e+01 2.614203e+00 -5.709301e+00 8.679510e-01 -9.149621e-01 -5.801222e+00 1.466798e+00 -8.583907e-01 9.945731e-01 -3.067799e+00 -1.211653e-01 -9.010628e-01 3.347589e-01 3.522825e-01 -7.417210e-02 1.197270e-01 -1.207491e-01 1.501858e-01 2.243964e-01 -1.570440e-02 -7.537790e-02 -8.469786e-02 -1.452744e-02 -1.612301e-02 -3.850712e-02 -1.313020e-02 7.468460e-02 -6.238560e-02 8.595746e-04 9.477042e-04 -2.185163e-02 -2.107798e-02 -2.478663e-02 -7.859048e-03 2.639625e-03 1.396689e-02 -2.353365e-03 -8.041197e-03 -5.506750e-04
<VARIANCE> 39
 6.112156e+01 4.370815e+01 5.062561e+01 4.732345e+01 5.107004e+01 4.012763e+01 3.772906e+01 3.421092e+01 3.200966e+01 2.857664e+01 2.788525e+01 1.987096e+01 6.332592e-02 1.305944e+00 1.371008e+00 1.136522e+00 1.316198e+00 1.551736e+00 1.963885e+00 1.860052e+00 1.874370e+00 1.891070e+00 1.779343e+00 1.584046e+00 1.447184e+00 1.000000e-02 1.703682e-01 1.833595e-01 2.017657e-01 2.359291e-01 2.801068e-01 3.545816e-01 3.606190e-01 3.703762e-01 3.703977e-01 3.572756e-01 3.174827e-01 2.895885e-01 1.000000e-02
<GCONST> 9.345227e+01
<TRANSP> 5
 0.000000e+00 1.000000e+00 0.000000e+00 0.000000e+00 0.000000e+00
 0.000000e+00 9.479674e-01 5.203262e-02 0.000000e+00 0.000000e+00
 0.000000e+00 0.000000e+00 9.642195e-01 3.578056e-02 0.000000e+00
 0.000000e+00 0.000000e+00 0.000000e+00 9.662352e-01 3.376475e-02
 0.000000e+00 0.000000e+00 0.000000e+00 0.000000e+00 0.000000e+00
<ENDHMM>
