~o
<STREAMINFO> 1 39
<VECSIZE> 39<NULLD><MFCC_E_D_A><DIAGC>
~h "three"
<BEGINHMM>
<NUMSTATES> 5
<STATE> 2
<MEAN> 39
 -1.826312e+01 6.601128e+00 -6.485700e+00 -4.101410e+00 5.501145e+00 -9.104632e+00 5.742821e+00 1.423032e+00 -3.223860e+00 5.234240e+00 -1.315782e+00 1.760358e+00 2.908668e-01 -1.387557e-01 2.619871e-01 3.942143e-02 1.146533e-02 -3.227032e-01 -4.298533e-01 -4.489579e-01 -3.526840e-02 -2.313267e-01 1.024471e-01 1.214517e-01 -1.663138e-01 1.447765e-02 2.002120e-01 -5.117518e-02 7.244772e-02 1.216917e-01 -6.225905e-02 -5.220084e-02 -1.350116e-01 -1.284191e-01 -3.516159e-02 -4.002192e-02 -8.764744e-04 -6.729647e-02 3.964493e-03
<VARIANCE> 39
 4.454277e+01 3.541548e+01 2.204576e+01 1.756901e+01 2.741403e+01 2.547803e+01 2.986036e+01 3.041659e+01 3.064275e+01 2.131809e+01 1.327279e+01 1.541824e+01 1.000000e-02 3.687295e+00 2.115391e+00 1.945512e+00 1.903760e+00 3.117770e+00 2.590082e+00 2.073249e+00 2.985591e+00 2.003263e+00 1.901744e+00 1.317001e+00 1.623974e+00 1.000000e-02 2.315080e-01 1.653568e-01 1.753420e-01 3.919837e-01 4.087096e-01 4.762638e-01 2.851265e-01 4.388833e-01 3.714519e-01 3.239079e-01 2.491255e-01 3.063225e-01 1.000000e-02
<GCONST> 9.137536e+01
<STATE> 3
<MEAN> 39
 4.547671e+00 -4.533708e+00 7.347809e+00 1.436092e+00 -8.517173e+00 -1.386917e+01 -1.389073e+01 -6.627754e-01 -1.045898e+01 -6.001866e+00 6.386527e+00 -3.863397e+00 7.282375e-01 3.176421e-01 -2.628106e-01 8.723954e-01 -2.554747e-02 -2.853228e-01 -4.738783e-02 -3.657408e-01 5.203770e-01 -5.641080e-01 -5.234964e-01 3.982462e-01 -1.888257e-01 5.663447e-03 -2.175385e-01 6.168131e-02 -8.195312e-02 -1.480925e-01 1.137782e-01 1.086125e-01 1.754731e-01 1.023878e-01 4.790296e-02 6.203242e-02 -5.346256e-02 1.397192e-01 -5.574431e-03
<VARIANCE> 39
 1.603569e+01 2.924107e+01 1.128734e+02 2.008290e+01 5.359674e+01 1.988130e+01 2.746890e+01 6.386650e+01 2.648340e+01 3.154896e+01 4.435563e+01 4.233191e+01 1.000000e-02 2.738053e+00 1.615242e+00 3.193585e+00 3.179015e+00 3.150643e+00 3.328522e+00 3.054178e+00 2.823268e+00 1.745659e+00 1.555322e+00 1.783261e+00 3.773421e+00 1.000000e-02 1.497477e-01 1.842152e-01 3.995143e-01 4.745187e-01 5.952708e-01 5.908177e-01 5.390138e-01 5.211548e-01 3.596280e-01 2.977763e-01 2.694069e-01 6.989664e-01 1.000000e-02
<GCONST> 1.001875e+02
<STATE> 4
<MEAN> 39
 -2.457514e+00 -2.260577e+00 1.077457e+01 -3.220888e+00 -3.386309e+00 -5.505233e+00 -2.199748e+00 -8.083972e-01 -7.156314e+00 -3.594054e+00 1.739091e+00 1.019976e+00 3.530766e-01 -1.381140e-01 -2.443200e-02 -8.422508e-01 9.068559e-02 6.256762e-01 4.395021e-01 7.228814e-01 -4.863813e-01 7.442108e-01 3.507233e-01 -4.945409e-01 4.206733e-01 -1.997224e-02 1.177282e-02 -3.305276e-02 1.356207e-02 2.043095e-02 -3.345040e-02 5.225895e-04 -4.970751e-02 3.856213e-02 1.284023e-02 -2.166787e-02 3.892705e-02 -6.024398e-02 9.356279e-04
<VARIANCE> 39
 2.651483e+00 5.459694e+00 5.227323e+01 9.028646e+00 3.101916e+01 2.338641e+01 3.608796e+01 3.068601e+01 5.324630e+01 2.189442e+01 2.356332e+01 2.277181e+01 2.601934e-02 1.769392e-01 4.562844e-01 5.460501e-01 8.873705e-01 1.115442e+00 1.429405e+00 1.441141e+00 1.516800e+00 1.894570e+00 1.607392e+00 1.046149e+00 1.504477e+00 1.000000e-02 2.968304e-02 7.115016e-02 9.006824e-02 1.665789e-01 2.035633e-01 2.989619e-01 2.708714e-01 2.863329e-01 3.900239e-01 3.346230e-01 1.878552e-01 2.491699e-01 1.000000e-02
<GCONST> 7.335130e+01
<TRANSP> 5
 0.000000e+00 1.000000e+00 0.000000e+00 0.000000e+00 0.000000e+00
 0.000000e+00 9.600000e-01 4.000000e-02 0.000000e+00 0.000000e+00
 0.000000e+00 0.000000e+00 9.578313e-01 4.216868e-02 0.000000e+00
 0.000000e+00 0.000000e+00 0.000000e+00 9.593023e-01 4.069768e-02
 0.000000e+00 0.000000e+00 0.000000e+00 0.000000e+00 0.000000e+00
<ENDHMM>
