~o
<STREAMINFO> 1 39
<VECSIZE> 39<NULLD><MFCC_E_D_A><DIAGC>
~h "three"
<BEGINHMM>
<NUMSTATES> 5
<STATE> 2
<MEAN> 39
 -1.200008e+01 7.222195e-01 4.606577e+00 1.764497e+00 3.165005e+00 -2.805481e+00 -4.952436e+00 -4.226758e+00 -2.937280e-01 -8.774585e+00 -6.397603e+00 -4.415518e+00 4.443996e-01 1.116960e-01 7.637626e-02 6.231935e-02 2.140953e-01 -1.520113e-01 -2.720795e-02 -3.682731e-01 5.401609e-02 6.898368e-02 1.234261e-01 2.293159e-01 8.220544e-02 1.348399e-02 2.246579e-01 -3.003066e-02 -5.170973e-02 -2.109416e-02 2.019716e-02 -1.581822e-01 -1.580785e-01 -1.079630e-01 1.450836e-01 1.419939e-01 9.145893e-03 7.327420e-02 3.476134e-03
<VARIANCE> 39
 1.671051e+01 8.794798e+00 1.486415e+01 1.101758e+01 1.763388e+01 1.573659e+01 1.053307e+01 2.266771e+01 1.737011e+01 2.956213e+01 2.261457e+01 1.254678e+01 1.000000e-02 2.150312e+00 9.925669e-01 1.302182e+00 1.393721e+00 1.337524e+00 2.635688e+00 1.649289e+00 1.653238e+00 1.470047e+00 3.192824e+00 2.548436e+00 1.838667e+00 1.000000e-02 2.329377e-01 1.616468e-01 2.795440e-01 3.126989e-01 1.888019e-01 6.481572e-01 3.347253e-01 2.975371e-01 2.868197e-01 4.192202e-01 5.752836e-01 3.538991e-01 1.000000e-02
<GCONST> 8.381516e+01
<STATE> 3
<MEAN> 39
 3.925545e-01 -6.328253e+00 1.343834e+01 1.791482e+00 -5.298930e+00 -1.278736e+01 -1.296290e+01 -1.164503e+00 -1.533072e-03 9.829290e-01 -1.090477e+00 5.715449e-01 8.098478e-01 -5.548869e-03 2.530202e-02 1.195837e+00 -4.410353e-01 -7.092597e-01 -2.220826e-01 -6.516273e-02 -9.893098e-02 -6.203096e-01 -4.328392e-03 -2.076930e-01 5.596201e-01 1.024645e-02 -3.459241e-01 1.469138e-01 -7.234740e-02 -2.060598e-02 1.733290e-01 2.008092e-01 1.363714e-01 3.875899e-02 -1.120738e-01 -1.501053e-01 -1.505656e-01 -3.872556e-02 -7.429697e-03
<VARIANCE> 39
 2.525522e+01 2.176603e+01 1.608987e+02 1.654421e+01 5.682995e+01 4.561625e+01 1.489782e+01 3.126169e+01 3.980862e+01 1.624096e+01 9.382670e+00 1.341796e+01 1.070193e-02 4.977155e+00 3.111952e+00 8.049803e+00 1.446071e+00 3.917665e+00 6.293138e+00 2.266227e+00 4.439901e+00 3.570711e+00 2.546075e+00 1.501024e+00 1.258092e+00 1.000000e-02 4.039103e-01 3.246939e-01 1.157686e+00 3.217411e-01 6.299556e-01 6.735038e-01 3.790654e-01 8.248593e-01 6.721786e-01 4.064223e-01 2.406661e-01 2.352330e-01 1.000000e-02
<GCONST> 1.017800e+02
<STATE> 4
<MEAN> 39
 -7.843371e+00 5.817533e-01 1.095705e+01 -2.392240e+00 2.660211e+00 -2.834629e+00 -9.473496e+00 -6.494501e+00 -1.677238e+00 -5.140553e+00 -8.812328e+00 5.123953e-01 4.924119e-01 -5.639846e-02 -1.224631e-02 -6.694922e-01 -1.260056e-02 4.695599e-01 3.353427e-01 4.648032e-01 1.266260e-01 4.704933e-01 -6.959563e-02 -1.076484e-01 -3.549992e-01 -1.328359e-02 3.736521e-02 -1.186884e-01 6.524254e-02 1.636950e-02 -1.724143e-01 -5.441153e-02 3.464870e-02 3.823499e-02 -1.128277e-02 6.993540e-02 1.343362e-01 -2.375147e-02 5.556312e-04
<VARIANCE> 39
 3.590861e+00 6.297374e+00 3.263625e+01 1.776679e+01 1.852452e+01 9.748567e+00 2.044452e+01 1.059975e+01 2.384226e+01 1.519975e+01 8.403737e+00 2.005551e+01 1.487327e-02 2.615124e-01 6.968026e-01 1.639886e+00 1.626986e+00 1.730458e+00 1.311931e+00 1.161102e+00 1.071588e+00 1.508527e+00 2.130548e+00 1.196693e+00 8.076239e-01 1.000000e-02 5.762524e-02 1.379816e-01 1.283438e-01 4.019502e-01 1.327183e-01 2.638809e-01 2.102918e-01 2.492411e-01 3.352619e-01 4.415413e-01 2.271701e-01 1.687098e-01 1.000000e-02
<GCONST> 7.151406e+01
<TRANSP> 5
 0.000000e+00 1.000000e+00 0.000000e+00 0.000000e+00 0.000000e+00
 0.000000e+00 9.459459e-01 5.405406e-02 0.000000e+00 0.000000e+00
 0.000000e+00 0.000000e+00 9.285714e-01 7.142857e-02 0.000000e+00
 0.000000e+00 0.000000e+00 0.000000e+00 9.534883e-01 4.651162e-02
 0.000000e+00 0.000000e+00 0.000000e+00 0.000000e+00 0.000000e+00
<ENDHMM>
