~o
<STREAMINFO> 1 39
<VECSIZE> 39<NULLD><MFCC_E_D_A><DIAGC>
~h "three"
<BEGINHMM>
<NUMSTATES> 5
<STATE> 2
<MEAN> 39
 -1.044318e+01 -4.637702e+00 -4.267727e+00 9.276360e-01 -7.649529e+00 -8.321547e+00 -6.871686e+00 -2.693963e+00 -2.174467e+00 -4.899358e+00 -1.071156e+00 -2.466338e+00 3.524174e-01 4.542019e-01 -4.185233e-01 4.525426e-01 1.070432e-01 -5.962702e-01 -4.125797e-01 -2.529700e-01 1.581401e-01 -5.385540e-02 1.459463e-01 7.962145e-03 -1.092743e-01 3.086963e-02 1.914816e-02 -3.677455e-02 9.950787e-02 -5.203854e-02 -6.387523e-03 2.312523e-03 1.172491e-02 -8.875202e-03 -3.044863e-04 -6.876799e-03 -1.363447e-02 3.663466e-03 -5.561363e-04
<VARIANCE> 39
 9.548076e+01 3.754959e+01 5.377704e+01 3.546894e+01 5.043069e+01 9.042336e+01 6.039183e+01 3.942379e+01 5.179535e+01 3.131760e+01 2.355582e+01 2.500923e+01 1.145169e-01 4.521961e+00 2.197392e+00 4.638547e+00 2.882083e+00 3.314864e+00 3.904596e+00 3.583730e+00 3.919741e+00 3.627436e+00 3.078965e+00 2.695697e+00 2.327757e+00 1.000000e-02 5.923563e-01 3.113232e-01 7.448808e-01 5.356355e-01 5.716754e-01 6.280030e-01 5.780668e-01 7.101836e-01 7.213132e-01 5.351981e-01 5.309027e-01 4.801326e-01 1.000000e-02
<GCONST> 1.135074e+02
<STATE> 3
<MEAN> 39
 -3.524989e+00 -8.844745e+00 1.739747e+01 -7.024126e+00 -1.623425e+01 -9.650982e+00 -9.890144e+00 -5.047365e+00 -3.452086e+00 -3.426046e+00 -3.065360e+00 -2.153306e-01 6.693801e-01 -2.423081e-01 5.386972e-01 2.745564e-01 -1.489512e-01 3.352077e-01 5.016206e-01 1.479017e-01 -3.900717e-01 1.191723e-01 -1.883177e-01 -9.491313e-02 1.564405e-01 -1.191613e-02 -1.304888e-02 1.581423e-02 -1.564481e-01 8.201154e-02 9.913027e-02 1.773755e-02 3.469548e-02 -2.210625e-03 5.528312e-03 1.780081e-02 2.479347e-02 -2.661672e-02 -1.576962e-03
<VARIANCE> 39
 1.084668e+01 6.897359e+01 4.586815e+01 1.115032e+02 4.510531e+01 6.661182e+01 3.952746e+01 6.062253e+01 6.928500e+01 4.761293e+01 7.673815e+01 3.999240e+01 1.250199e-02 3.684767e-01 7.816025e-01 2.066995e+00 2.249378e+00 1.709741e+00 1.747029e+00 1.873169e+00 2.048883e+00 2.032285e+00 2.161613e+00 1.684326e+00 1.657375e+00 1.000000e-02 5.148196e-02 9.466943e-02 1.695518e-01 2.247415e-01 2.407141e-01 2.620959e-01 3.000403e-01 3.052643e-01 3.026554e-01 3.580537e-01 2.718285e-01 2.558913e-01 1.000000e-02
<GCONST> 9.176742e+01
<STATE> 4
<MEAN> 39
 -8.933633e+00 -4.639466e+00 2.026238e+00 -2.072755e+00 -3.602478e+00 -2.211577e+00 -2.910518e+00 -7.601021e+00 -2.909357e+00 -5.650304e+00 -1.563281e+00 -2.351472e+00 1.705724e-01 -2.456086e-01 -1.687798e-01 -9.125652e-01 3.145801e-02 4.234753e-01 -6.133657e-02 1.377066e-01 2.155817e-01 -1.058834e-01 -2.323240e-02 2.926273e-02 -1.156614e-01 -2.221823e-02 1.978129e-02 9.871703e-03 7.532129e-02 -4.265119e-02 -7.380366e-02 -3.813633e-02 -5.130419e-02 2.094814e-02 -2.021071e-02 -1.571463e-02 2.057584e-03 1.936636e-02 1.716326e-03
<VARIANCE> 39
 6.850803e+00 1.123125e+01 5.547975e+01 2.522844e+01 4.153102e+01 2.519694e+01 2.856925e+01 3.124190e+01 2.464561e+01 2.850958e+01 2.980212e+01 1.769829e+01 4.503390e-02 3.617271e-01 6.965744e-01 1.233051e+00 1.302491e+00 1.509742e+00 2.037159e+00 2.226691e+00 1.785465e+00 2.097217e+00 1.562903e+00 1.727581e+00 1.440567e+00 1.000000e-02 6.673358e-02 1.085682e-01 1.548469e-01 2.298287e-01 2.606619e-01 3.374669e-01 4.011659e-01 3.485649e-01 3.862378e-01 3.152233e-01 3.329757e-01 2.804916e-01 1.000000e-02
<GCONST> 8.408369e+01
<TRANSP> 5
 0.000000e+00 1.000000e+00 0.000000e+00 0.000000e+00 0.000000e+00
 0.000000e+00 9.597238e-01 4.027618e-02 0.000000e+00 0.000000e+00
 0.000000e+00 0.000000e+00 9.573171e-01 4.268293e-02 0.000000e+00
 0.000000e+00 0.000000e+00 0.000000e+00 9.469697e-01 5.303030e-02
 0.000000e+00 0.000000e+00 0.000000e+00 0.000000e+00 0.000000e+00
<ENDHMM>
