~o
<STREAMINFO> 1 39
<VECSIZE> 39<NULLD><MFCC_E_D_A><DIAGC>
~h "three"
<BEGINHMM>
<NUMSTATES> 5
<STATE> 2
<MEAN> 39
 -1.102654e+01 -5.034526e+00 -4.451706e-01 -1.403163e-01 -6.051493e+00 -9.188986e+00 -5.176938e+00 -1.877092e+00 -1.289321e+00 -3.425228e+00 -9.925904e-01 -1.929412e+00 4.549440e-01 4.764993e-01 -3.198290e-01 5.994767e-01 -9.108844e-02 -6.856620e-01 -4.929100e-01 -3.566658e-01 -2.846826e-02 -3.875208e-01 -1.536274e-02 2.935642e-02 -1.228706e-01 2.802550e-02 -5.659044e-03 2.887384e-02 9.350286e-02 -7.004133e-02 -1.731884e-02 6.348956e-02 7.461906e-03 -5.077801e-02 -3.461118e-02 3.537158e-02 -1.250387e-02 -2.105652e-02 -1.032746e-03
<VARIANCE> 39
 1.383355e+02 5.564728e+01 7.018643e+01 5.228762e+01 8.305096e+01 1.078072e+02 9.193488e+01 5.298988e+01 5.646936e+01 4.111346e+01 3.792266e+01 3.147490e+01 9.719779e-02 5.001246e+00 2.304647e+00 4.044134e+00 3.250093e+00 3.795498e+00 4.572264e+00 4.654593e+00 4.093012e+00 3.501470e+00 2.987893e+00 2.724919e+00 2.269984e+00 1.000000e-02 6.241359e-01 3.950689e-01 5.985108e-01 5.639396e-01 6.585410e-01 7.598550e-01 7.775458e-01 7.508940e-01 6.312935e-01 5.450038e-01 5.374089e-01 4.374877e-01 1.000000e-02
<GCONST> 1.184785e+02
<STATE> 3
<MEAN> 39
 -6.033798e+00 -1.086881e+00 1.907188e+01 -1.211644e+01 -1.725982e+01 -8.406690e+00 -1.079967e+01 -8.863995e+00 -8.721498e+00 -1.612194e+00 -5.155142e+00 -3.962749e+00 7.054517e-01 -2.498094e-01 7.365278e-01 1.892410e-01 -2.796435e-01 3.242460e-01 6.218331e-01 2.148781e-03 -4.267868e-01 2.016979e-01 1.447215e-02 -3.255742e-01 6.944220e-02 -1.231770e-02 3.563286e-02 -5.328907e-02 -1.671801e-01 1.477698e-01 1.070041e-01 -4.435551e-02 3.731288e-02 6.622744e-02 6.519723e-02 -5.256073e-02 1.874652e-02 3.333006e-02 -1.812932e-03
<VARIANCE> 39
 2.321505e+01 6.492971e+01 5.157394e+01 1.080508e+02 6.015407e+01 6.915823e+01 5.649575e+01 7.280264e+01 6.704445e+01 6.909785e+01 8.807493e+01 4.664788e+01 1.369402e-02 3.991349e-01 8.021272e-01 1.396365e+00 1.842721e+00 1.506136e+00 1.720173e+00 1.866917e+00 1.860617e+00 1.745921e+00 1.826456e+00 1.607041e+00 1.422739e+00 1.000000e-02 4.843358e-02 9.819716e-02 1.602723e-01 2.017795e-01 2.514579e-01 2.643929e-01 3.053955e-01 3.013674e-01 2.929676e-01 3.045759e-01 2.789281e-01 2.350731e-01 1.000000e-02
<GCONST> 9.250933e+01
<STATE> 4
<MEAN> 39
 -9.551778e+00 -2.881146e-01 6.573349e+00 -3.427323e+00 -5.064336e+00 -2.542031e+00 -2.979220e+00 -6.524160e+00 -3.150892e+00 -3.314884e+00 -2.771287e+00 -1.834011e+00 2.302583e-01 -2.803825e-01 -4.065976e-01 -1.029238e+00 4.383110e-01 6.764767e-01 2.809511e-02 4.605474e-01 4.317553e-01 2.796589e-01 -1.389710e-02 3.021868e-01 1.042017e-01 -3.102453e-02 4.320542e-03 -1.404835e-03 3.256254e-02 -5.780122e-02 -5.758540e-02 -4.628049e-02 -5.521565e-02 2.250574e-02 -2.387258e-02 1.337258e-03 3.344674e-03 -1.062444e-02 1.392545e-03
<VARIANCE> 39
 2.066958e+01 2.886327e+01 7.368845e+01 5.149739e+01 5.780136e+01 4.878828e+01 4.785176e+01 5.051522e+01 4.062284e+01 3.615453e+01 4.422082e+01 2.564506e+01 5.489040e-02 6.333966e-01 1.095807e+00 1.683010e+00 2.086951e+00 2.254425e+00 2.571076e+00 2.719741e+00 2.477118e+00 2.270503e+00 2.396410e+00 2.294286e+00 1.874032e+00 1.000000e-02 1.031102e-01 1.756904e-01 2.387735e-01 3.181787e-01 3.522101e-01 4.345254e-01 4.399435e-01 4.310505e-01 4.141693e-01 4.273840e-01 3.847899e-01 3.526004e-01 1.000000e-02
<GCONST> 9.810901e+01
<TRANSP> 5
 0.000000e+00 1.000000e+00 0.000000e+00 0.000000e+00 0.000000e+00
 0.000000e+00 9.619474e-01 3.805253e-02 0.000000e+00 0.000000e+00
 0.000000e+00 0.000000e+00 9.503649e-01 4.963511e-02 0.000000e+00
 0.000000e+00 0.000000e+00 0.000000e+00 9.339413e-01 6.605872e-02
 0.000000e+00 0.000000e+00 0.000000e+00 0.000000e+00 0.000000e+00
<ENDHMM>
