~o
<STREAMINFO> 1 39
<VECSIZE> 39<NULLD><MFCC_E_D_A><DIAGC>
~h "two"
<BEGINHMM>
<NUMSTATES> 5
<STATE> 2
<MEAN> 39
 -1.875767e+01 -1.793539e+00 2.799220e+00 -6.031093e+00 -5.949037e+00 -6.510468e+00 -1.511690e+00 -1.653553e+00 -2.972218e+00 -1.285650e+00 1.425581e-01 -1.752577e+00 4.988478e-01 5.960878e-01 -5.036458e-02 7.696260e-01 -3.276746e-02 -1.033620e+00 -7.165244e-01 -5.699808e-01 -1.875560e-01 -5.157433e-01 -7.548277e-02 -1.054671e-01 -1.178171e-01 3.980824e-02 1.493220e-01 -6.937699e-02 1.393636e-02 5.625756e-02 -2.013660e-02 -1.914183e-03 -4.749838e-02 -1.626653e-04 -1.984273e-02 -1.134881e-02 -8.618361e-03 2.126768e-03 -3.294754e-03
<VARIANCE> 39
 1.027656e+02 4.806631e+01 7.100931e+01 5.797372e+01 9.151205e+01 6.326596e+01 6.262900e+01 5.057653e+01 5.032099e+01 3.959405e+01 3.570995e+01 2.686361e+01 8.679052e-02 7.961350e+00 3.845552e+00 2.947431e+00 3.971130e+00 3.762317e+00 3.796250e+00 4.731696e+00 3.667955e+00 3.187132e+00 3.090302e+00 2.847101e+00 2.111088e+00 1.000000e-02 9.815334e-01 7.033540e-01 5.029426e-01 6.627576e-01 6.493362e-01 6.536624e-01 8.013897e-01 6.579344e-01 5.560930e-01 5.469198e-01 5.187925e-01 3.935106e-01 1.000000e-02
<GCONST> 1.177683e+02
<STATE> 3
<MEAN> 39
 -1.845487e+00 -3.513428e+00 8.556859e+00 -3.989214e+00 -1.370089e+01 -1.472660e+01 -1.240610e+01 -5.517769e+00 -9.417410e+00 -2.356960e+00 -2.888470e+00 -3.958676e+00 7.398388e-01 2.829312e-01 2.421661e-01 -3.757988e-01 1.092677e-01 4.896848e-01 1.613440e-01 -7.431239e-02 -1.279581e-01 8.518723e-02 -7.799781e-03 -1.140878e-02 -2.578335e-02 -9.174351e-03 -5.001794e-02 7.207628e-02 -3.990629e-02 1.900602e-02 7.355776e-02 5.550785e-02 8.327106e-02 -2.237420e-02 3.032955e-02 -1.618689e-02 -3.846355e-03 6.220678e-04 -2.189955e-03
<VARIANCE> 39
 2.840170e+01 4.913026e+01 6.964187e+01 9.071385e+01 8.720213e+01 8.783838e+01 8.210020e+01 7.302177e+01 8.150034e+01 7.361974e+01 6.993991e+01 4.073293e+01 1.246083e-02 2.331945e-01 6.235453e-01 8.159742e-01 8.942014e-01 1.133920e+00 1.375387e+00 1.618248e+00 1.626034e+00 1.520507e+00 1.503889e+00 1.382227e+00 1.188899e+00 1.000000e-02 3.911499e-02 8.176474e-02 1.067411e-01 1.352123e-01 1.925327e-01 2.086672e-01 2.437714e-01 2.393186e-01 2.313708e-01 2.376949e-01 2.235741e-01 1.981466e-01 1.000000e-02
<GCONST> 8.680598e+01
<STATE> 4
<MEAN> 39
 -5.461664e+00 -1.060649e-01 5.064769e-01 -8.665223e-01 -2.161727e+00 -6.121566e+00 -5.083623e+00 -5.653565e+00 -4.055260e+00 -3.507659e+00 -1.268512e+00 -2.232101e+00 2.906080e-01 -5.883142e-01 -1.593862e-01 -2.801760e-01 6.068249e-02 4.063233e-01 4.314210e-01 5.389431e-01 2.181009e-01 3.039663e-01 1.172605e-03 6.008043e-02 1.373935e-01 -3.011385e-02 -1.779363e-02 -4.975790e-02 1.732286e-02 -1.617964e-02 -4.569096e-02 -3.192608e-02 -2.836493e-02 2.999442e-02 -2.069792e-03 9.578431e-03 2.806097e-03 5.609713e-04 3.969475e-04
<VARIANCE> 39
 3.787395e+01 2.836370e+01 4.060834e+01 4.397470e+01 4.881735e+01 6.187258e+01 5.737477e+01 5.189529e+01 4.860546e+01 4.009429e+01 4.380352e+01 2.954103e+01 6.512967e-02 7.129287e-01 1.200792e+00 1.341815e+00 1.706942e+00 2.135468e+00 2.408703e+00 2.663204e+00 2.333343e+00 2.393743e+00 2.347418e+00 2.075231e+00 1.898897e+00 1.000000e-02 1.013123e-01 1.737844e-01 2.106231e-01 2.838440e-01 3.316384e-01 3.795138e-01 4.321375e-01 4.105047e-01 4.155694e-01 4.137678e-01 3.692749e-01 3.475780e-01 1.000000e-02
<GCONST> 9.771838e+01
<TRANSP> 5
 0.000000e+00 1.000000e+00 0.000000e+00 0.000000e+00 0.000000e+00
 0.000000e+00 9.401556e-01 5.984440e-02 0.000000e+00 0.000000e+00
 0.000000e+00 0.000000e+00 9.508653e-01 4.913469e-02 0.000000e+00
 0.000000e+00 0.000000e+00 0.000000e+00 9.419916e-01 5.800838e-02
 0.000000e+00 0.000000e+00 0.000000e+00 0.000000e+00 0.000000e+00
<ENDHMM>
