~o
<STREAMINFO> 1 39
<VECSIZE> 39<NULLD><MFCC_E_D_A><DIAGC>
~h "two"
<BEGINHMM>
<NUMSTATES> 5
<STATE> 2
<MEAN> 39
 -1.000893e+01 -2.301009e+00 3.056772e+00 -1.105476e+00 -9.534866e+00 -6.179641e+00 1.696594e+00 1.448971e+00 -5.592518e+00 -1.012019e+00 2.339673e+00 1.692732e+00 3.531266e-01 2.591901e-01 2.318439e-01 5.376471e-01 7.889056e-01 -1.296796e+00 -8.986117e-01 -7.560121e-01 2.101633e-01 -6.379164e-01 -8.685476e-01 7.442794e-01 2.803628e-02 3.465446e-02 7.008519e-02 -6.001887e-03 -2.513677e-03 3.701947e-02 3.244339e-03 -1.031314e-02 -1.054483e-01 1.063345e-02 4.542229e-02 -7.240982e-02 -1.033397e-02 2.878407e-02 1.381525e-03
<VARIANCE> 39
 4.072025e+01 1.073186e+01 2.103082e+01 6.168292e+01 1.197787e+02 4.500389e+01 3.749344e+01 1.895829e+01 3.699328e+01 5.418063e+01 3.402493e+01 1.237649e+01 3.962850e-02 4.463311e+00 1.360301e+00 1.317554e+00 4.332821e+00 3.480683e+00 1.885167e+00 5.204702e+00 1.598032e+00 1.962139e+00 6.858467e+00 2.381214e+00 1.385792e+00 1.000000e-02 4.593015e-01 3.085037e-01 2.577516e-01 6.469832e-01 5.521512e-01 3.804451e-01 9.513943e-01 3.174988e-01 3.718925e-01 1.061054e+00 5.110739e-01 2.832032e-01 1.000000e-02
<GCONST> 1.032645e+02
<STATE> 3
<MEAN> 39
 4.520933e+00 1.109973e+00 3.930829e+00 2.800039e+00 -1.086997e+01 -1.016421e+01 -1.096065e+01 -2.157179e+00 -1.238631e+01 -8.605031e+00 4.417653e+00 -9.630318e-01 6.927931e-01 1.605576e-01 1.576026e-01 -3.413568e-01 -7.371765e-01 5.217128e-01 4.880059e-01 2.667685e-01 -3.746128e-01 5.216847e-02 4.354425e-01 -4.521084e-01 5.427596e-02 -1.074001e-02 -8.168881e-02 -2.785144e-02 -2.016065e-02 1.926793e-02 5.617656e-02 4.550844e-02 1.045408e-01 -3.128728e-02 6.122636e-02 8.955966e-02 -8.485239e-03 1.420510e-02 -2.798802e-03
<VARIANCE> 39
 4.861148e+00 7.016780e+00 1.650468e+01 9.053959e+01 2.493745e+01 4.524683e+01 3.226559e+01 2.679843e+01 3.193973e+01 4.068793e+01 3.251024e+01 2.812153e+01 1.000000e-02 3.039000e-01 3.756345e-01 6.815826e-01 1.341255e+00 9.832185e-01 1.338531e+00 1.764987e+00 1.076283e+00 2.557070e+00 1.526523e+00 1.993272e+00 1.171646e+00 1.000000e-02 5.072454e-02 8.442639e-02 1.062639e-01 1.652542e-01 1.512444e-01 2.281640e-01 2.466974e-01 1.878181e-01 2.821995e-01 2.607213e-01 3.205322e-01 1.741042e-01 1.000000e-02
<GCONST> 7.591679e+01
<STATE> 4
<MEAN> 39
 -1.710148e+00 -2.437893e+00 2.773273e+00 -2.958322e+00 -4.449165e-01 -3.572517e+00 -1.887021e-01 -6.640936e+00 -3.199807e+00 -2.290700e+00 -3.249074e+00 4.170105e+00 2.406048e-01 -4.192741e-01 -4.413393e-01 -5.094667e-02 2.200885e-01 4.481297e-01 7.292216e-02 1.875286e-01 6.356186e-02 5.619596e-01 2.741612e-01 -1.062207e-01 -5.755359e-02 -1.887547e-02 4.852899e-02 3.912739e-02 3.561476e-04 -6.520401e-02 -6.381629e-02 8.573603e-04 -4.078105e-03 5.354549e-02 -9.992428e-02 -2.195426e-02 -1.595516e-02 -5.656347e-02 2.328032e-03
<VARIANCE> 39
 6.581383e+00 8.886801e+00 5.840892e+00 6.997630e+00 1.137724e+01 9.957808e+00 1.331670e+01 1.236979e+01 1.831449e+01 1.213620e+01 1.530235e+01 1.215620e+01 1.222904e-02 2.370198e-01 3.502650e-01 4.825252e-01 8.387226e-01 8.246627e-01 9.609483e-01 9.449468e-01 1.397113e+00 1.733041e+00 1.153957e+00 9.132074e-01 1.437633e+00 1.000000e-02 2.444915e-02 6.057239e-02 1.051164e-01 1.455144e-01 1.295972e-01 1.898387e-01 1.782525e-01 2.647280e-01 3.352704e-01 2.115834e-01 1.797395e-01 2.685340e-01 1.000000e-02
<GCONST> 6.079262e+01
<TRANSP> 5
 0.000000e+00 1.000000e+00 0.000000e+00 0.000000e+00 0.000000e+00
 0.000000e+00 9.477612e-01 5.223881e-02 0.000000e+00 0.000000e+00
 0.000000e+00 0.000000e+00 9.621621e-01 3.783783e-02 0.000000e+00
 0.000000e+00 0.000000e+00 0.000000e+00 9.461538e-01 5.384616e-02
 0.000000e+00 0.000000e+00 0.000000e+00 0.000000e+00 0.000000e+00
<ENDHMM>
