~o
<STREAMINFO> 1 39
<VECSIZE> 39<NULLD><MFCC_E_D_A><DIAGC>
~h "two"
<BEGINHMM>
<NUMSTATES> 5
<STATE> 2
<MEAN> 39
 -1.517968e+01 -1.820951e+00 6.314642e+00 -2.539447e+00 -3.958545e-02 -3.882635e+00 -7.537333e+00 -2.580146e-01 1.562876e+00 -7.961160e+00 -3.230566e+00 -9.916376e-01 5.113626e-01 2.024034e-01 -1.374076e-01 8.462946e-01 5.209863e-02 -6.516902e-01 -4.657216e-01 -5.256286e-01 6.837291e-01 -2.897675e-02 2.469224e-01 4.688551e-01 1.888162e-02 3.197202e-02 2.141872e-01 -2.578409e-02 1.317376e-01 7.497844e-02 -9.789475e-02 -8.984712e-02 -7.271694e-02 1.306464e-02 -3.974319e-02 1.092421e-01 2.331188e-03 -1.103990e-03 3.685110e-03
<VARIANCE> 39
 6.114465e+01 1.066524e+01 1.842961e+01 8.247479e+00 2.695635e+01 1.821108e+01 1.667907e+01 2.704496e+01 1.502341e+01 2.897135e+01 2.507356e+01 8.437937e+00 2.273351e-02 1.042231e+01 1.822340e+00 1.830704e+00 1.138990e+00 1.861136e+00 1.745688e+00 1.769417e+00 1.773829e+00 1.856303e+00 4.495456e+00 3.296231e+00 9.668523e-01 1.000000e-02 1.340235e+00 3.928482e-01 2.616165e-01 2.001528e-01 3.790711e-01 2.946574e-01 3.480547e-01 3.227482e-01 3.948957e-01 7.321195e-01 7.530024e-01 1.910894e-01 1.000000e-02
<GCONST> 9.205827e+01
<STATE> 3
<MEAN> 39
 -1.950387e+00 -1.689858e+00 1.577505e+01 2.655172e+00 -5.711911e+00 -1.165731e+01 -1.519330e+01 1.828168e-01 -2.316218e+00 -3.018388e-01 -1.824382e+00 -7.510651e-01 7.722679e-01 2.680096e-01 7.501559e-01 -6.314712e-01 1.045447e-01 7.223000e-01 1.794381e-01 -1.893432e-01 -1.275108e+00 -5.721586e-01 1.231029e-02 -5.566927e-01 8.539982e-03 -1.476925e-02 -2.677876e-01 1.007927e-01 -2.617290e-01 -1.456652e-01 2.523884e-01 2.144439e-01 2.058115e-01 -1.375470e-01 5.148108e-02 -2.795370e-01 -8.136430e-02 5.813524e-02 -7.594988e-03
<VARIANCE> 39
 1.064951e+00 1.317317e+01 1.384407e+01 4.517966e+00 1.906706e+01 8.142590e+00 5.121889e+00 2.763760e+01 7.575972e+00 8.492622e+00 1.315249e+01 7.805759e+00 1.000000e-02 3.854980e-01 7.499272e-01 1.462241e+00 9.146211e-01 2.143811e+00 1.275174e+00 5.718526e-01 1.074224e+00 9.698431e-01 8.385057e-01 7.743390e-01 1.014232e+00 1.000000e-02 2.109025e-01 1.772710e-01 2.339513e-01 1.099862e-01 2.425051e-01 1.757492e-01 9.052943e-02 1.595285e-01 1.327051e-01 3.841676e-01 1.596128e-01 2.344558e-01 1.000000e-02
<GCONST> 6.195058e+01
<STATE> 4
<MEAN> 39
 -4.713688e+00 6.494679e-01 5.026617e+00 -8.890923e-01 4.729401e+00 -4.011897e+00 -7.065958e+00 -8.606827e+00 -2.461215e+00 -5.309207e+00 -7.978244e+00 -4.246751e-01 4.546264e-01 -3.077042e-01 -3.561216e-01 -4.077491e-01 -1.253787e-01 2.367260e-01 3.726920e-01 6.884589e-01 1.032081e-01 2.579457e-01 -3.390324e-01 -8.989564e-02 -5.345947e-03 -1.732409e-02 -1.150816e-02 -5.357830e-02 4.896260e-02 7.706304e-02 -8.754420e-02 -4.537423e-02 -2.981026e-02 4.009710e-02 -1.315705e-02 3.654470e-02 2.593058e-02 -5.884458e-02 1.293586e-03
<VARIANCE> 39
 4.401251e+00 9.111836e+00 1.230419e+01 5.071137e+00 6.897000e+00 1.320274e+01 1.990505e+01 1.278951e+01 1.876537e+01 1.073137e+01 1.687703e+01 1.172559e+01 1.299264e-02 2.157454e-01 4.922918e-01 6.653212e-01 5.819274e-01 6.832322e-01 9.954647e-01 1.357601e+00 1.125639e+00 1.401110e+00 1.902056e+00 1.940717e+00 1.633589e+00 1.000000e-02 3.926543e-02 7.929642e-02 1.214093e-01 1.345697e-01 1.147303e-01 1.906735e-01 2.667215e-01 2.373654e-01 2.759821e-01 3.398434e-01 3.676865e-01 3.390968e-01 1.000000e-02
<GCONST> 6.465688e+01
<TRANSP> 5
 0.000000e+00 1.000000e+00 0.000000e+00 0.000000e+00 0.000000e+00
 0.000000e+00 9.354839e-01 6.451613e-02 0.000000e+00 0.000000e+00
 0.000000e+00 0.000000e+00 9.090909e-01 9.090909e-02 0.000000e+00
 0.000000e+00 0.000000e+00 0.000000e+00 9.411765e-01 5.882353e-02
 0.000000e+00 0.000000e+00 0.000000e+00 0.000000e+00 0.000000e+00
<ENDHMM>
