~o
<STREAMINFO> 1 39
<VECSIZE> 39<NULLD><MFCC_E_D_A><DIAGC>
~h "two"
<BEGINHMM>
<NUMSTATES> 5
<STATE> 2
<MEAN> 39
 -1.908910e+01 -3.010764e+00 1.102133e+00 -5.846987e+00 -7.576234e+00 -5.395212e+00 -4.087404e+00 -2.890510e+00 -2.682811e+00 -3.127365e+00 -2.728964e-01 -1.158240e+00 3.829014e-01 3.172446e-01 -4.835901e-02 7.758279e-01 1.470944e-01 -8.965190e-01 -3.915249e-01 -5.180758e-01 -5.536830e-02 -9.342933e-02 1.190086e-01 -2.081326e-01 2.864990e-02 3.955312e-02 1.607864e-01 -1.008155e-01 1.575067e-02 1.804556e-03 -1.812921e-02 8.655109e-03 -5.361741e-02 -4.373745e-02 -4.840347e-02 -2.124593e-02 -2.016191e-02 -3.968660e-03 -2.518869e-03
<VARIANCE> 39
 8.528262e+01 3.313078e+01 5.435332e+01 5.726480e+01 8.617108e+01 3.798820e+01 3.702826e+01 4.258469e+01 3.241455e+01 4.166665e+01 2.690975e+01 2.255025e+01 1.094173e-01 8.999084e+00 3.359255e+00 2.877440e+00 3.556110e+00 3.348310e+00 3.366889e+00 4.238141e+00 3.370538e+00 3.226985e+00 3.127865e+00 2.296979e+00 1.662842e+00 1.000000e-02 1.021011e+00 5.963408e-01 4.779786e-01 5.282650e-01 5.624977e-01 6.938602e-01 7.053784e-01 6.038286e-01 5.545590e-01 5.115178e-01 4.530823e-01 3.282681e-01 1.000000e-02
<GCONST> 1.129529e+02
<STATE> 3
<MEAN> 39
 -2.700691e+00 -7.378792e+00 9.479457e+00 -4.937333e-01 -1.698624e+01 -1.214808e+01 -1.251052e+01 -4.538376e+00 -7.166130e+00 -5.493329e-01 -3.643406e+00 -2.410783e+00 7.047701e-01 3.158582e-01 1.207408e-01 -3.710423e-01 1.476040e-01 5.497819e-01 -1.780128e-02 2.372717e-01 -9.269805e-02 7.185983e-02 5.798258e-02 1.758602e-01 -9.473221e-02 -9.752960e-03 -7.417241e-02 7.126261e-02 -3.818570e-02 9.854066e-03 7.498524e-02 1.862570e-02 1.203958e-01 1.716374e-02 6.016998e-03 -7.427594e-02 1.275604e-03 1.768736e-02 -2.133381e-03
<VARIANCE> 39
 9.306858e+00 4.607384e+01 3.089114e+01 7.630009e+01 1.303384e+02 6.604436e+01 5.553237e+01 6.216848e+01 6.329519e+01 5.995276e+01 4.455770e+01 3.143233e+01 1.067456e-02 2.448615e-01 6.544226e-01 6.676050e-01 1.226859e+00 1.727390e+00 1.625838e+00 1.757030e+00 1.526321e+00 1.604606e+00 2.007191e+00 9.183461e-01 9.292276e-01 1.000000e-02 5.206043e-02 9.415137e-02 1.081244e-01 1.518950e-01 2.581437e-01 1.979233e-01 2.470394e-01 2.220536e-01 2.401427e-01 2.785020e-01 1.745305e-01 1.557124e-01 1.000000e-02
<GCONST> 8.383119e+01
<STATE> 4
<MEAN> 39
 -6.902431e+00 -3.508866e+00 2.601731e-01 2.749786e-02 -2.631851e+00 -6.854335e+00 -3.822793e+00 -4.247048e+00 -4.579555e+00 -7.445355e+00 -8.815205e-01 -1.553399e+00 2.593001e-01 -4.820668e-01 -7.871585e-02 -3.398179e-01 -2.119949e-01 2.532149e-01 3.568166e-01 2.481780e-01 1.512606e-01 -2.221498e-02 -2.223071e-01 -3.629649e-02 4.686785e-02 -2.419437e-02 9.413524e-03 -2.726322e-02 1.221007e-02 6.520427e-03 -4.821788e-02 -2.185114e-02 -6.559471e-02 -1.677483e-02 1.343771e-02 5.697169e-02 -3.898734e-03 -2.015838e-02 8.380394e-04
<VARIANCE> 39
 2.580796e+01 2.092963e+01 2.101132e+01 3.415471e+01 2.719609e+01 6.051931e+01 2.341617e+01 2.587457e+01 2.133602e+01 2.491699e+01 2.520770e+01 2.189271e+01 6.930730e-02 3.733738e-01 7.306097e-01 1.096264e+00 1.446779e+00 1.936111e+00 2.016090e+00 1.650446e+00 1.691823e+00 1.691352e+00 1.788090e+00 1.613817e+00 1.481398e+00 1.000000e-02 5.428741e-02 1.110312e-01 1.866773e-01 2.462626e-01 3.565939e-01 3.473072e-01 2.810891e-01 3.061577e-01 3.065009e-01 3.092357e-01 3.221666e-01 2.971637e-01 1.000000e-02
<GCONST> 8.516167e+01
<TRANSP> 5
 0.000000e+00 1.000000e+00 0.000000e+00 0.000000e+00 0.000000e+00
 0.000000e+00 9.462366e-01 5.376345e-02 0.000000e+00 0.000000e+00
 0.000000e+00 0.000000e+00 9.523810e-01 4.761904e-02 0.000000e+00
 0.000000e+00 0.000000e+00 0.000000e+00 9.517906e-01 4.820937e-02
 0.000000e+00 0.000000e+00 0.000000e+00 0.000000e+00 0.000000e+00
<ENDHMM>
