~o
<STREAMINFO> 1 39
<VECSIZE> 39<NULLD><MFCC_E_D_A><DIAGC>
~h "zero"
<BEGINHMM>
<NUMSTATES> 5
<STATE> 2
<MEAN> 39
 -1.085866e+01 5.005313e+00 5.710455e+00 -4.424689e-01 6.198886e+00 -6.004196e+00 -6.620354e+00 -4.205238e+00 -2.982003e+00 -4.793422e+00 -7.198596e+00 -3.108185e-01 5.174581e-01 -2.143227e-01 3.214923e-01 4.342629e-01 3.936094e-02 -8.472863e-02 -4.466525e-01 -1.963734e-01 3.807691e-01 -2.022541e-01 1.579451e-01 1.877879e-01 1.012169e-01 1.805389e-02 2.225710e-01 -1.478539e-01 1.155659e-01 7.334989e-02 -6.381591e-02 -7.487454e-02 -3.450878e-02 -4.818449e-02 -8.730872e-03 1.598181e-02 -3.356466e-02 -5.699358e-02 3.278174e-03
<VARIANCE> 39
 4.728677e+01 4.007754e+01 8.507509e+00 3.643403e+00 1.492826e+01 1.839232e+01 7.736096e+00 3.754764e+01 1.357625e+01 1.940536e+01 1.684896e+01 9.267471e+00 1.516583e-02 5.139972e+00 3.103745e+00 1.516958e+00 3.797121e-01 1.998493e+00 3.323844e+00 1.030840e+00 2.248734e+00 1.172777e+00 1.498131e+00 1.157810e+00 1.164909e+00 1.000000e-02 7.778947e-01 5.089004e-01 2.030611e-01 7.667046e-02 2.970373e-01 5.026319e-01 1.357849e-01 2.877587e-01 1.896858e-01 2.471833e-01 1.945245e-01 2.653956e-01 1.000000e-02
<GCONST> 8.072846e+01
<STATE> 3
<MEAN> 39
 9.163752e-01 -9.453401e+00 7.512526e+00 2.205480e+00 -4.186797e+00 -1.641890e+01 -6.380707e+00 6.702978e+00 -1.608308e-01 7.585523e+00 -1.457609e+00 -6.238476e+00 7.958770e-01 6.870030e-01 -7.611017e-01 -8.302879e-01 -1.175094e-01 -2.515866e-01 2.913309e-01 3.696859e-01 -7.585374e-02 3.291976e-01 5.894238e-01 -1.811625e-01 -8.274496e-01 -4.311620e-03 -2.348999e-01 2.049029e-01 -9.049748e-02 -9.135409e-02 1.638002e-01 2.013750e-01 -9.694662e-03 -5.182806e-03 -1.439188e-03 -3.537644e-02 -4.134340e-02 4.419692e-02 -3.133428e-03
<VARIANCE> 39
 1.055449e+01 2.522557e+01 8.090465e+01 1.695732e+01 6.451583e+00 8.163902e+00 1.298905e+01 2.885987e+01 1.147621e+01 2.460890e+01 7.450656e+00 3.546985e+01 1.000000e-02 1.358855e+00 2.631655e+00 2.088930e+00 2.655276e+00 1.463636e+00 1.783777e+00 1.151784e+00 3.053826e+00 8.252534e-01 1.795482e+00 1.268236e+00 2.364517e+00 1.000000e-02 1.831947e-01 2.277569e-01 2.797366e-01 3.858956e-01 2.620993e-01 3.153155e-01 3.470647e-01 4.420365e-01 1.912182e-01 4.097734e-01 1.921684e-01 5.806819e-01 1.000000e-02
<GCONST> 8.396725e+01
<STATE> 4
<MEAN> 39
 -2.207692e+00 -1.966226e+00 5.214947e-01 -3.782262e+00 2.758713e+00 -2.681010e+00 -4.393690e+00 -4.355419e+00 -2.547714e+00 8.982043e-01 -3.660253e+00 -2.899482e+00 4.979764e-01 -4.408395e-01 3.367573e-01 2.631053e-01 1.402175e-01 3.862680e-01 2.746111e-01 -1.640518e-01 -4.981443e-01 -3.635661e-01 -9.322401e-01 -1.681692e-02 8.109174e-01 -1.565130e-02 3.391726e-03 -1.848301e-02 1.394502e-02 8.028833e-02 -4.994860e-02 -6.514456e-02 5.540676e-02 8.555205e-03 3.340641e-02 -4.059942e-02 -3.283632e-02 -5.488508e-02 7.598993e-04
<VARIANCE> 39
 1.058680e+01 1.355991e+01 3.819697e+00 6.692964e+00 1.119335e+01 1.668786e+01 1.931420e+01 2.158967e+01 1.763760e+01 6.995353e+01 2.054445e+01 4.635783e+01 1.000000e-02 1.593072e-01 1.107732e+00 2.398256e-01 5.551321e-01 6.977978e-01 1.502601e+00 2.548059e+00 2.043123e+00 1.388638e+00 2.920832e+00 2.704539e+00 3.369831e+00 1.000000e-02 3.431675e-02 1.001813e-01 5.306059e-02 8.102319e-02 1.189770e-01 2.883740e-01 3.643241e-01 3.821457e-01 2.721097e-01 5.239408e-01 5.589887e-01 5.759395e-01 1.000000e-02
<GCONST> 7.331819e+01
<TRANSP> 5
 0.000000e+00 1.000000e+00 0.000000e+00 0.000000e+00 0.000000e+00
 0.000000e+00 9.545454e-01 4.545454e-02 0.000000e+00 0.000000e+00
 0.000000e+00 0.000000e+00 9.523810e-01 4.761904e-02 0.000000e+00
 0.000000e+00 0.000000e+00 0.000000e+00 9.523810e-01 4.761904e-02
 0.000000e+00 0.000000e+00 0.000000e+00 0.000000e+00 0.000000e+00
<ENDHMM>
