~o
<STREAMINFO> 1 39
<VECSIZE> 39<NULLD><MFCC_E_D_A><DIAGC>
~h "zero"
<BEGINHMM>
<NUMSTATES> 5
<STATE> 2
<MEAN> 39
 -1.628381e+01 7.051622e+00 1.122647e+00 4.857217e-01 -5.450557e+00 -9.362836e+00 -2.706018e+00 -5.606404e+00 -3.919056e+00 -4.908756e+00 -2.359098e+00 -2.650879e+00 4.923512e-01 3.208924e-01 -2.067594e-01 5.650977e-01 -2.543863e-01 -7.739880e-01 -4.809579e-01 -3.502400e-01 -1.071834e-01 -2.455451e-01 3.544014e-02 -5.862674e-04 -4.907089e-02 3.344675e-02 7.236899e-02 -1.486222e-01 8.382617e-03 -5.469806e-02 6.456858e-03 4.636971e-02 -1.915668e-02 5.765150e-02 1.308039e-02 3.417332e-02 1.129685e-02 -3.646553e-03 -1.639751e-03
<VARIANCE> 39
 7.403909e+01 9.772485e+01 1.024903e+02 6.802034e+01 1.134884e+02 7.109444e+01 6.141153e+01 5.520816e+01 4.794459e+01 4.254490e+01 3.706611e+01 3.004174e+01 7.882986e-02 4.644765e+00 5.794631e+00 4.053362e+00 3.787820e+00 5.087060e+00 4.353031e+00 3.760526e+00 3.297017e+00 3.070328e+00 3.002192e+00 2.423434e+00 2.028658e+00 1.000000e-02 5.752878e-01 5.693568e-01 5.507445e-01 5.040170e-01 8.208326e-01 7.936050e-01 6.720164e-01 6.010183e-01 5.614433e-01 5.179837e-01 4.377484e-01 3.779456e-01 1.000000e-02
<GCONST> 1.181088e+02
<STATE> 3
<MEAN> 39
 1.410667e+00 -1.038223e+01 -1.827409e+00 -5.863568e+00 -1.134296e+01 -1.277518e+01 -8.178679e+00 -6.311673e-01 -3.444612e+00 -1.775966e+00 -3.439254e+00 -6.844894e+00 7.559538e-01 2.872043e-01 9.013270e-03 -5.350509e-01 -7.515619e-02 3.928863e-01 3.072272e-01 6.962103e-02 -4.320095e-03 9.545320e-02 1.176612e-01 -2.752908e-02 -1.390802e-01 -6.611349e-03 -4.994260e-02 9.218022e-02 2.829903e-03 3.490737e-02 3.051004e-02 1.391892e-02 4.087698e-02 -4.082491e-02 -1.334801e-02 -2.370290e-02 1.188348e-03 2.453777e-02 -1.396344e-03
<VARIANCE> 39
 3.185864e+01 5.177520e+01 1.082163e+02 8.792619e+01 7.831890e+01 9.016562e+01 7.844515e+01 8.718273e+01 8.143544e+01 6.175182e+01 7.636778e+01 4.952144e+01 1.083641e-02 5.746358e-01 1.274705e+00 1.828339e+00 1.813166e+00 1.941569e+00 2.129490e+00 2.406552e+00 2.762808e+00 2.201898e+00 1.967689e+00 1.752145e+00 1.532836e+00 1.000000e-02 5.666539e-02 1.180036e-01 1.863738e-01 2.420234e-01 2.906386e-01 3.108323e-01 3.510889e-01 3.755866e-01 3.392083e-01 3.135362e-01 2.855727e-01 2.501662e-01 1.000000e-02
<GCONST> 9.820340e+01
<STATE> 4
<MEAN> 39
 -4.722923e+00 -1.590792e+00 -3.584512e+00 -4.621020e+00 -1.941876e+00 -3.061527e+00 -2.087805e+00 -4.176833e+00 -2.536844e+00 -2.117213e+00 -1.475928e+00 -3.568196e+00 2.918887e-01 -6.792289e-01 6.724036e-02 1.653203e-01 2.927548e-01 3.196634e-01 1.749855e-01 3.071342e-01 1.330302e-01 1.280740e-01 -1.693650e-01 7.219376e-02 2.652006e-01 -2.898801e-02 -6.833649e-03 -6.871286e-02 -1.729969e-03 -6.064398e-03 -3.219255e-02 -3.464731e-02 -3.016323e-02 3.138397e-02 2.588669e-02 2.066645e-02 4.828790e-03 -2.024949e-02 4.787634e-04
<VARIANCE> 39
 4.054019e+01 2.726596e+01 4.320471e+01 5.606609e+01 4.157433e+01 5.222195e+01 4.644772e+01 4.842290e+01 5.043048e+01 4.809136e+01 4.415751e+01 3.147560e+01 6.967238e-02 7.469220e-01 1.149697e+00 1.377362e+00 2.027598e+00 2.019757e+00 2.125746e+00 2.193085e+00 2.153036e+00 2.328438e+00 2.396143e+00 2.037491e+00 1.801783e+00 1.000000e-02 1.035935e-01 1.662723e-01 2.183741e-01 3.104229e-01 3.362480e-01 3.422981e-01 3.617911e-01 3.876566e-01 3.967128e-01 4.015796e-01 3.506413e-01 3.298061e-01 1.000000e-02
<GCONST> 9.706565e+01
<TRANSP> 5
 0.000000e+00 1.000000e+00 0.000000e+00 0.000000e+00 0.000000e+00
 0.000000e+00 9.529554e-01 4.704456e-02 0.000000e+00 0.000000e+00
 0.000000e+00 0.000000e+00 9.661524e-01 3.384755e-02 0.000000e+00
 0.000000e+00 0.000000e+00 0.000000e+00 9.434596e-01 5.654045e-02
 0.000000e+00 0.000000e+00 0.000000e+00 0.000000e+00 0.000000e+00
<ENDHMM>
