~o
<STREAMINFO> 1 39
<VECSIZE> 39<NULLD><MFCC_E_D_A><DIAGC>
~h "zero"
<BEGINHMM>
<NUMSTATES> 5
<STATE> 2
<MEAN> 39
 -1.647928e+01 3.008245e+00 -4.622298e+00 7.765729e-01 -6.380345e+00 -8.126797e+00 -3.026672e+00 -7.157331e+00 -2.338912e+00 -4.810341e+00 -1.472072e+00 -2.066187e+00 4.331400e-01 2.342375e-01 -2.244352e-01 6.090007e-01 -1.105951e-01 -5.881361e-01 -3.238639e-01 -2.779554e-01 1.707169e-01 -5.570717e-02 1.616090e-01 -6.610031e-02 -5.435687e-02 3.189761e-02 6.274872e-02 -1.276077e-01 9.325976e-03 -2.776861e-02 -1.932592e-02 2.730916e-02 -8.613018e-03 9.813958e-02 2.111354e-02 1.817759e-03 6.658230e-03 -7.435629e-03 -9.238099e-04
<VARIANCE> 39
 6.899571e+01 6.580150e+01 1.596029e+02 9.288953e+01 8.812796e+01 4.586226e+01 6.467483e+01 4.616990e+01 4.208720e+01 4.473640e+01 3.467933e+01 2.235067e+01 9.412064e-02 3.752767e+00 4.290133e+00 6.221863e+00 5.211095e+00 5.065439e+00 3.147479e+00 3.830271e+00 3.890964e+00 2.469657e+00 3.203564e+00 2.387398e+00 1.820191e+00 1.000000e-02 4.405651e-01 4.309904e-01 7.234336e-01 6.850170e-01 8.733584e-01 6.173813e-01 6.088069e-01 6.169167e-01 4.523398e-01 5.391872e-01 4.072025e-01 3.732896e-01 1.000000e-02
<GCONST> 1.166387e+02
<STATE> 3
<MEAN> 39
 1.608723e+00 -1.472855e+01 -2.020490e+00 -1.463804e+00 -1.408646e+01 -1.196647e+01 -5.244820e+00 3.231622e+00 -2.467874e+00 -4.254953e-01 -3.496813e+00 -6.437833e+00 7.669353e-01 2.443704e-01 9.882304e-03 -5.076842e-01 1.031117e-01 2.843978e-01 2.473838e-01 2.826024e-01 -1.498169e-01 6.508587e-02 2.307688e-01 1.024847e-01 -1.924014e-01 -7.605584e-03 -5.087315e-02 9.503308e-02 -5.923086e-03 -1.475112e-02 8.554729e-02 3.618674e-02 2.877622e-02 -9.614799e-02 -4.279197e-02 -1.733284e-02 1.700945e-02 2.500793e-02 -1.470114e-03
<VARIANCE> 39
 1.446082e+01 3.654415e+01 7.432440e+01 5.422007e+01 8.616273e+01 7.986515e+01 7.640623e+01 4.740260e+01 8.074403e+01 7.547416e+01 7.459006e+01 4.702037e+01 1.000000e-02 4.581974e-01 9.917340e-01 1.597250e+00 1.428294e+00 1.953641e+00 1.732550e+00 1.832709e+00 2.169203e+00 1.384577e+00 1.617928e+00 1.583801e+00 1.342224e+00 1.000000e-02 3.265348e-02 9.264641e-02 1.376685e-01 1.684869e-01 2.440860e-01 2.098045e-01 3.010464e-01 3.013296e-01 2.276125e-01 2.360516e-01 2.344280e-01 2.024112e-01 1.000000e-02
<GCONST> 8.962996e+01
<STATE> 4
<MEAN> 39
 -5.559268e+00 -4.970945e+00 -4.563251e+00 -5.393239e+00 -2.551802e+00 -1.304458e+00 -1.356275e+00 -5.280240e+00 -3.286376e+00 -2.298457e+00 9.562081e-01 -3.454420e+00 2.690903e-01 -5.474570e-01 1.690102e-01 1.900258e-02 -1.930992e-02 2.676862e-01 6.466308e-02 -1.054155e-01 5.327532e-02 -6.397431e-02 -4.687299e-01 -6.242732e-02 3.070388e-01 -2.439496e-02 1.009577e-02 -3.912640e-02 2.382085e-02 3.019324e-02 -7.516889e-02 -6.336662e-02 -2.596334e-02 3.640922e-02 9.529182e-03 2.228615e-02 -3.571907e-02 -2.272805e-02 9.774419e-04
<VARIANCE> 39
 2.975661e+01 1.820006e+01 2.747835e+01 5.703434e+01 4.261114e+01 3.138376e+01 2.886882e+01 2.251067e+01 2.725471e+01 6.233923e+01 3.170677e+01 2.426245e+01 7.183250e-02 6.082227e-01 8.502209e-01 1.147687e+00 1.488158e+00 2.404113e+00 1.887152e+00 1.903834e+00 2.030073e+00 1.985166e+00 2.258316e+00 1.585328e+00 1.190864e+00 1.000000e-02 9.440441e-02 1.125727e-01 1.623411e-01 2.442377e-01 3.124899e-01 2.811897e-01 3.160367e-01 3.729761e-01 3.751262e-01 3.937915e-01 3.072516e-01 2.146562e-01 1.000000e-02
<GCONST> 8.914594e+01
<TRANSP> 5
 0.000000e+00 1.000000e+00 0.000000e+00 0.000000e+00 0.000000e+00
 0.000000e+00 9.595843e-01 4.041570e-02 0.000000e+00 0.000000e+00
 0.000000e+00 0.000000e+00 9.648947e-01 3.510532e-02 0.000000e+00
 0.000000e+00 0.000000e+00 0.000000e+00 9.540079e-01 4.599212e-02
 0.000000e+00 0.000000e+00 0.000000e+00 0.000000e+00 0.000000e+00
<ENDHMM>
