~o
<STREAMINFO> 1 39
<VECSIZE> 39<NULLD><MFCC_E_D_A><DIAGC>
~h "zero"
<BEGINHMM>
<NUMSTATES> 5
<STATE> 2
<MEAN> 39
 -6.455104e+00 5.908256e+00 1.411708e-01 7.209527e-01 -4.857505e+00 -9.941157e+00 -6.549975e-01 -5.683437e+00 -1.219700e+00 -2.923875e+00 -3.200967e-01 -1.820517e+00 4.735073e-01 2.158518e-01 -5.248393e-03 4.038857e-01 -1.317258e-01 -8.893277e-01 -5.404590e-01 -7.207175e-01 8.845944e-02 -1.463143e-01 -2.049981e-01 6.543998e-01 -4.793094e-01 2.881882e-02 6.792893e-02 -1.329689e-01 2.863153e-02 -1.500180e-02 -1.635183e-02 4.930570e-02 -3.232132e-02 1.696344e-02 1.621030e-02 2.624115e-02 2.175821e-02 -5.069736e-02 -5.485545e-04
<VARIANCE> 39
 1.562148e+01 4.235843e+01 3.717191e+01 1.260485e+01 6.163304e+01 3.883482e+01 6.409853e+01 3.341660e+01 1.452094e+01 1.893971e+01 3.778732e+01 2.227377e+01 5.626765e-02 1.049157e+00 3.440375e+00 1.662224e+00 9.546208e-01 1.925444e+00 2.065119e+00 2.086619e+00 2.655444e+00 1.594017e+00 1.717657e+00 1.649521e+00 9.259305e-01 1.000000e-02 1.478075e-01 2.642235e-01 2.118645e-01 1.403169e-01 2.883994e-01 3.703600e-01 3.128390e-01 4.201857e-01 2.952012e-01 3.393265e-01 2.427084e-01 1.967036e-01 1.000000e-02
<GCONST> 8.993732e+01
<STATE> 3
<MEAN> 39
 6.035805e+00 -2.948704e+00 -5.080499e+00 -8.688675e+00 -1.111717e+01 -6.550099e+00 -1.089205e+01 -2.282224e+00 -8.524908e+00 3.667117e+00 1.620859e+01 -3.262338e+00 7.828036e-01 1.585436e-01 2.519180e-01 -3.910633e-01 -2.338097e-01 3.473855e-01 3.286536e-01 2.842311e-01 -1.853262e-01 -2.203527e-01 3.580071e-01 -3.613061e-02 3.492845e-01 -8.269651e-03 -5.600495e-02 6.306025e-02 5.047175e-03 3.335044e-02 5.479833e-02 -3.475663e-02 3.760022e-02 2.687522e-02 6.408117e-02 -1.393626e-02 -5.934092e-02 7.532943e-02 -1.044304e-03
<VARIANCE> 39
 5.264208e+00 2.071428e+01 6.144764e+01 5.144744e+01 1.947954e+01 2.673339e+01 3.160810e+01 2.750888e+01 3.345134e+01 1.072117e+02 2.913335e+01 5.327026e+01 1.000000e-02 5.513232e-01 1.233075e+00 2.300852e+00 1.393953e+00 1.474637e+00 1.911508e+00 1.698997e+00 2.012707e+00 2.498398e+00 4.313721e+00 2.101871e+00 4.159722e+00 1.000000e-02 5.867568e-02 1.558236e-01 2.442520e-01 1.732523e-01 2.923006e-01 2.923747e-01 2.881200e-01 3.355067e-01 4.406371e-01 5.237492e-01 3.401430e-01 4.478145e-01 1.000000e-02
<GCONST> 9.075706e+01
<STATE> 4
<MEAN> 39
 -2.400565e-02 -1.317015e+00 -5.861788e-01 -6.575424e+00 -2.515827e+00 -4.445853e+00 -7.104238e-01 -4.198211e+00 3.358080e-01 5.121832e+00 3.870965e+00 5.906285e+00 2.930233e-01 -5.170244e-01 -4.766475e-01 2.139473e-01 5.903404e-01 5.380622e-01 -1.048346e-01 4.176692e-01 1.208179e-01 5.932606e-01 -2.834888e-01 -7.224185e-01 5.588754e-03 -2.480130e-02 1.816914e-02 -1.503084e-02 -4.188119e-02 -5.719704e-02 -5.285561e-02 2.639113e-02 -2.048460e-02 -7.745397e-03 -1.230134e-01 -1.335114e-02 1.782434e-02 -9.917685e-02 1.605512e-03
<VARIANCE> 39
 8.657260e+00 9.305748e+00 5.557528e+00 1.301211e+01 1.352089e+01 1.423530e+01 1.677815e+01 1.603895e+01 1.367976e+01 1.668581e+01 2.889067e+01 1.240962e+01 2.078875e-02 1.422407e-01 3.124399e-01 5.158241e-01 9.036945e-01 9.389234e-01 1.810204e+00 1.103115e+00 1.393852e+00 2.050169e+00 1.149951e+00 1.591034e+00 1.694558e+00 1.000000e-02 2.107779e-02 5.721601e-02 1.046289e-01 1.651081e-01 2.060777e-01 3.703006e-01 2.246996e-01 2.361643e-01 2.760824e-01 2.086216e-01 3.389733e-01 3.218449e-01 1.000000e-02
<GCONST> 6.700644e+01
<TRANSP> 5
 0.000000e+00 1.000000e+00 0.000000e+00 0.000000e+00 0.000000e+00
 0.000000e+00 9.597701e-01 4.022989e-02 0.000000e+00 0.000000e+00
 0.000000e+00 0.000000e+00 9.707113e-01 2.928871e-02 0.000000e+00
 0.000000e+00 0.000000e+00 0.000000e+00 9.385965e-01 6.140351e-02
 0.000000e+00 0.000000e+00 0.000000e+00 0.000000e+00 0.000000e+00
<ENDHMM>
